tree
version=v4
num_class=1
num_tree_per_iteration=1
label_index=0
max_feature_idx=2048
objective=regression
feature_names=kiba_score_estimated prot_0 prot_1 prot_2 prot_3 prot_4 prot_5 prot_6 prot_7 prot_8 prot_9 prot_10 prot_11 prot_12 prot_13 prot_14 prot_15 prot_16 prot_17 prot_18 prot_19 prot_20 prot_21 prot_22 prot_23 prot_24 prot_25 prot_26 prot_27 prot_28 prot_29 prot_30 prot_31 prot_32 prot_33 prot_34 prot_35 prot_36 prot_37 prot_38 prot_39 prot_40 prot_41 prot_42 prot_43 prot_44 prot_45 prot_46 prot_47 prot_48 prot_49 prot_50 prot_51 prot_52 prot_53 prot_54 prot_55 prot_56 prot_57 prot_58 prot_59 prot_60 prot_61 prot_62 prot_63 prot_64 prot_65 prot_66 prot_67 prot_68 prot_69 prot_70 prot_71 prot_72 prot_73 prot_74 prot_75 prot_76 prot_77 prot_78 prot_79 prot_80 prot_81 prot_82 prot_83 prot_84 prot_85 prot_86 prot_87 prot_88 prot_89 prot_90 prot_91 prot_92 prot_93 prot_94 prot_95 prot_96 prot_97 prot_98 prot_99 prot_100 prot_101 prot_102 prot_103 prot_104 prot_105 prot_106 prot_107 prot_108 prot_109 prot_110 prot_111 prot_112 prot_113 prot_114 prot_115 prot_116 prot_117 prot_118 prot_119 prot_120 prot_121 prot_122 prot_123 prot_124 prot_125 prot_126 prot_127 prot_128 prot_129 prot_130 prot_131 prot_132 prot_133 prot_134 prot_135 prot_136 prot_137 prot_138 prot_139 prot_140 prot_141 prot_142 prot_143 prot_144 prot_145 prot_146 prot_147 prot_148 prot_149 prot_150 prot_151 prot_152 prot_153 prot_154 prot_155 prot_156 prot_157 prot_158 prot_159 prot_160 prot_161 prot_162 prot_163 prot_164 prot_165 prot_166 prot_167 prot_168 prot_169 prot_170 prot_171 prot_172 prot_173 prot_174 prot_175 prot_176 prot_177 prot_178 prot_179 prot_180 prot_181 prot_182 prot_183 prot_184 prot_185 prot_186 prot_187 prot_188 prot_189 prot_190 prot_191 prot_192 prot_193 prot_194 prot_195 prot_196 prot_197 prot_198 prot_199 prot_200 prot_201 prot_202 prot_203 prot_204 prot_205 prot_206 prot_207 prot_208 prot_209 prot_210 prot_211 prot_212 prot_213 prot_214 prot_215 prot_216 prot_217 prot_218 prot_219 prot_220 prot_221 prot_222 prot_223 prot_224 prot_225 prot_226 prot_227 prot_228 prot_229 prot_230 prot_231 prot_232 prot_233 prot_234 prot_235 prot_236 prot_237 prot_238 prot_239 prot_240 prot_241 prot_242 prot_243 prot_244 prot_245 prot_246 prot_247 prot_248 prot_249 prot_250 prot_251 prot_252 prot_253 prot_254 prot_255 prot_256 prot_257 prot_258 prot_259 prot_260 prot_261 prot_262 prot_263 prot_264 prot_265 prot_266 prot_267 prot_268 prot_269 prot_270 prot_271 prot_272 prot_273 prot_274 prot_275 prot_276 prot_277 prot_278 prot_279 prot_280 prot_281 prot_282 prot_283 prot_284 prot_285 prot_286 prot_287 prot_288 prot_289 prot_290 prot_291 prot_292 prot_293 prot_294 prot_295 prot_296 prot_297 prot_298 prot_299 prot_300 prot_301 prot_302 prot_303 prot_304 prot_305 prot_306 prot_307 prot_308 prot_309 prot_310 prot_311 prot_312 prot_313 prot_314 prot_315 prot_316 prot_317 prot_318 prot_319 prot_320 prot_321 prot_322 prot_323 prot_324 prot_325 prot_326 prot_327 prot_328 prot_329 prot_330 prot_331 prot_332 prot_333 prot_334 prot_335 prot_336 prot_337 prot_338 prot_339 prot_340 prot_341 prot_342 prot_343 prot_344 prot_345 prot_346 prot_347 prot_348 prot_349 prot_350 prot_351 prot_352 prot_353 prot_354 prot_355 prot_356 prot_357 prot_358 prot_359 prot_360 prot_361 prot_362 prot_363 prot_364 prot_365 prot_366 prot_367 prot_368 prot_369 prot_370 prot_371 prot_372 prot_373 prot_374 prot_375 prot_376 prot_377 prot_378 prot_379 prot_380 prot_381 prot_382 prot_383 prot_384 prot_385 prot_386 prot_387 prot_388 prot_389 prot_390 prot_391 prot_392 prot_393 prot_394 prot_395 prot_396 prot_397 prot_398 prot_399 prot_400 prot_401 prot_402 prot_403 prot_404 prot_405 prot_406 prot_407 prot_408 prot_409 prot_410 prot_411 prot_412 prot_413 prot_414 prot_415 prot_416 prot_417 prot_418 prot_419 prot_420 prot_421 prot_422 prot_423 prot_424 prot_425 prot_426 prot_427 prot_428 prot_429 prot_430 prot_431 prot_432 prot_433 prot_434 prot_435 prot_436 prot_437 prot_438 prot_439 prot_440 prot_441 prot_442 prot_443 prot_444 prot_445 prot_446 prot_447 prot_448 prot_449 prot_450 prot_451 prot_452 prot_453 prot_454 prot_455 prot_456 prot_457 prot_458 prot_459 prot_460 prot_461 prot_462 prot_463 prot_464 prot_465 prot_466 prot_467 prot_468 prot_469 prot_470 prot_471 prot_472 prot_473 prot_474 prot_475 prot_476 prot_477 prot_478 prot_479 prot_480 prot_481 prot_482 prot_483 prot_484 prot_485 prot_486 prot_487 prot_488 prot_489 prot_490 prot_491 prot_492 prot_493 prot_494 prot_495 prot_496 prot_497 prot_498 prot_499 prot_500 prot_501 prot_502 prot_503 prot_504 prot_505 prot_506 prot_507 prot_508 prot_509 prot_510 prot_511 prot_512 prot_513 prot_514 prot_515 prot_516 prot_517 prot_518 prot_519 prot_520 prot_521 prot_522 prot_523 prot_524 prot_525 prot_526 prot_527 prot_528 prot_529 prot_530 prot_531 prot_532 prot_533 prot_534 prot_535 prot_536 prot_537 prot_538 prot_539 prot_540 prot_541 prot_542 prot_543 prot_544 prot_545 prot_546 prot_547 prot_548 prot_549 prot_550 prot_551 prot_552 prot_553 prot_554 prot_555 prot_556 prot_557 prot_558 prot_559 prot_560 prot_561 prot_562 prot_563 prot_564 prot_565 prot_566 prot_567 prot_568 prot_569 prot_570 prot_571 prot_572 prot_573 prot_574 prot_575 prot_576 prot_577 prot_578 prot_579 prot_580 prot_581 prot_582 prot_583 prot_584 prot_585 prot_586 prot_587 prot_588 prot_589 prot_590 prot_591 prot_592 prot_593 prot_594 prot_595 prot_596 prot_597 prot_598 prot_599 prot_600 prot_601 prot_602 prot_603 prot_604 prot_605 prot_606 prot_607 prot_608 prot_609 prot_610 prot_611 prot_612 prot_613 prot_614 prot_615 prot_616 prot_617 prot_618 prot_619 prot_620 prot_621 prot_622 prot_623 prot_624 prot_625 prot_626 prot_627 prot_628 prot_629 prot_630 prot_631 prot_632 prot_633 prot_634 prot_635 prot_636 prot_637 prot_638 prot_639 prot_640 prot_641 prot_642 prot_643 prot_644 prot_645 prot_646 prot_647 prot_648 prot_649 prot_650 prot_651 prot_652 prot_653 prot_654 prot_655 prot_656 prot_657 prot_658 prot_659 prot_660 prot_661 prot_662 prot_663 prot_664 prot_665 prot_666 prot_667 prot_668 prot_669 prot_670 prot_671 prot_672 prot_673 prot_674 prot_675 prot_676 prot_677 prot_678 prot_679 prot_680 prot_681 prot_682 prot_683 prot_684 prot_685 prot_686 prot_687 prot_688 prot_689 prot_690 prot_691 prot_692 prot_693 prot_694 prot_695 prot_696 prot_697 prot_698 prot_699 prot_700 prot_701 prot_702 prot_703 prot_704 prot_705 prot_706 prot_707 prot_708 prot_709 prot_710 prot_711 prot_712 prot_713 prot_714 prot_715 prot_716 prot_717 prot_718 prot_719 prot_720 prot_721 prot_722 prot_723 prot_724 prot_725 prot_726 prot_727 prot_728 prot_729 prot_730 prot_731 prot_732 prot_733 prot_734 prot_735 prot_736 prot_737 prot_738 prot_739 prot_740 prot_741 prot_742 prot_743 prot_744 prot_745 prot_746 prot_747 prot_748 prot_749 prot_750 prot_751 prot_752 prot_753 prot_754 prot_755 prot_756 prot_757 prot_758 prot_759 prot_760 prot_761 prot_762 prot_763 prot_764 prot_765 prot_766 prot_767 prot_768 prot_769 prot_770 prot_771 prot_772 prot_773 prot_774 prot_775 prot_776 prot_777 prot_778 prot_779 prot_780 prot_781 prot_782 prot_783 prot_784 prot_785 prot_786 prot_787 prot_788 prot_789 prot_790 prot_791 prot_792 prot_793 prot_794 prot_795 prot_796 prot_797 prot_798 prot_799 prot_800 prot_801 prot_802 prot_803 prot_804 prot_805 prot_806 prot_807 prot_808 prot_809 prot_810 prot_811 prot_812 prot_813 prot_814 prot_815 prot_816 prot_817 prot_818 prot_819 prot_820 prot_821 prot_822 prot_823 prot_824 prot_825 prot_826 prot_827 prot_828 prot_829 prot_830 prot_831 prot_832 prot_833 prot_834 prot_835 prot_836 prot_837 prot_838 prot_839 prot_840 prot_841 prot_842 prot_843 prot_844 prot_845 prot_846 prot_847 prot_848 prot_849 prot_850 prot_851 prot_852 prot_853 prot_854 prot_855 prot_856 prot_857 prot_858 prot_859 prot_860 prot_861 prot_862 prot_863 prot_864 prot_865 prot_866 prot_867 prot_868 prot_869 prot_870 prot_871 prot_872 prot_873 prot_874 prot_875 prot_876 prot_877 prot_878 prot_879 prot_880 prot_881 prot_882 prot_883 prot_884 prot_885 prot_886 prot_887 prot_888 prot_889 prot_890 prot_891 prot_892 prot_893 prot_894 prot_895 prot_896 prot_897 prot_898 prot_899 prot_900 prot_901 prot_902 prot_903 prot_904 prot_905 prot_906 prot_907 prot_908 prot_909 prot_910 prot_911 prot_912 prot_913 prot_914 prot_915 prot_916 prot_917 prot_918 prot_919 prot_920 prot_921 prot_922 prot_923 prot_924 prot_925 prot_926 prot_927 prot_928 prot_929 prot_930 prot_931 prot_932 prot_933 prot_934 prot_935 prot_936 prot_937 prot_938 prot_939 prot_940 prot_941 prot_942 prot_943 prot_944 prot_945 prot_946 prot_947 prot_948 prot_949 prot_950 prot_951 prot_952 prot_953 prot_954 prot_955 prot_956 prot_957 prot_958 prot_959 prot_960 prot_961 prot_962 prot_963 prot_964 prot_965 prot_966 prot_967 prot_968 prot_969 prot_970 prot_971 prot_972 prot_973 prot_974 prot_975 prot_976 prot_977 prot_978 prot_979 prot_980 prot_981 prot_982 prot_983 prot_984 prot_985 prot_986 prot_987 prot_988 prot_989 prot_990 prot_991 prot_992 prot_993 prot_994 prot_995 prot_996 prot_997 prot_998 prot_999 prot_1000 prot_1001 prot_1002 prot_1003 prot_1004 prot_1005 prot_1006 prot_1007 prot_1008 prot_1009 prot_1010 prot_1011 prot_1012 prot_1013 prot_1014 prot_1015 prot_1016 prot_1017 prot_1018 prot_1019 prot_1020 prot_1021 prot_1022 prot_1023 mol_0 mol_1 mol_2 mol_3 mol_4 mol_5 mol_6 mol_7 mol_8 mol_9 mol_10 mol_11 mol_12 mol_13 mol_14 mol_15 mol_16 mol_17 mol_18 mol_19 mol_20 mol_21 mol_22 mol_23 mol_24 mol_25 mol_26 mol_27 mol_28 mol_29 mol_30 mol_31 mol_32 mol_33 mol_34 mol_35 mol_36 mol_37 mol_38 mol_39 mol_40 mol_41 mol_42 mol_43 mol_44 mol_45 mol_46 mol_47 mol_48 mol_49 mol_50 mol_51 mol_52 mol_53 mol_54 mol_55 mol_56 mol_57 mol_58 mol_59 mol_60 mol_61 mol_62 mol_63 mol_64 mol_65 mol_66 mol_67 mol_68 mol_69 mol_70 mol_71 mol_72 mol_73 mol_74 mol_75 mol_76 mol_77 mol_78 mol_79 mol_80 mol_81 mol_82 mol_83 mol_84 mol_85 mol_86 mol_87 mol_88 mol_89 mol_90 mol_91 mol_92 mol_93 mol_94 mol_95 mol_96 mol_97 mol_98 mol_99 mol_100 mol_101 mol_102 mol_103 mol_104 mol_105 mol_106 mol_107 mol_108 mol_109 mol_110 mol_111 mol_112 mol_113 mol_114 mol_115 mol_116 mol_117 mol_118 mol_119 mol_120 mol_121 mol_122 mol_123 mol_124 mol_125 mol_126 mol_127 mol_128 mol_129 mol_130 mol_131 mol_132 mol_133 mol_134 mol_135 mol_136 mol_137 mol_138 mol_139 mol_140 mol_141 mol_142 mol_143 mol_144 mol_145 mol_146 mol_147 mol_148 mol_149 mol_150 mol_151 mol_152 mol_153 mol_154 mol_155 mol_156 mol_157 mol_158 mol_159 mol_160 mol_161 mol_162 mol_163 mol_164 mol_165 mol_166 mol_167 mol_168 mol_169 mol_170 mol_171 mol_172 mol_173 mol_174 mol_175 mol_176 mol_177 mol_178 mol_179 mol_180 mol_181 mol_182 mol_183 mol_184 mol_185 mol_186 mol_187 mol_188 mol_189 mol_190 mol_191 mol_192 mol_193 mol_194 mol_195 mol_196 mol_197 mol_198 mol_199 mol_200 mol_201 mol_202 mol_203 mol_204 mol_205 mol_206 mol_207 mol_208 mol_209 mol_210 mol_211 mol_212 mol_213 mol_214 mol_215 mol_216 mol_217 mol_218 mol_219 mol_220 mol_221 mol_222 mol_223 mol_224 mol_225 mol_226 mol_227 mol_228 mol_229 mol_230 mol_231 mol_232 mol_233 mol_234 mol_235 mol_236 mol_237 mol_238 mol_239 mol_240 mol_241 mol_242 mol_243 mol_244 mol_245 mol_246 mol_247 mol_248 mol_249 mol_250 mol_251 mol_252 mol_253 mol_254 mol_255 mol_256 mol_257 mol_258 mol_259 mol_260 mol_261 mol_262 mol_263 mol_264 mol_265 mol_266 mol_267 mol_268 mol_269 mol_270 mol_271 mol_272 mol_273 mol_274 mol_275 mol_276 mol_277 mol_278 mol_279 mol_280 mol_281 mol_282 mol_283 mol_284 mol_285 mol_286 mol_287 mol_288 mol_289 mol_290 mol_291 mol_292 mol_293 mol_294 mol_295 mol_296 mol_297 mol_298 mol_299 mol_300 mol_301 mol_302 mol_303 mol_304 mol_305 mol_306 mol_307 mol_308 mol_309 mol_310 mol_311 mol_312 mol_313 mol_314 mol_315 mol_316 mol_317 mol_318 mol_319 mol_320 mol_321 mol_322 mol_323 mol_324 mol_325 mol_326 mol_327 mol_328 mol_329 mol_330 mol_331 mol_332 mol_333 mol_334 mol_335 mol_336 mol_337 mol_338 mol_339 mol_340 mol_341 mol_342 mol_343 mol_344 mol_345 mol_346 mol_347 mol_348 mol_349 mol_350 mol_351 mol_352 mol_353 mol_354 mol_355 mol_356 mol_357 mol_358 mol_359 mol_360 mol_361 mol_362 mol_363 mol_364 mol_365 mol_366 mol_367 mol_368 mol_369 mol_370 mol_371 mol_372 mol_373 mol_374 mol_375 mol_376 mol_377 mol_378 mol_379 mol_380 mol_381 mol_382 mol_383 mol_384 mol_385 mol_386 mol_387 mol_388 mol_389 mol_390 mol_391 mol_392 mol_393 mol_394 mol_395 mol_396 mol_397 mol_398 mol_399 mol_400 mol_401 mol_402 mol_403 mol_404 mol_405 mol_406 mol_407 mol_408 mol_409 mol_410 mol_411 mol_412 mol_413 mol_414 mol_415 mol_416 mol_417 mol_418 mol_419 mol_420 mol_421 mol_422 mol_423 mol_424 mol_425 mol_426 mol_427 mol_428 mol_429 mol_430 mol_431 mol_432 mol_433 mol_434 mol_435 mol_436 mol_437 mol_438 mol_439 mol_440 mol_441 mol_442 mol_443 mol_444 mol_445 mol_446 mol_447 mol_448 mol_449 mol_450 mol_451 mol_452 mol_453 mol_454 mol_455 mol_456 mol_457 mol_458 mol_459 mol_460 mol_461 mol_462 mol_463 mol_464 mol_465 mol_466 mol_467 mol_468 mol_469 mol_470 mol_471 mol_472 mol_473 mol_474 mol_475 mol_476 mol_477 mol_478 mol_479 mol_480 mol_481 mol_482 mol_483 mol_484 mol_485 mol_486 mol_487 mol_488 mol_489 mol_490 mol_491 mol_492 mol_493 mol_494 mol_495 mol_496 mol_497 mol_498 mol_499 mol_500 mol_501 mol_502 mol_503 mol_504 mol_505 mol_506 mol_507 mol_508 mol_509 mol_510 mol_511 mol_512 mol_513 mol_514 mol_515 mol_516 mol_517 mol_518 mol_519 mol_520 mol_521 mol_522 mol_523 mol_524 mol_525 mol_526 mol_527 mol_528 mol_529 mol_530 mol_531 mol_532 mol_533 mol_534 mol_535 mol_536 mol_537 mol_538 mol_539 mol_540 mol_541 mol_542 mol_543 mol_544 mol_545 mol_546 mol_547 mol_548 mol_549 mol_550 mol_551 mol_552 mol_553 mol_554 mol_555 mol_556 mol_557 mol_558 mol_559 mol_560 mol_561 mol_562 mol_563 mol_564 mol_565 mol_566 mol_567 mol_568 mol_569 mol_570 mol_571 mol_572 mol_573 mol_574 mol_575 mol_576 mol_577 mol_578 mol_579 mol_580 mol_581 mol_582 mol_583 mol_584 mol_585 mol_586 mol_587 mol_588 mol_589 mol_590 mol_591 mol_592 mol_593 mol_594 mol_595 mol_596 mol_597 mol_598 mol_599 mol_600 mol_601 mol_602 mol_603 mol_604 mol_605 mol_606 mol_607 mol_608 mol_609 mol_610 mol_611 mol_612 mol_613 mol_614 mol_615 mol_616 mol_617 mol_618 mol_619 mol_620 mol_621 mol_622 mol_623 mol_624 mol_625 mol_626 mol_627 mol_628 mol_629 mol_630 mol_631 mol_632 mol_633 mol_634 mol_635 mol_636 mol_637 mol_638 mol_639 mol_640 mol_641 mol_642 mol_643 mol_644 mol_645 mol_646 mol_647 mol_648 mol_649 mol_650 mol_651 mol_652 mol_653 mol_654 mol_655 mol_656 mol_657 mol_658 mol_659 mol_660 mol_661 mol_662 mol_663 mol_664 mol_665 mol_666 mol_667 mol_668 mol_669 mol_670 mol_671 mol_672 mol_673 mol_674 mol_675 mol_676 mol_677 mol_678 mol_679 mol_680 mol_681 mol_682 mol_683 mol_684 mol_685 mol_686 mol_687 mol_688 mol_689 mol_690 mol_691 mol_692 mol_693 mol_694 mol_695 mol_696 mol_697 mol_698 mol_699 mol_700 mol_701 mol_702 mol_703 mol_704 mol_705 mol_706 mol_707 mol_708 mol_709 mol_710 mol_711 mol_712 mol_713 mol_714 mol_715 mol_716 mol_717 mol_718 mol_719 mol_720 mol_721 mol_722 mol_723 mol_724 mol_725 mol_726 mol_727 mol_728 mol_729 mol_730 mol_731 mol_732 mol_733 mol_734 mol_735 mol_736 mol_737 mol_738 mol_739 mol_740 mol_741 mol_742 mol_743 mol_744 mol_745 mol_746 mol_747 mol_748 mol_749 mol_750 mol_751 mol_752 mol_753 mol_754 mol_755 mol_756 mol_757 mol_758 mol_759 mol_760 mol_761 mol_762 mol_763 mol_764 mol_765 mol_766 mol_767 mol_768 mol_769 mol_770 mol_771 mol_772 mol_773 mol_774 mol_775 mol_776 mol_777 mol_778 mol_779 mol_780 mol_781 mol_782 mol_783 mol_784 mol_785 mol_786 mol_787 mol_788 mol_789 mol_790 mol_791 mol_792 mol_793 mol_794 mol_795 mol_796 mol_797 mol_798 mol_799 mol_800 mol_801 mol_802 mol_803 mol_804 mol_805 mol_806 mol_807 mol_808 mol_809 mol_810 mol_811 mol_812 mol_813 mol_814 mol_815 mol_816 mol_817 mol_818 mol_819 mol_820 mol_821 mol_822 mol_823 mol_824 mol_825 mol_826 mol_827 mol_828 mol_829 mol_830 mol_831 mol_832 mol_833 mol_834 mol_835 mol_836 mol_837 mol_838 mol_839 mol_840 mol_841 mol_842 mol_843 mol_844 mol_845 mol_846 mol_847 mol_848 mol_849 mol_850 mol_851 mol_852 mol_853 mol_854 mol_855 mol_856 mol_857 mol_858 mol_859 mol_860 mol_861 mol_862 mol_863 mol_864 mol_865 mol_866 mol_867 mol_868 mol_869 mol_870 mol_871 mol_872 mol_873 mol_874 mol_875 mol_876 mol_877 mol_878 mol_879 mol_880 mol_881 mol_882 mol_883 mol_884 mol_885 mol_886 mol_887 mol_888 mol_889 mol_890 mol_891 mol_892 mol_893 mol_894 mol_895 mol_896 mol_897 mol_898 mol_899 mol_900 mol_901 mol_902 mol_903 mol_904 mol_905 mol_906 mol_907 mol_908 mol_909 mol_910 mol_911 mol_912 mol_913 mol_914 mol_915 mol_916 mol_917 mol_918 mol_919 mol_920 mol_921 mol_922 mol_923 mol_924 mol_925 mol_926 mol_927 mol_928 mol_929 mol_930 mol_931 mol_932 mol_933 mol_934 mol_935 mol_936 mol_937 mol_938 mol_939 mol_940 mol_941 mol_942 mol_943 mol_944 mol_945 mol_946 mol_947 mol_948 mol_949 mol_950 mol_951 mol_952 mol_953 mol_954 mol_955 mol_956 mol_957 mol_958 mol_959 mol_960 mol_961 mol_962 mol_963 mol_964 mol_965 mol_966 mol_967 mol_968 mol_969 mol_970 mol_971 mol_972 mol_973 mol_974 mol_975 mol_976 mol_977 mol_978 mol_979 mol_980 mol_981 mol_982 mol_983 mol_984 mol_985 mol_986 mol_987 mol_988 mol_989 mol_990 mol_991 mol_992 mol_993 mol_994 mol_995 mol_996 mol_997 mol_998 mol_999 mol_1000 mol_1001 mol_1002 mol_1003 mol_1004 mol_1005 mol_1006 mol_1007 mol_1008 mol_1009 mol_1010 mol_1011 mol_1012 mol_1013 mol_1014 mol_1015 mol_1016 mol_1017 mol_1018 mol_1019 mol_1020 mol_1021 mol_1022 mol_1023
feature_infos=[0:1] [-5.47265625:5.79296875] [-3.85546875:3.125] [-4.3984375:4.078125] [-7.46484375:5.58203125] [-4.58984375:4.69140625] [-7.28125:4.53125] [-3.345703125:7.66796875] [-4.953125:4.23046875] [-5.23828125:5.47265625] [-5.23046875:8.546875] [-4.33203125:3.365234375] [-5.16015625:5.2890625] [-4.86328125:4.4921875] [-5.15625:3.853515625] [-5.19140625:3.5078125] [-5.35546875:5.30859375] [-4.96875:4.05078125] [-4.58203125:4.39453125] [-4.03515625:4.875] [-4.76953125:5.65234375] [-3.619140625:3.8515625] [-5.765625:3.607421875] [-3.5703125:4.62109375] [-6.32421875:6.56640625] [-4.31640625:4.65625] [-4.078125:4.30859375] [-6.421875:3.783203125] [-5.765625:4.05859375] [-3.162109375:4.1796875] [-3.8984375:5.7578125] [-3.0078125:6.9375] [-3.818359375:4.6171875] [-5.61328125:4.55859375] [-4.59765625:4.8203125] [-3.82421875:4.53515625] [-6.13671875:4.4453125] [-4.58203125:4.71484375] [-8.515625:4.609375] [-3.73046875:4.73828125] [-4.92578125:4.6640625] [-4.9609375:3.435546875] [-7.1328125:3.265625] [-5.5390625:4.3046875] [-4.4453125:4.21875] [-5.11328125:5.65234375] [-6.078125:5.9765625] [-4.83984375:3.36328125] [-2.869140625:5.421875] [-5.51953125:3.7890625] [-5.76953125:7.6171875] [-6.80859375:3.810546875] [-4.8125:3.03125] [-5.2578125:5.4375] [-3.576171875:3.9921875] [-3.638671875:3.6484375] [-3.853515625:7.05859375] [-3.884765625:3.5234375] [-2.53125:4.28125] [-6.55859375:4.90234375] [-5.5625:4.4609375] [-5.33203125:4.57421875] [-4.30859375:3.486328125] [-4.30078125:3.904296875] [-2.3359375:7.4140625] [-8.9453125:6.7421875] [-5.7421875:5.45703125] [-4.4140625:4.203125] [-3.95703125:5.91796875] [-4.41015625:4.35546875] [-6.24609375:3.9296875] [-4.12109375:4.12109375] [-5.04296875:4.828125] [-4.88671875:2.875] [-4.046875:4.12109375] [-4.99609375:4.18359375] [-4.7109375:3.5390625] [-4.296875:2.88671875] [-3.9296875:3.517578125] [-4.67578125:4.4765625] [-4.390625:3.951171875] [-4.0546875:3.884765625] [-6.76953125:4.1640625] [-5.0234375:3.78515625] [-4.33984375:3.650390625] [-4.875:4.05859375] [-3.353515625:6.04296875] [-6.45703125:3.962890625] [-5.05078125:5.359375] [-3.990234375:4.515625] [-4.38671875:3.998046875] [-4.875:3.376953125] [-5.60546875:6.3828125] [-3.412109375:4.8984375] [-4.46875:4.26171875] [-5.59375:4.33203125] [-4.90625:4.2109375] [-4.07421875:3.107421875] [-4.28515625:6.5546875] [-5.5546875:4.24609375] [-3.443359375:5.4609375] [-5.29296875:3.974609375] [-5.62890625:4.34765625] [-8.5:3.78125] [-4.1953125:4.015625] [-3.8046875:7.1640625] [-4.3046875:7.26953125] [-3.94140625:4.1171875] [-4.140625:5.015625] [-6.640625:4.9140625] [-4.1875:3.06640625] [-4.73046875:3.251953125] [-6.37890625:5.0390625] [-4.64453125:4.12890625] [-4.69140625:4.05078125] [-6.90625:4.453125] [-4.640625:4.2265625] [-5.0234375:6.30078125] [-3.171875:4.74609375] [-3.515625:4.25390625] [-4.8515625:3.11328125] [-4.578125:4.9453125] [-4.828125:3.744140625] [-3.775390625:4.21875] [-5.44140625:3.4453125] [-4.59375:4.5234375] [-3.8671875:3.787109375] [-3.80078125:4.5390625] [-5.46484375:4.578125] [-4.34765625:5.890625] [-4.9140625:6.3203125] [-3.791015625:4.83984375] [-7.32421875:3.490234375] [-4.9609375:5.4921875] [-3.84765625:4.78125] [-4.23046875:4.8671875] [-4.3359375:4.5625] [-5.98828125:3.7109375] [-4.0390625:5.125] [-5.32421875:4.3828125] [-3.88671875:4.55859375] [-4.24609375:4.3046875] [-3.8828125:5.2109375] [-4.6328125:4.49609375] [-4.56640625:5.80859375] [-5.359375:3.376953125] [-3.791015625:6.234375] [-5.08984375:4.15625] [-4.0625:5.4453125] [-3.31640625:7.21875] [-4.62109375:4.5078125] [-3.966796875:4.10546875] [-4.3125:4.5859375] [-4.390625:3.814453125] [-4.6484375:3.380859375] [-3.517578125:3.5390625] [-3.908203125:5.24609375] [-5.21875:4.5859375] [-4.91015625:4.0625] [-3.064453125:3.279296875] [-6.4140625:8.84375] [-3.712890625:7.3515625] [-4.3984375:4.19921875] [-3.697265625:2.974609375] [-4.21875:5.3046875] [-4.9765625:6.40234375] [-4.7734375:3.08984375] [-4.1640625:5.1640625] [-3.259765625:5.0546875] [-4.33984375:6.57421875] [-6.89453125:4.453125] [-3.689453125:10.8359375] [-5.25:4.73828125] [-8.78125:5] [-4.703125:3.9140625] [-5.30078125:4.44140625] [-3.15234375:4.9296875] [-3.890625:5.1875] [-4.09375:7.91796875] [-4.046875:4.75] [-5.25390625:10.2578125] [-3.5859375:4.71875] [-4.625:4.72265625] [-3.693359375:8.515625] [-4.4765625:7.1328125] [-4.2890625:6.82421875] [-7.3359375:4.03515625] [-3.7265625:4.45703125] [-4.796875:4.31640625] [-2.990234375:5.46875] [-2.748046875:4.04296875] [-4.0546875:3.798828125] [-8.296875:3.384765625] [-4.15234375:5.65625] [-5.85546875:5.17578125] [-4.3828125:4.48046875] [-4.6953125:4.07421875] [-4.80859375:7.45703125] [-4.56640625:4.90234375] [-6.31640625:3.828125] [-4.66796875:4.46875] [-3.712890625:4.875] [-6.00390625:4.76953125] [-3.779296875:3.822265625] [-2.630859375:4.56640625] [-3.49609375:6.4140625] [-4.80078125:4.984375] [-3.744140625:4.85546875] [-4.4921875:4.0234375] [-3.849609375:5.30078125] [-5.7578125:4.88671875] [-5.23046875:4.1015625] [-4.6953125:3.2265625] [-4.26953125:4.578125] [-4.96484375:4.68359375] [-7.43359375:3.86328125] [-5.44140625:5.125] [-5.671875:7.45703125] [-5.296875:5.578125] [-4.8671875:4.1171875] [-4.3125:3.75390625] [-3.869140625:5.64453125] [-4.546875:5.1875] [-5.671875:4.78515625] [-3.22265625:5.796875] [-5.015625:5.3125] [-6.07421875:5.38671875] [-4.32421875:4.6640625] [-5:4.59375] [-4.39453125:4.046875] [-3.431640625:4.25] [-7.640625:5.04296875] [-4.6796875:3.107421875] [-6.75:3.82421875] [-9.1953125:3.533203125] [-3.9296875:3.626953125] [-7.9296875:3.9609375] [-4.015625:6.6796875] [-7.76171875:4.6328125] [-3.716796875:4.1796875] [-5.4765625:6.7734375] [-4.59765625:6.65625] [-6.9140625:3.412109375] [-4.06640625:4.671875] [-5.0625:4.51171875] [-3.62109375:3.71875] [-4.38671875:5.05859375] [-8.8671875:3.89453125] [-3.72265625:5.04296875] [-6.7265625:5.3359375] [-4.6875:4.78125] [-7.265625:3.8828125] [-4.06640625:5.32421875] [-3.94140625:5.77734375] [-5.3359375:3.4140625] [-5.2890625:5.1484375] [-3.85546875:5.44921875] [-5.1484375:3.962890625] [-4.01953125:5.42578125] [-4.03515625:4.5546875] [-4.9140625:5.26171875] [-4.1328125:4.0625] [-4.515625:5.6953125] [-4.3203125:6.03125] [-4.23828125:4.859375] [-4.921875:4.35546875] [-5.22265625:5.48828125] [-5.4453125:4.22265625] [-7.14453125:4.76953125] [-5.36328125:5.93359375] [-3.404296875:4.796875] [-7.0859375:4.0859375] [-6.22265625:5.29296875] [-4.890625:3.560546875] [-3.19921875:4.42578125] [-3.240234375:5.0625] [-6.421875:4.5390625] [-4.0390625:5.12109375] [-5.88671875:5.2578125] [-4.42578125:3.89453125] [-6.48828125:4.4609375] [-5.1015625:4.64453125] [-5.60546875:3.763671875] [-4.10546875:3.232421875] [-7.203125:4.00390625] [-4.55859375:5.69921875] [-3.423828125:4.4296875] [-4.21875:4.33984375] [-4.8984375:5.140625] [-4.55859375:3.966796875] [-3.541015625:5.75390625] [-4.22265625:5.11328125] [-4.69921875:3.859375] [-5.06640625:5.2578125] [-5.4375:3.6796875] [-4.33984375:1.9892578125] [-5.515625:4.2734375] [-3.31640625:6.15234375] [-5.328125:3.2734375] [-4.08203125:8.5078125] [-5.71484375:5.61328125] [-4.265625:4.01171875] [-4.15234375:5.8359375] [-4.0078125:6.55078125] [-4.35546875:4.58203125] [-4.32421875:5.01171875] [-8.2421875:4.21875] [-3.66015625:5.7734375] [-3.685546875:3.6953125] [-4.828125:6.0234375] [-5.69921875:2.78515625] [-3.259765625:3.908203125] [-3.9375:5.16015625] [-3.50390625:5.66796875] [-7.02734375:4.40625] [-4.2734375:4.95703125] [-5.328125:4.546875] [-4.8359375:5.83203125] [-5.02734375:6.17578125] [-3.658203125:3.638671875] [-3.626953125:4.7109375] [-4.9921875:4.8125] [-4.45703125:3.6484375] [-3.53515625:3.732421875] [-4.62890625:3.6015625] [-2.947265625:6.91796875] [-3.400390625:5.859375] [-4.59765625:3.736328125] [-5.93359375:4.1640625] [-3.994140625:4.53515625] [-4.6640625:5.09765625] [-4.09765625:5.015625] [-4.40234375:9.3671875] [-9.84375:4.9453125] [-3.373046875:4.1640625] [-3.97265625:5.25390625] [-3.833984375:4.77734375] [-7.859375:6.09375] [-4.24609375:5.125] [-3.75:5.30078125] [-7.65234375:3.802734375] [-4.8515625:5.93359375] [-8.359375:5.58984375] [-6.734375:4.9453125] [-4.08203125:4.7578125] [-5.58984375:4.12890625] [-6.58984375:4.5859375] [-6.05078125:4.67578125] [-4.171875:3.837890625] [-3.84375:5.0078125] [-3.71875:4.78515625] [-3.939453125:4.9921875] [-4.19140625:4.31640625] [-6.29296875:4.6796875] [-4.1953125:4.109375] [-3.63671875:3.84375] [-3.64453125:4.34375] [-3.912109375:4.51171875] [-5.64453125:4.09375] [-4.87890625:5.19140625] [-3.80859375:8.1953125] [-6.4375:4.79296875] [-4.390625:5.35546875] [-5.61328125:5.7578125] [-5.87890625:7.6953125] [-5.1953125:3.80078125] [-4.5546875:3.705078125] [-3.587890625:3.72265625] [-4.41015625:8.609375] [-8.890625:4.28515625] [-4.08984375:7.63671875] [-5.08984375:3.5703125] [-3.009765625:4.625] [-5.74609375:4.390625] [-5.0625:4.78515625] [-7.1015625:4.30859375] [-3.88671875:6.375] [-3.9921875:5.16015625] [-4.421875:5.55859375] [-7.87890625:5.99609375] [-4.328125:5.62109375] [-6.015625:4.0234375] [-4.1796875:5.93359375] [-3.8515625:4.3828125] [-5.27734375:6.21875] [-3.6484375:4.99609375] [-3.8984375:5.55859375] [-4.58984375:5.3984375] [-2.927734375:6.7109375] [-8.9296875:3.826171875] [-7.0859375:4.83984375] [-4.3203125:3.681640625] [-3.357421875:2.673828125] [-4.921875:3.982421875] [-4.2578125:3.93359375] [-5.78515625:3.767578125] [-3.68359375:5.55078125] [-3.94921875:3.658203125] [-5.43359375:4.03125] [-5.4296875:4.12109375] [-4.36328125:6.046875] [-3.8671875:4.0234375] [-4.79296875:3.5] [-4.44140625:3.880859375] [-3.84765625:3.720703125] [-3.638671875:6.1171875] [-7.79296875:1.8447265625] [-3.841796875:3.541015625] [-4.23046875:10.3671875] [-6.11328125:3.421875] [-4.06640625:4.97265625] [-8.1171875:3.552734375] [-6.421875:5.1875] [-3.970703125:5.99609375] [-4.39453125:5.53125] [-3.712890625:3.994140625] [-3.80859375:5.64453125] [-8.03125:5.734375] [-4.1484375:4.65625] [-4.30859375:4.4921875] [-3.5390625:4.18359375] [-6.12109375:4.09375] [-3.583984375:3.609375] [-4.71875:5.0546875] [-3.79296875:5.890625] [-3.953125:3.2890625] [-5.03125:4.30078125] [-4.0859375:4.2734375] [-3.873046875:3.66796875] [-4.3125:4.01953125] [-5.8203125:4.53515625] [-6.74609375:3.841796875] [-4.06640625:5.2421875] [-5.140625:3.7109375] [-5.78125:6.68359375] [-4.671875:4.62890625] [-4.44921875:4.92578125] [-3.037109375:6.92578125] [-3.53515625:6.9609375] [-5.37109375:5.95703125] [-4.359375:3.80859375] [-4.01171875:3.1015625] [-5.97265625:5.12109375] [-4.01953125:5.08984375] [-7.4609375:3.775390625] [-4.80078125:3.74609375] [-4:3.0546875] [-6.62890625:4.80859375] [-4.8203125:4.1796875] [-4.30859375:3.369140625] [-3.111328125:5.46484375] [-4.1875:3.1875] [-4.1640625:4.4453125] [-4.68359375:4.0703125] [-4.859375:5.390625] [-4.12109375:3.3828125] [-4.3671875:5.12109375] [-5.66015625:4.16015625] [-3.98046875:3.970703125] [-3.119140625:4.0546875] [-4.90625:4.0390625] [-4.640625:4.85546875] [-4.50390625:3.5] [-3.443359375:5.48828125] [-5.63671875:5.53125] [-3.986328125:4.0234375] [-4.29296875:6.18359375] [-4.34375:3.02734375] [-3.5546875:5.3046875] [-4.359375:2.861328125] [-7.1875:4.55078125] [-2.94140625:4.2890625] [-5.41015625:4.6875] [-3.71484375:4.89453125] [-5.16796875:5.49609375] [-5.11328125:4.96484375] [-3.451171875:3.708984375] [-4.12890625:3.83984375] [-4.38671875:7.8671875] [-4.46484375:4.83984375] [-3.79296875:3.076171875] [-4.03125:6.2421875] [-6.515625:4.30078125] [-3.943359375:7.67578125] [-5.00390625:6.296875] [-3.51171875:4.5859375] [-4.53515625:2.638671875] [-4.1484375:4.9609375] [-4.34765625:5.328125] [-6.0390625:5.7578125] [-4.7421875:4.77734375] [-4.61328125:3.921875] [-4.05859375:4.53125] [-3.923828125:5.96484375] [-6.890625:4.0546875] [-4.0390625:4.29296875] [-4.3984375:6.6328125] [-5.0703125:5.00390625] [-4.12109375:4.71484375] [-6.65625:3.705078125] [-5.09765625:3.404296875] [-6.9609375:3.529296875] [-4.33203125:7.2109375] [-3.771484375:3.66015625] [-4.0078125:3.51171875] [-3.939453125:3.0625] [-7.4296875:7.03125] [-3.37890625:4.4609375] [-4.22265625:3.896484375] [-6.3046875:4.16796875] [-3.990234375:4.80859375] [-4.94921875:4.203125] [-3.7265625:3.732421875] [-4.52734375:5.65234375] [-6.296875:4.1796875] [-4.0703125:4.6484375] [-5.51171875:6.0234375] [-4.265625:3.8828125] [-5.6171875:3.912109375] [-3.685546875:5.25390625] [-8.4765625:6.63671875] [-4.69921875:5.0546875] [-3.76171875:4.08984375] [-4.9609375:4.015625] [-6.78515625:4.47265625] [-3.416015625:5.06640625] [-3.75:4.62890625] [-5.734375:5.54296875] [-4.15625:4.24609375] [-3.8828125:4.59375] [-8.390625:3.3046875] [-4.7265625:4.21484375] [-3.98046875:8.03125] [-4.46484375:2.9609375] [-3.326171875:5.046875] [-5.02734375:3.478515625] [-4.96484375:3.794921875] [-5:6.6875] [-2.466796875:4.0703125] [-3.427734375:4.71875] [-4.453125:4.2734375] [-3.28515625:5.6171875] [-3.658203125:6.171875] [-4.6015625:6.31640625] [-3.884765625:5.515625] [-5.3828125:4.07421875] [-3.751953125:4.546875] [-4.8046875:5.41796875] [-3.9375:7.98828125] [-3.521484375:4.19921875] [-4.046875:3.72265625] [-3.95703125:6.87109375] [-4.02734375:4.1640625] [-3.283203125:7.375] [-4.80078125:3.892578125] [-5.48828125:3.75] [-5.890625:4.921875] [-4.01953125:4.59765625] [-3.5625:3.703125] [-3.5078125:5.02734375] [-4.6171875:7.2265625] [-4.18359375:3.880859375] [-4.46484375:4.36328125] [-7.00390625:4.3203125] [-4.67578125:4.54296875] [-6.171875:6.18359375] [-5.17578125:4.80859375] [-5.55859375:3.90234375] [-5.02734375:6.3046875] [-2.908203125:4.7265625] [-5.3828125:5.5078125] [-4.2421875:8.4609375] [-6.3046875:4.63671875] [-3.84765625:3.607421875] [-3.125:5.7734375] [-3.875:5.4453125] [-5.34375:6.3125] [-3.65625:5.20703125] [-4.3828125:3.779296875] [-3.826171875:3.173828125] [-5.23828125:4.078125] [-4.27734375:3.697265625] [-5.66015625:4.37109375] [-5.50390625:3.30859375] [-5.30859375:3.388671875] [-3.10546875:5.40234375] [-5.40625:3.626953125] [-3.86328125:6.28515625] [-4.14453125:3.654296875] [-5.37890625:4.90625] [-5.03125:3.76171875] [-4.69921875:4.07421875] [-2.80859375:7.859375] [-4.70703125:3.853515625] [-4.94921875:4.015625] [-7.30078125:3.27734375] [-5.3671875:5.35546875] [-4.44140625:5.0625] [-6.44140625:3.181640625] [-5.9453125:6.9375] [-4.4609375:6.18359375] [-4.17578125:3.876953125] [-4.296875:4.15625] [-4.125:4.21875] [-3.962890625:6.046875] [-4.51953125:3.419921875] [-5.16796875:4.64453125] [-5.64453125:3.5625] [-3.08203125:6.02734375] [-4.765625:6.46875] [-5.05859375:5.2734375] [-4.88671875:4.30859375] [-6.5:3.802734375] [-5.515625:3.630859375] [-3.390625:5.4140625] [-4.7578125:3.017578125] [-9.1484375:3.220703125] [-3.298828125:4.0546875] [-3.66015625:4.90234375] [-3.052734375:4.38671875] [-5.203125:4.3203125] [-4.484375:3.60546875] [-3.947265625:4.55859375] [-3.421875:3.482421875] [-4.765625:5.43359375] [-6.4609375:6.0859375] [-3.580078125:5.3828125] [-6.32421875:3.9296875] [-4.7421875:3.03515625] [-5.90234375:4.30078125] [-6.921875:4.13671875] [-4.3671875:4.65625] [-5.234375:3.193359375] [-3:5.26953125] [-6.39453125:4.6015625] [-3.4375:5.70703125] [-4.86328125:2.716796875] [-3.900390625:3.755859375] [-4.51171875:4.51953125] [-4.28515625:8.1328125] [-4.625:5.17578125] [-3.49609375:6.2734375] [-6.66796875:4.625] [-3.74609375:6.84375] [-6.24609375:4.33203125] [-3.384765625:5.265625] [-4.625:4.44921875] [-4.796875:6.25] [-4.91796875:3.1328125] [-4.171875:3.787109375] [-7.46875:3.748046875] [-5.3203125:3.986328125] [-4.07421875:4.18359375] [-3.955078125:4.38671875] [-3.154296875:4.43359375] [-5.265625:3.90625] [-4.48046875:5.87109375] [-4.24609375:4.6171875] [-4.22265625:5.53125] [-4.40625:4.140625] [-4.7109375:4.8984375] [-3.732421875:4.203125] [-4.28125:8.8125] [-4.30859375:7.12109375] [-3.8359375:5.46484375] [-4.3671875:7.53515625] [-4.21484375:5.63671875] [-4.0390625:4.34765625] [-4.71484375:3.1484375] [-4.0546875:4.078125] [-3.373046875:5.359375] [-7.25:3.392578125] [-4.34375:4.1640625] [-7.42578125:4.02734375] [-4.95703125:6.98046875] [-4.3203125:4.203125] [-4:4.921875] [-6.09375:4.31640625] [-3.423828125:4.33984375] [-2.8203125:4.5703125] [-4.37890625:4.7421875] [-5.59375:5.16015625] [-3.939453125:4.62890625] [-5.25390625:3.787109375] [-4.1484375:4.625] [-3.236328125:4.7578125] [-3.369140625:4.421875] [-5.20703125:3.5859375] [-4.77734375:3.77734375] [-4.234375:5.60546875] [-6.01953125:4.3671875] [-4.50390625:5.64453125] [-6.00390625:3.69140625] [-4.66015625:4.265625] [-3.935546875:4.87109375] [-3.9609375:5.0703125] [-3.990234375:6.43359375] [-5.81640625:5.3203125] [-3.384765625:4.76171875] [-5.2109375:4.62109375] [-7.0625:4.953125] [-5.38671875:3.4140625] [-3.818359375:3.82421875] [-6.265625:3.3125] [-3.677734375:4.73828125] [-5.5390625:3.40234375] [-4.0234375:4.48828125] [-5.4609375:4.16796875] [-5.69140625:6.71484375] [-3.546875:5.3203125] [-3.625:6.37890625] [-6.88671875:3.857421875] [-5.16796875:2.638671875] [-5.4765625:2.921875] [-4.93359375:8.578125] [-3.880859375:4.8046875] [-5.00390625:3.87109375] [-6.984375:4.41015625] [-3.958984375:5.61328125] [-4.22265625:6.1328125] [-4.734375:5.5625] [-4.8046875:5.625] [-3.873046875:6.140625] [-4.42578125:7.53515625] [-3.78515625:3.951171875] [-4.7578125:5.984375] [-3.4453125:3.525390625] [-3.515625:5.453125] [-6.1484375:3.4140625] [-4.32421875:4.375] [-4.37109375:4.8203125] [-3.908203125:4.25] [-4.84375:5.671875] [-4.52734375:4.08984375] [-4.37890625:3.029296875] [-3.087890625:5.12109375] [-4.67578125:4.40234375] [-4.74609375:4.15234375] [-4.6875:4.6015625] [-10.046875:6.06640625] [-4.1875:3.904296875] [-3.90234375:5.078125] [-5.6484375:4.234375] [-3.41015625:5.421875] [-4.921875:4.7109375] [-3.384765625:7.05859375] [-4.69140625:4.61328125] [-5.51953125:3.759765625] [-3.8359375:3.94921875] [-4.8515625:3.9375] [-3.42578125:5.9453125] [-4.71875:3.552734375] [-4.234375:3.96875] [-4.02734375:5.49609375] [-4.2265625:4.078125] [-4.5546875:4.3671875] [-4.046875:9.875] [-3.982421875:4.3203125] [-5.41796875:4.59375] [-4.80859375:3.59765625] [-6.640625:6] [-3.9140625:4.78515625] [-4.8984375:5.22265625] [-3.6796875:6.04296875] [-3.724609375:8.515625] [-4.41796875:4.26171875] [-5.19140625:4.02734375] [-9.203125:4.328125] [-4.0859375:4.89453125] [-4.65234375:8.1796875] [-3.658203125:5.37890625] [-6.09765625:3.890625] [-8.5:3.3984375] [-4.76953125:5.3828125] [-4.03125:5.90234375] [-4.23828125:3.298828125] [-7.25390625:5.69921875] [-3.994140625:5.05078125] [-4.30859375:5.9140625] [-7.27734375:4.14453125] [-9.671875:3.1796875] [-3.73828125:4.15234375] [-3.875:3.83203125] [-7.33984375:4.3125] [-4.7578125:4.12890625] [-6.19140625:5.94921875] [-4.91015625:3.21484375] [-4.3984375:5.29296875] [-4.8515625:4.03125] [-5.05859375:5.1015625] [-5.11328125:5.484375] [-5.61328125:3.54296875] [-4.0234375:4.171875] [-3.3046875:3.306640625] [-6.29296875:5.95703125] [-4.609375:5.35546875] [-5.1171875:4.58203125] [-4.265625:6.69140625] [-4.7890625:4.62109375] [-5.7578125:6.03125] [-3.3203125:5.73046875] [-5.46484375:4.171875] [-4.65625:8.734375] [-5.73828125:3.96875] [-4.171875:4.8671875] [-4.30078125:4.08203125] [-4.08203125:3.7265625] [-4.85546875:4.7734375] [-5.828125:6.47265625] [-4.03515625:3.83203125] [-3.515625:4.37890625] [-3.70703125:5.0078125] [-4.47265625:3.669921875] [-4.94921875:4.390625] [-3.791015625:4.25] [-7.41796875:3.3671875] [-4.08984375:5.03515625] [-4.703125:4.0234375] [-4.9609375:2.97265625] [-3.970703125:3.095703125] [-3.30078125:3.8359375] [-4.37890625:4.62890625] [-5.29296875:4.92578125] [-4.91015625:4.18359375] [-4.75390625:4.80078125] [-3.822265625:5.8515625] [-3.681640625:4.5625] [-6.06640625:5.21875] [-5.24609375:3.96484375] [-5.25:7.37890625] [-4.2421875:5.65234375] [-3.873046875:2.765625] [-5.8828125:5.56640625] [-5.71484375:5.58203125] [-2.7734375:4.29296875] [-7.69140625:4.05078125] [-4.13671875:5.38671875] [-7.15234375:4.07421875] [-3.59765625:2.97265625] [-4.36328125:4.41796875] [-8.03125:4.63671875] [-6.15234375:3.97265625] [-4.25:5.6796875] [-4.52734375:3.904296875] [-4.86328125:5.23046875] [-3.9609375:9.3359375] [-5.55859375:3.154296875] [-6.609375:4.3671875] [-6.4375:6.03125] [-4.77734375:5.375] [-3.220703125:8.328125] [-4.27734375:4.24609375] [-5.375:4] [-3.75390625:6.5703125] [-5.171875:5.6484375] [-4.6328125:4.99609375] [-6.60546875:4.32421875] [-3.759765625:4.171875] [-6.4765625:4.37109375] [-4.69140625:4.30859375] [-3.078125:5.01953125] [-4.6484375:4.046875] [-7.625:3.04296875] [-5.453125:2.736328125] [-6.73046875:5.30859375] [-3.09375:6.3046875] [-3.900390625:5.8515625] [-4.24609375:3.3984375] [-3.39453125:4.42578125] [-4.8046875:3.76953125] [-9.75:3.599609375] [-5.1640625:3.68359375] [-4.390625:4.42578125] [-7.16015625:2.990234375] [-3.771484375:3.994140625] [-5.5625:3.498046875] [-3.44140625:4.87890625] [-4.03125:4.515625] [-3.447265625:5.0078125] [-3.79296875:3.830078125] [-4.69140625:3.908203125] [-3.6484375:4.83984375] [-3.908203125:4.4453125] [-3.841796875:5.390625] [-4.56640625:5.11328125] [-3.904296875:5.1328125] [-7.76171875:3.91796875] [-3.716796875:4.55859375] [-4.6328125:5.57421875] [-4.8828125:4.19921875] [-4.01171875:3.634765625] [-4.015625:6.3515625] [-5.015625:5.26171875] [-10.1171875:4.22265625] [-4.796875:7.0703125] [-6.1015625:4.0625] [-3.345703125:6.484375] [-5.37109375:8.703125] [-7.4375:6.09765625] [-5.11328125:4.30078125] [-7.046875:4.7109375] [-4.8203125:4.1796875] [-4.140625:4.8046875] [-5.76953125:3] [-3.7421875:3.9453125] [-2.98046875:5.7265625] [-6.87109375:5.46484375] [-6.77734375:5.45703125] [-6.75390625:6.6015625] [-3.787109375:4.63671875] [-4.10546875:3.33203125] [-3.751953125:3.30859375] [-5.4140625:5.12109375] [-4.25:3.98046875] [-6.3515625:3.107421875] [-4.4296875:3.984375] [-4.8046875:3.595703125] [-4.37109375:3.798828125] [-6.08203125:3.0078125] [-6.984375:3.47265625] [-4.76953125:5.625] [-5.78125:4.796875] [-4.89453125:4.93359375] [-7.0859375:3.1875] [-5.09375:3.4375] [-3.439453125:4.5390625] [-5.71484375:5.328125] [-6.86328125:4.453125] [-3.693359375:4.08203125] [-6.515625:3.146484375] [-4.47265625:3.958984375] [-6.04296875:3.578125] [-4.40234375:4.28125] [-4.296875:4.7734375] [-7.80859375:4.13671875] [-10.671875:3.63671875] [-5.38671875:6.546875] [-3.544921875:4.4296875] [-4.734375:7.01953125] [-3.80078125:5.95703125] [-3.5859375:7.51171875] [-3.865234375:5.18359375] [-4.28515625:3.65625] [-5.58203125:5.47265625] [-5.109375:3.83203125] [-4.703125:4.92578125] [-7.49609375:4.1328125] [-6.0234375:3.42578125] [-3.2890625:3.158203125] [-4.0390625:3.53515625] [-3.28125:4.51953125] [-4.09375:3.63671875] [-4.015625:6.79296875] [-4.39453125:3.796875] [-6.40234375:5.15234375] [-3.09765625:5.921875] [-3.650390625:5.80078125] [-5.44921875:7.20703125] [-4.38671875:3.74609375] [-3.57421875:4.75390625] [-5.08203125:4.6953125] [-4.6015625:3.77734375] [-6.3828125:3.6640625] [-4.70703125:3.6953125] [-4.125:4.7109375] [-6.51171875:3.9765625] [-3.88671875:4.8671875] [-6.15625:2.93359375] [-8.953125:3.560546875] [-4.58203125:5.04296875] [-4.23828125:4.63671875] [-3.5390625:6.12109375] [-6.34765625:4.0078125] [-3.681640625:4.2578125] [-4.33203125:4.44921875] [-5.88671875:5.703125] [-5.75:2.4375] [-6.3046875:3.654296875] [-4.296875:4.859375] [-2.84765625:5.35546875] [-5.33984375:3.767578125] [-4.578125:5.7109375] [-4.4140625:3.951171875] [-4.1796875:6.0703125] [-3.84765625:7.203125] [-5.2109375:3.3828125] [-4.41796875:4.96875] [-4.12890625:3.78125] [-4.4140625:4.30859375] [-7.13671875:5.70703125] [-5.140625:4.98828125] [-6:3.65625] [-4.6015625:6.5625] [-4.79296875:8.875] [-4.82421875:3.513671875] [-3.845703125:6.28515625] [-4.3203125:3.185546875] [-5.16015625:4.59765625] [-3.837890625:3.978515625] [-7.43359375:3.6796875] [-4.61328125:4.0703125] [-5.7734375:4.1796875] [-4.88671875:5.23046875] [-6.01953125:3.818359375] [-4.7421875:9.0546875] [-5.2421875:3.357421875] [-3.7578125:4.52734375] [-6.45703125:5.83984375] [-4.00390625:4.55859375] [-4.25390625:4.13671875] [-3.96875:3.83984375] [-5.2265625:4.53125] [-4.41015625:3.505859375] [-4.2421875:5.359375] [-4.92578125:5.5] [-4.15234375:4.5078125] [-3.865234375:4.27734375] [-3.8515625:4.41796875] [-4.12890625:2.7421875] [-4.45703125:3.9453125] [-3.8359375:5.04296875] [-5.12109375:4.39453125] [-3.357421875:4.30078125] [-3.14453125:5.34765625] [-6.0078125:5.0234375] [0:1] [0:1] [0:1] [0:1] [0:1] [0:1] [0:1] [0:1] [0:1] [0:1] [0:1] [0:1] [0:1] [0:1] [0:1] [0:1] [0:1] [0:1] [0:1] [0:1] [0:1] [0:1] [0:1] [0:1] [0:1] [0:1] [0:1] [0:1] [0:1] [0:1] [0:1] [0:1] [0:1] [0:1] [0:1] [0:1] [0:1] [0:1] [0:1] [0:1] [0:1] [0:1] [0:1] [0:1] [0:1] [0:1] [0:1] [0:1] [0:1] [0:1] [0:1] [0:1] [0:1] [0:1] [0:1] [0:1] [0:1] [0:1] [0:1] [0:1] [0:1] [0:1] [0:1] [0:1] [0:1] [0:1] [0:1] [0:1] [0:1] [0:1] [0:1] [0:1] [0:1] [0:1] [0:1] [0:1] [0:1] [0:1] [0:1] [0:1] [0:1] [0:1] [0:1] [0:1] [0:1] [0:1] [0:1] [0:1] [0:1] [0:1] [0:1] [0:1] [0:1] [0:1] [0:1] [0:1] [0:1] [0:1] [0:1] [0:1] [0:1] [0:1] [0:1] [0:1] [0:1] [0:1] [0:1] [0:1] [0:1] [0:1] [0:1] [0:1] [0:1] [0:1] [0:1] [0:1] [0:1] [0:1] [0:1] [0:1] [0:1] [0:1] [0:1] [0:1] [0:1] [0:1] [0:1] [0:1] [0:1] [0:1] [0:1] [0:1] [0:1] [0:1] [0:1] [0:1] [0:1] [0:1] [0:1] [0:1] [0:1] [0:1] [0:1] [0:1] [0:1] [0:1] [0:1] [0:1] [0:1] [0:1] [0:1] [0:1] [0:1] [0:1] [0:1] [0:1] [0:1] [0:1] [0:1] [0:1] [0:1] [0:1] [0:1] [0:1] [0:1] [0:1] [0:1] [0:1] [0:1] [0:1] [0:1] [0:1] [0:1] [0:1] [0:1] [0:1] [0:1] [0:1] [0:1] [0:1] [0:1] [0:1] [0:1] [0:1] [0:1] [0:1] [0:1] [0:1] [0:1] [0:1] [0:1] [0:1] [0:1] [0:1] [0:1] [0:1] [0:1] [0:1] [0:1] [0:1] [0:1] [0:1] [0:1] [0:1] [0:1] [0:1] [0:1] [0:1] [0:1] [0:1] [0:1] [0:1] [0:1] [0:1] [0:1] [0:1] [0:1] [0:1] [0:1] [0:1] [0:1] [0:1] [0:1] [0:1] [0:1] [0:1] [0:1] [0:1] [0:1] [0:1] [0:1] [0:1] [0:1] [0:1] [0:1] [0:1] [0:1] [0:1] [0:1] [0:1] [0:1] [0:1] [0:1] [0:1] [0:1] [0:1] [0:1] [0:1] [0:1] [0:1] [0:1] [0:1] [0:1] [0:1] [0:1] [0:1] [0:1] [0:1] [0:1] [0:1] [0:1] [0:1] [0:1] [0:1] [0:1] [0:1] [0:1] [0:1] [0:1] [0:1] [0:1] [0:1] [0:1] [0:1] [0:1] [0:1] [0:1] [0:1] [0:1] [0:1] [0:1] [0:1] [0:1] [0:1] [0:1] [0:1] [0:1] [0:1] [0:1] [0:1] [0:1] [0:1] [0:1] [0:1] [0:1] [0:1] [0:1] [0:1] [0:1] [0:1] [0:1] [0:1] [0:1] [0:1] [0:1] [0:1] [0:1] [0:1] [0:1] [0:1] [0:1] [0:1] [0:1] [0:1] [0:1] [0:1] [0:1] [0:1] [0:1] [0:1] [0:1] [0:1] [0:1] [0:1] [0:1] [0:1] [0:1] [0:1] [0:1] [0:1] [0:1] [0:1] [0:1] [0:1] [0:1] [0:1] [0:1] [0:1] [0:1] [0:1] [0:1] [0:1] [0:1] [0:1] [0:1] [0:1] [0:1] [0:1] [0:1] [0:1] [0:1] [0:1] [0:1] [0:1] [0:1] [0:1] [0:1] [0:1] [0:1] [0:1] [0:1] [0:1] [0:1] [0:1] [0:1] [0:1] [0:1] [0:1] [0:1] [0:1] [0:1] [0:1] [0:1] [0:1] [0:1] [0:1] [0:1] [0:1] [0:1] [0:1] [0:1] [0:1] [0:1] [0:1] [0:1] [0:1] [0:1] [0:1] [0:1] [0:1] [0:1] [0:1] [0:1] [0:1] [0:1] [0:1] [0:1] [0:1] [0:1] [0:1] [0:1] [0:1] [0:1] [0:1] [0:1] [0:1] [0:1] [0:1] [0:1] [0:1] [0:1] [0:1] [0:1] [0:1] [0:1] [0:1] [0:1] [0:1] [0:1] [0:1] [0:1] [0:1] [0:1] [0:1] [0:1] [0:1] [0:1] [0:1] [0:1] [0:1] [0:1] [0:1] [0:1] [0:1] [0:1] [0:1] [0:1] [0:1] [0:1] [0:1] [0:1] [0:1] [0:1] [0:1] [0:1] [0:1] [0:1] [0:1] [0:1] [0:1] [0:1] [0:1] [0:1] [0:1] [0:1] [0:1] [0:1] [0:1] [0:1] [0:1] [0:1] [0:1] [0:1] [0:1] [0:1] [0:1] [0:1] [0:1] [0:1] [0:1] [0:1] [0:1] [0:1] [0:1] [0:1] [0:1] [0:1] [0:1] [0:1] [0:1] [0:1] [0:1] [0:1] [0:1] [0:1] [0:1] [0:1] [0:1] [0:1] [0:1] [0:1] [0:1] [0:1] [0:1] [0:1] [0:1] [0:1] [0:1] [0:1] [0:1] [0:1] [0:1] [0:1] [0:1] [0:1] [0:1] [0:1] [0:1] [0:1] [0:1] [0:1] [0:1] [0:1] [0:1] [0:1] [0:1] [0:1] [0:1] [0:1] [0:1] [0:1] [0:1] [0:1] [0:1] [0:1] [0:1] [0:1] [0:1] [0:1] [0:1] [0:1] [0:1] [0:1] [0:1] [0:1] [0:1] [0:1] [0:1] [0:1] [0:1] [0:1] [0:1] [0:1] [0:1] [0:1] [0:1] [0:1] [0:1] [0:1] [0:1] [0:1] [0:1] [0:1] [0:1] [0:1] [0:1] [0:1] [0:1] [0:1] [0:1] [0:1] [0:1] [0:1] [0:1] [0:1] [0:1] [0:1] [0:1] [0:1] [0:1] [0:1] [0:1] [0:1] [0:1] [0:1] [0:1] [0:1] [0:1] [0:1] [0:1] [0:1] [0:1] [0:1] [0:1] [0:1] [0:1] [0:1] [0:1] [0:1] [0:1] [0:1] [0:1] [0:1] [0:1] [0:1] [0:1] [0:1] [0:1] [0:1] [0:1] [0:1] [0:1] [0:1] [0:1] [0:1] [0:1] [0:1] [0:1] [0:1] [0:1] [0:1] [0:1] [0:1] [0:1] [0:1] [0:1] [0:1] [0:1] [0:1] [0:1] [0:1] [0:1] [0:1] [0:1] [0:1] [0:1] [0:1] [0:1] [0:1] [0:1] [0:1] [0:1] [0:1] [0:1] [0:1] [0:1] [0:1] [0:1] [0:1] [0:1] [0:1] [0:1] [0:1] [0:1] [0:1] [0:1] [0:1] [0:1] [0:1] [0:1] [0:1] [0:1] [0:1] [0:1] [0:1] [0:1] [0:1] [0:1] [0:1] [0:1] [0:1] [0:1] [0:1] [0:1] [0:1] [0:1] [0:1] [0:1] [0:1] [0:1] [0:1] [0:1] [0:1] [0:1] [0:1] [0:1] [0:1] [0:1] [0:1] [0:1] [0:1] [0:1] [0:1] [0:1] [0:1] [0:1] [0:1] [0:1] [0:1] [0:1] [0:1] [0:1] [0:1] [0:1] [0:1] [0:1] [0:1] [0:1] [0:1] [0:1] [0:1] [0:1] [0:1] [0:1] [0:1] [0:1] [0:1] [0:1] [0:1] [0:1] [0:1] [0:1] [0:1] [0:1] [0:1] [0:1] [0:1] [0:1] [0:1] [0:1] [0:1] [0:1] [0:1] [0:1] [0:1] [0:1] [0:1] [0:1] [0:1] [0:1] [0:1] [0:1] [0:1] [0:1] [0:1] [0:1] [0:1] [0:1] [0:1] [0:1] [0:1] [0:1] [0:1] [0:1] [0:1] [0:1] [0:1] [0:1] [0:1] [0:1] [0:1] [0:1] [0:1] [0:1] [0:1] [0:1] [0:1] [0:1] [0:1] [0:1] [0:1] [0:1] [0:1] [0:1] [0:1] [0:1] [0:1] [0:1] [0:1] [0:1] [0:1] [0:1] [0:1] [0:1] [0:1] [0:1] [0:1] [0:1] [0:1] [0:1] [0:1] [0:1] [0:1] [0:1] [0:1] [0:1] [0:1] [0:1] [0:1] [0:1] [0:1] [0:1] [0:1] [0:1] [0:1] [0:1] [0:1] [0:1] [0:1] [0:1] [0:1] [0:1] [0:1] [0:1] [0:1] [0:1] [0:1] [0:1] [0:1] [0:1] [0:1] [0:1] [0:1] [0:1] [0:1] [0:1] [0:1] [0:1] [0:1] [0:1] [0:1] [0:1] [0:1] [0:1] [0:1] [0:1] [0:1] [0:1] [0:1] [0:1] [0:1] [0:1] [0:1] [0:1] [0:1] [0:1] [0:1] [0:1] [0:1] [0:1] [0:1] [0:1] [0:1] [0:1] [0:1] [0:1] [0:1] [0:1] [0:1] [0:1] [0:1] [0:1] [0:1] [0:1] [0:1] [0:1] [0:1] [0:1] [0:1] [0:1] [0:1] [0:1] [0:1] [0:1] [0:1] [0:1] [0:1] [0:1] [0:1] [0:1] [0:1] [0:1] [0:1] [0:1] [0:1] [0:1] [0:1] [0:1] [0:1] [0:1] [0:1] [0:1] [0:1] [0:1] [0:1] [0:1] [0:1] [0:1] [0:1] [0:1] [0:1] [0:1] [0:1] [0:1] [0:1] [0:1] [0:1] [0:1] [0:1] [0:1] [0:1] [0:1] [0:1] [0:1] [0:1] [0:1] [0:1] [0:1] [0:1] [0:1] [0:1] [0:1] [0:1] [0:1] [0:1] [0:1] [0:1] [0:1] [0:1] [0:1] [0:1] [0:1] [0:1] [0:1] [0:1] [0:1] [0:1] [0:1] [0:1] [0:1] [0:1] [0:1] [0:1] [0:1] [0:1] [0:1] [0:1] [0:1] [0:1] [0:1] [0:1] [0:1] [0:1] [0:1] [0:1] [0:1] [0:1] [0:1] [0:1] [0:1] [0:1] [0:1] [0:1] [0:1] [0:1] [0:1] [0:1] [0:1] [0:1] [0:1] [0:1] [0:1] [0:1] [0:1] [0:1] [0:1] [0:1] [0:1] [0:1] [0:1] [0:1] [0:1] [0:1] [0:1] [0:1] [0:1] [0:1] [0:1] [0:1] [0:1] [0:1] [0:1] [0:1] [0:1] [0:1] [0:1] [0:1] [0:1] [0:1] [0:1] [0:1] [0:1] [0:1] [0:1] [0:1] [0:1] [0:1] [0:1] [0:1] [0:1] [0:1] [0:1] [0:1] [0:1] [0:1] [0:1] [0:1] [0:1] [0:1] [0:1] [0:1] [0:1] [0:1] [0:1] [0:1] [0:1] [0:1] [0:1] [0:1] [0:1] [0:1] [0:1] [0:1] [0:1]
tree_sizes=2837 2857 2868 2868 2861 2867 2873 2866 2856 2922 2883 2881

Tree=0
num_leaves=31
num_cat=0
split_feature=1381 157 1105 1951 1375 5 237 35 455 425 325 2 117 614 36 652 52 155 78 300 401 370 1761 460 484 1951 556 963 1280 1770
split_gain=2.53795e+15 1.95084e+16 2.24169e+16 2.55022e+16 3.35112e+16 5.55064e+15 4.47406e+14 6.01714e+14 3.22612e+14 2.66417e+14 3.5209e+14 2.27387e+14 2.18205e+14 1.74531e+14 4.29565e+14 1.8186e+14 2.03074e+14 1.66335e+14 1.29754e+14 1.25405e+14 9.69092e+13 6.02537e+14 9.62779e+13 9.4089e+13 1.05961e+14 9.0532e+13 8.09625e+13 5.56738e+14 8.6001e+14 1.18521e+14
threshold=1.0000000180025095e-35 2.4394531250000004 1.0000000180025095e-35 1.0000000180025095e-35 1.0000000180025095e-35 -0.46325683593749994 2.4013671875000004 0.53662109375000011 2.1767578125000004 2.1591796875000004 0.66015625000000011 1.2470703125000002 2.0166015625000004 -1.4848632812499998 -1.9511718749999998 -1.7529296874999998 -0.41467285156249994 2.6503906250000004 1.9082031250000002 1.9038085937500002 2.6572265625000004 0.73608398437500011 1.0000000180025095e-35 1.8037109375000002 -1.2133789062499998 1.0000000180025095e-35 2.4082031250000004 0.057434082031250007 1.0000000180025095e-35 1.0000000180025095e-35
decision_type=2 2 2 2 2 2 2 2 2 2 2 2 2 2 2 2 2 2 2 2 2 2 2 2 2 2 2 2 2 2
left_child=1 6 3 4 5 -3 8 -8 9 12 -11 22 13 14 -1 16 -15 23 -19 -16 26 -22 -10 -17 -25 -21 -2 28 29 -28
right_child=20 2 -4 -5 -6 -7 7 -9 11 10 -12 -13 -14 15 19 17 -18 18 -20 25 21 -23 -24 24 -26 -27 27 -29 -30 -31
leaf_value=457020.59309832845 26379.059272921473 4725607.5098863253 38074.446252671049 37446.791958686874 74373.821844057515 2983244.3803610089 771862.08694065805 42283.438411511393 446407.39063364791 77376.957729697271 571210.46863987681 25469.014527851105 278007.47705584235 414137.65875489416 29555.856741954685 32869.446394778191 26290.907927528686 67394.787239904676 332372.17590564972 300924.62536978751 26290.090521637594 603586.76777027117 189236.53920567269 291208.26704156952 47482.283854276633 66254.274852861912 90244.727176099565 27418.863885530529 846926.39721409557 342731.11634813936
leaf_weight=33 429296 33 187 65 37 41 20 26 37 42 22 35 39 27 180 6293 27 42 33 35 130 21 24 30 44 31 97 1041 20 23
leaf_count=33 429296 33 187 65 37 41 20 26 37 42 22 35 39 27 180 6293 27 42 33 35 130 21 24 30 44 31 97 1041 20 23
internal_value=27475.8 85610.3 800451 1.61048e+06 2.53162e+06 3.76024e+06 48646.3 359492 46596 44055 247132 228648 42147.6 40789.9 118236 37463.6 220214 35931.7 183985 72789.8 26479.1 106576 345225 34187.7 146290 190701 26451 52597.9 239822 138638
internal_weight=0 7383 363 176 111 74 7020 46 6974 6878 64 96 6814 6775 279 6496 54 6442 75 246 430628 151 61 6367 74 66 430477 1181 140 120
internal_count=438011 7383 363 176 111 74 7020 46 6974 6878 64 96 6814 6775 279 6496 54 6442 75 246 430628 151 61 6367 74 66 430477 1181 140 120
is_linear=0
shrinkage=1


Tree=1
num_leaves=31
num_cat=0
split_feature=1381 157 1105 1951 1375 5 237 35 753 154 425 325 586 287 406 578 36 652 673 1761 516 401 370 1692 556 54 1104 685 1598 1165
split_gain=2.05574e+15 1.58018e+16 1.81577e+16 2.06568e+16 2.71441e+16 4.49602e+15 3.62399e+14 4.87388e+14 2.66835e+14 2.27098e+14 2.16622e+14 2.85193e+14 1.81208e+14 2.28697e+14 1.54383e+14 1.45085e+14 1.44035e+14 1.41475e+14 9.72816e+13 9.08725e+13 7.96595e+13 7.84964e+13 4.88055e+14 6.90462e+13 6.55796e+13 4.53433e+14 4.36382e+14 1.00262e+14 1.31278e+14 6.45223e+13
threshold=1.0000000180025095e-35 2.4394531250000004 1.0000000180025095e-35 1.0000000180025095e-35 1.0000000180025095e-35 -0.46325683593749994 2.4013671875000004 0.53662109375000011 2.0332031250000004 0.53198242187500011 2.1591796875000004 0.66015625000000011 -1.9936523437499998 -0.36828613281249994 1.4067382812500002 -2.4033203124999996 -2.7060546874999996 -1.7529296874999998 -0.010711669921874998 1.0000000180025095e-35 2.7109375000000004 2.6572265625000004 0.73608398437500011 1.0000000180025095e-35 2.4082031250000004 1.4545898437500002 1.0000000180025095e-35 -1.0014648437499998 1.0000000180025095e-35 1.0000000180025095e-35
decision_type=2 2 2 2 2 2 2 2 2 2 2 2 2 2 2 2 2 2 2 2 2 2 2 2 2 2 2 2 2 2
left_child=1 6 3 4 5 -3 8 -8 10 -10 12 -12 13 -1 15 23 -17 -18 -16 -11 -19 24 -23 29 -2 27 -27 28 -26 -14
right_child=21 2 -4 -5 -6 -7 7 -9 9 19 11 -13 14 -15 18 16 17 20 -20 -21 -22 22 -24 -25 25 26 -28 -29 -30 -31
leaf_value=-2570.8009410511368 -987.05399181953078 4228318.4515151521 9538.7939907461569 8973.9053831129804 42208.231234163854 2660191.7036585365 669947.68593750009 13326.887150691107 27261.097292204824 394135.15275493427 44911.055419921875 489361.23593750002 251265.57439097954 464656.7961523438 49331.018932342529 247351.42531249998 210314.32172133506 5176.1891387634814 239983.6805876359 145584.68167317708 205059.10626220703 -1067.1258565579928 518499.88971354172 8022.1808296203617 28792.625397858799 559666.9827819824 32696.911103219696 -356.61624203609438 305960.41121875 40426.631935918907
leaf_weight=22 429296 33 187 65 37 41 20 26 62 38 42 22 47 20 64 25 34 6455 46 24 20 130 21 32 54 30 33 1039 25 21
leaf_count=22 429296 33 187 65 37 41 20 26 62 38 42 22 47 20 64 25 34 6455 46 24 20 130 21 32 54 30 33 1039 25 21
internal_value=0 52321 695678 1.4247e+06 2.25373e+06 3.35949e+06 19053.4 298814 17208.2 162592 14576.4 197691 12849.4 219919 11559.8 9611.56 7782.06 6861.91 129058 297922 5793.59 -897.03 71190.5 129152 -922.316 22609.9 283635 7900.97 116504 186154
internal_weight=0 7383 363 176 111 74 7020 46 6974 124 6850 64 6786 42 6744 6634 6534 6509 110 62 6475 430628 151 100 430477 1181 63 1118 79 68
internal_count=438011 7383 363 176 111 74 7020 46 6974 124 6850 64 6786 42 6744 6634 6534 6509 110 62 6475 430628 151 100 430477 1181 63 1118 79 68
is_linear=0
shrinkage=0.1


Tree=2
num_leaves=31
num_cat=0
split_feature=1381 1975 693 1594 208 759 1105 2004 1 237 241 276 447 586 1761 36 292 562 819 897 300 1101 857 414 401 13 297 1675 1363 556
split_gain=1.66515e+15 1.32801e+16 1.38092e+17 1.75083e+15 2.49387e+15 7.2551e+14 8.42607e+14 3.71129e+14 1.29829e+15 3.20316e+14 4.02023e+14 2.36321e+14 3.74579e+14 1.43869e+14 1.33637e+14 1.22254e+14 1.20323e+14 1.43055e+14 1.08619e+14 9.63417e+13 7.98366e+13 7.46203e+13 1.31817e+14 7.2494e+13 6.35821e+13 4.20232e+14 5.99301e+13 1.8519e+14 4.56143e+14 5.36373e+13
threshold=1.0000000180025095e-35 1.0000000180025095e-35 -1.1611328124999998 1.0000000180025095e-35 0.059982299804687507 2.9082031250000004 1.0000000180025095e-35 1.0000000180025095e-35 0.39916992187500006 2.4013671875000004 -0.39550781249999994 -1.2167968749999998 -0.86572265624999989 -2.1923828124999996 1.0000000180025095e-35 -2.7060546874999996 -1.8876953124999998 0.89233398437500011 2.3222656250000004 0.65942382812500011 2.4746093750000004 1.0000000180025095e-35 -0.026176452636718747 -1.8911132812499998 2.6572265625000004 1.4716796875000002 3.1376953125000004 1.0000000180025095e-35 1.0000000180025095e-35 2.4082031250000004
decision_type=2 2 2 2 2 2 2 2 2 2 2 2 2 2 2 2 2 2 2 2 2 2 2 2 2 2 2 2 2 2
left_child=1 3 -3 5 -5 7 -7 9 -9 11 -11 12 14 -13 -1 -15 17 -17 20 -14 21 23 -23 -18 26 -26 29 28 -28 -2
right_child=24 2 -4 4 -6 6 -8 8 -10 10 -12 13 19 15 -16 16 18 -19 -20 -21 -22 22 -24 -25 25 -27 27 -29 -30 -31
leaf_value=375819.20062725362 -938.88425688139944 8735010.5131347664 14023.676738727396 1477858.5420410158 -20302.270085937504 882674.12842261908 15306.017993164063 -3219.8092852059058 929086.6565034485 1804.7819505774457 614833.49769531249 269940.41019810265 13403.387331440077 233059.54713541665 107899.36862624595 3306.2406656901039 194581.58249511721 272980.19726958405 183704.32564338238 157954.8455357143 132976.30284525556 -317106.17838867189 12180.493341064453 3892.1888591295524 -1111.6848882544132 491021.24871093757 558206.02689541911 9823.2992218851869 29300.175726366801 20446.882466525771
leaf_weight=52 428521 20 197 20 25 21 24 59 20 23 20 21 261 24 29 42 20 37 34 56 48 20 31 6279 131 20 22 695 63 1176
leaf_count=52 428521 20 197 20 25 21 24 59 20 23 20 21 261 24 29 42 20 37 34 56 48 20 31 6279 131 20 22 695 63 1176
internal_value=0 47088.9 817801 23750.3 645547 19821 420078 17275.5 232807 14842.1 286934 13159.6 87978.5 8617.49 279897 7777.74 6947.33 129609 5440.76 38939.3 4493.44 3522.23 -116952 4497.65 -807.327 64071.5 -830.085 26863.6 166193 -880.355
internal_weight=0 7383 217 7166 45 7121 45 7076 79 6997 43 6954 398 6556 81 6535 6511 79 6432 317 6398 6350 51 6299 430628 151 430477 780 85 429697
internal_count=438011 7383 217 7166 45 7121 45 7076 79 6997 43 6954 398 6556 81 6535 6511 79 6432 317 6398 6350 51 6299 430628 151 430477 780 85 429697
is_linear=0
shrinkage=0.1


Tree=3
num_leaves=31
num_cat=0
split_feature=1381 157 1105 1951 1375 5 237 3 276 447 497 279 94 1326 1761 1004 117 100 205 554 1832 49 626 1172 401 1957 1308 297 1105 1900
split_gain=1.34877e+15 1.12366e+16 1.33557e+16 1.8417e+16 2.13389e+16 3.78761e+15 2.40213e+14 3.50704e+14 1.74882e+14 3.11484e+14 1.29925e+14 3.78725e+14 1.32952e+14 1.13879e+14 1.08246e+14 1.04901e+14 9.98603e+13 1.50696e+14 8.24756e+13 7.42532e+13 6.18867e+13 6.21192e+13 5.56636e+13 7.77988e+13 5.15015e+13 3.65648e+14 4.8603e+13 4.85434e+13 1.54135e+14 2.47872e+14
threshold=1.0000000180025095e-35 2.4394531250000004 1.0000000180025095e-35 1.0000000180025095e-35 1.0000000180025095e-35 -0.46325683593749994 2.4013671875000004 -0.38830566406249994 -1.2167968749999998 -0.86572265624999989 1.7495117187500002 1.1865234375000002 2.0703125000000004 1.0000000180025095e-35 1.0000000180025095e-35 -2.2890624999999996 2.0166015625000004 0.75195312500000011 -0.45593261718749994 2.0039062500000004 1.0000000180025095e-35 0.97656250000000011 -1.4111328124999998 1.0000000180025095e-35 2.6572265625000004 1.0000000180025095e-35 1.0000000180025095e-35 3.1376953125000004 1.0000000180025095e-35 1.0000000180025095e-35
decision_type=2 2 2 2 2 2 2 2 2 2 2 2 2 2 2 2 2 2 2 2 2 2 2 2 2 2 2 2 2 2
left_child=1 6 3 4 5 -3 8 -8 9 14 12 22 15 -5 26 -10 19 -18 20 -17 -11 -22 23 -12 27 -26 -1 -2 29 -29
right_child=24 2 -4 13 -6 -7 7 -9 10 18 11 -13 -14 -15 -16 16 17 -19 -20 -21 21 -23 -24 -25 25 -27 -28 28 -30 -31
leaf_value=225341.10056818184 -792.31987222500584 3770793.5071969698 -3555.8792647581054 -256979.23962772256 32106.973880912163 2331498.7972560977 -75.666060697115384 556914.90507812507 198370.09958147322 239379.54659375001 256449.61292187503 489311.97447916673 197962.52955729168 7777.213563537598 97109.436610991383 2489.1511608925775 -10303.367535400392 313814.56568509614 -4872.4912186472038 178723.01612955731 7138.328890228272 183565.52077047413 8919.7288875524555 4386.8230133056641 -6598.4244394228444 434477.79625133169 421027.8075260417 449140.80152529757 8528.791865319683 53958.992891000598
leaf_weight=22 429697 33 187 33 37 41 26 20 28 25 25 21 36 32 29 6212 32 26 209 24 64 29 138 24 129 22 30 21 694 65
leaf_count=22 429697 33 187 33 37 41 26 20 28 25 25 21 36 32 29 6212 32 26 209 24 64 29 138 24 129 22 30 21 694 65
internal_value=0 42380 584901 1.21014e+06 1.99293e+06 2.97335e+06 14326.6 242094 12824.3 76350.3 8876.86 86649 6332.56 -126638 251908 5241.35 4382.18 134991 32863.6 3167.41 99701.2 62153.3 41430.2 132990 -726.594 57664.3 338237 -747.076 24177.3 150457
internal_weight=0 7383 363 176 111 74 7020 46 6974 408 6566 208 6358 65 81 6322 6294 58 327 6236 118 93 187 49 430628 151 52 430477 780 86
internal_count=438011 7383 363 176 111 74 7020 46 6974 408 6566 208 6358 65 81 6322 6294 58 327 6236 118 93 187 49 430628 151 52 430477 780 86
is_linear=0
shrinkage=0.1


Tree=4
num_leaves=31
num_cat=0
split_feature=1381 1975 831 1594 73 759 1105 2004 4 237 92 235 1675 1105 1832 1172 1153 1918 276 447 586 23 1761 292 562 36 205 819 1482 768
split_gain=1.09251e+15 1.07628e+16 1.18039e+17 1.27153e+15 2.26237e+15 4.58528e+14 5.49231e+14 2.87847e+14 1.24758e+15 2.14628e+14 2.89793e+14 2.01276e+14 1.34278e+15 1.01022e+15 3.12763e+14 1.5242e+14 3.04949e+14 5.33455e+14 1.49413e+14 2.45483e+14 1.09019e+14 1.00976e+14 8.76791e+13 8.68758e+13 1.10844e+14 8.14929e+13 6.85038e+13 6.75205e+13 5.36545e+13 9.81831e+13
threshold=1.0000000180025095e-35 1.0000000180025095e-35 -1.7495117187499998 1.0000000180025095e-35 -0.54663085937499989 2.9082031250000004 1.0000000180025095e-35 1.0000000180025095e-35 -0.69873046874999989 2.4013671875000004 0.96972656250000011 -2.6933593749999996 1.0000000180025095e-35 1.0000000180025095e-35 1.0000000180025095e-35 1.0000000180025095e-35 1.0000000180025095e-35 1.0000000180025095e-35 -1.2167968749999998 -0.86572265624999989 -2.1923828124999996 -0.87548828124999989 1.0000000180025095e-35 -1.8876953124999998 0.89233398437500011 -2.7060546874999996 -0.45593261718749994 2.3222656250000004 1.0000000180025095e-35 0.38452148437500006
decision_type=2 2 2 2 2 2 2 2 2 2 2 2 2 2 2 2 2 2 2 2 2 2 2 2 2 2 2 2 2 2
left_child=1 3 -3 5 -5 7 -7 9 -9 11 -11 12 13 14 -1 16 17 -14 19 22 -20 -4 -13 24 -22 -25 -21 28 -27 -30
right_child=-2 2 21 4 -6 6 -8 8 -10 10 -12 18 15 -15 -16 -17 -18 -19 20 26 23 -23 -24 25 -26 27 -28 -29 29 -31
leaf_value=-881185.92217741953 -653.93491007353634 8051800.2183959968 -224139.25500488281 1339765.339248047 -87164.884445312506 705462.95892857155 5187.9330403645836 884120.0086230468 -29797.630516750531 510735.30742187501 -9739.1207201086963 304413.55564903846 -12820.596131779597 9916.0308702256953 -388178.80701349437 -15450.773791603151 -31188.80475924745 616221.85929129471 235618.34817425866 93261.785675101914 408.4979910714286 12910.556308207539 87398.490853987067 189957.33815104168 237788.76989020273 3580.1611105767438 -3423.9303303784664 145856.05723805149 8073.1082449776795 272895.25307849701
leaf_weight=31 430628 20 20 20 25 21 24 20 59 20 23 52 26 36 22 123 49 28 21 115 42 177 29 24 37 6020 202 34 42 21
leaf_count=31 430628 20 20 20 25 21 24 20 59 20 23 52 26 36 22 123 49 28 21 115 42 177 29 24 37 6020 202 34 42 21
internal_value=0 38142 731974 17131.5 547026 13782.9 331983 11759.3 201574 9616.2 232342 8238.98 -69865.2 -398873 -676541 59699.9 149443 313350 11944.8 71350.6 8156.36 -11155.4 226717 7388.4 111587 6047.96 31651.3 5326.39 4540.92 96347.2
internal_weight=0 7383 217 7166 45 7121 45 7076 79 6997 43 6954 315 89 53 226 103 54 6639 398 6241 197 81 6220 79 6141 317 6117 6083 63
internal_count=438011 7383 217 7166 45 7121 45 7076 79 6997 43 6954 315 89 53 226 103 54 6639 398 6241 197 81 6220 79 6141 317 6117 6083 63
is_linear=0
shrinkage=0.1


Tree=5
num_leaves=31
num_cat=0
split_feature=1381 1975 792 1266 1004 819 1675 2004 741 235 1675 1105 1832 23 698 63 6 613 1153 1720 1740 1740 1153 299 229 1308 414 356 556 1064
split_gain=8.84929e+14 8.71785e+15 1.00718e+17 1.06004e+15 3.3688e+15 3.19464e+14 5.95391e+14 2.38762e+14 1.29117e+15 2.09218e+14 1.16491e+15 8.77923e+14 2.81183e+14 2.09006e+14 1.51238e+14 2.63391e+14 2.0026e+14 1.26926e+14 1.26318e+14 3.90025e+14 8.71475e+14 6.38709e+13 8.50924e+13 6.38327e+13 1.09771e+14 5.55448e+13 4.61856e+13 4.32898e+13 4.29223e+13 3.76879e+14
threshold=1.0000000180025095e-35 1.0000000180025095e-35 -1.2670898437499998 1.0000000180025095e-35 -0.14306640624999997 2.1523437500000004 1.0000000180025095e-35 1.0000000180025095e-35 -1.2319335937499998 -2.6933593749999996 1.0000000180025095e-35 1.0000000180025095e-35 1.0000000180025095e-35 -0.92724609374999989 1.3110351562500002 -0.65649414062499989 -1.1567382812499998 2.0068359375000004 1.0000000180025095e-35 1.0000000180025095e-35 1.0000000180025095e-35 1.0000000180025095e-35 1.0000000180025095e-35 2.0214843750000004 -1.0717773437499998 1.0000000180025095e-35 -2.0341796874999996 -1.0605468749999998 2.4082031250000004 1.0000000180025095e-35
decision_type=2 2 2 2 2 2 2 2 2 2 2 2 2 2 2 2 2 2 2 2 2 2 2 2 2 2 2 2 2 2
left_child=1 3 -3 5 -5 7 -7 9 -9 10 11 12 -1 -4 17 -16 21 23 19 20 -12 22 -17 26 -25 -24 -11 -15 -2 -30
right_child=28 2 13 4 -6 6 -8 8 -10 14 18 -13 -14 27 15 16 -18 -19 -20 -21 -22 -23 25 24 -26 -27 -28 -29 29 -31
leaf_value=-810899.31590909092 -640.89673791766609 7420243.8827929692 -334087.0072070313 -10978.734375 1500963.7593359377 557791.19903645839 48656.727781210146 875784.04948760988 -53962.275421970175 142352.75773111981 803169.02899946738 8924.4279730902781 -349360.92571022734 145518.17158203127 408975.61875930062 386716.25889559661 16778.281984000372 195831.13046316965 -32345.673475167412 -32882.975646633575 -31476.887405711212 27783.843554687501 31415.897389914771 298745.31745117187 -5782.6370285560351 240610.95114583333 3349.7406376962699 -10693.970800159237 10666.425735068795 428470.68950639211
leaf_weight=33 429447 20 20 56 20 30 98 20 59 24 22 36 22 20 21 22 406 35 105 72 29 22 22 20 29 30 5933 157 1159 22
leaf_count=33 429447 20 20 56 20 30 98 20 59 24 22 36 22 20 21 22 406 35 105 72 29 22 22 20 29 30 5933 157 1159 22
internal_value=0 34327.8 658777 15418.3 386901 11436.3 167985 8558.07 181417 6574.08 -72512 -374993 -626284 -27666.7 10417.5 62005.6 47491 5951.3 48215 116986 328566 177380 221855 4844.77 118514 152105 3909.77 6957.12 -588.541 18449.4
internal_weight=0 7383 217 7166 76 7090 128 6962 79 6883 319 91 55 197 6564 523 502 6041 228 123 51 96 74 6006 49 52 5957 177 430628 1181
internal_count=438011 7383 217 7166 76 7090 128 6962 79 6883 319 91 55 197 6564 523 502 6041 228 123 51 96 74 6006 49 52 5957 177 430628 1181
is_linear=0
shrinkage=0.1


Tree=6
num_leaves=31
num_cat=0
split_feature=1381 157 1105 1951 1740 1153 5 1326 237 1017 894 46 425 112 229 613 775 977 1058 1761 292 562 36 1222 617 123 1544 455 1951 1811
split_gain=7.16793e+14 7.38903e+15 9.66825e+15 1.89081e+16 1.74491e+16 2.49409e+16 7.54843e+15 7.85336e+14 1.34921e+14 2.71266e+14 1.15655e+14 1.58704e+14 1.1648e+14 1.64804e+14 8.79713e+13 8.2517e+13 7.7958e+13 2.7518e+14 7.35516e+13 8.42777e+13 6.44848e+13 9.20175e+13 5.07915e+13 4.59972e+13 4.22812e+13 3.14985e+14 5.86195e+14 3.08826e+14 2.13774e+14 9.53608e+13
threshold=1.0000000180025095e-35 2.4394531250000004 1.0000000180025095e-35 1.0000000180025095e-35 1.0000000180025095e-35 1.0000000180025095e-35 -0.46325683593749994 1.0000000180025095e-35 2.4013671875000004 -0.57055664062499989 -1.3754882812499998 -0.93481445312499989 2.1591796875000004 0.035827636718750007 2.4335937500000004 2.0068359375000004 1.9531250000000002 0.93090820312500011 1.0000000180025095e-35 1.0000000180025095e-35 -1.8876953124999998 0.89233398437500011 -2.7060546874999996 1.0000000180025095e-35 -0.98632812499999989 2.7431640625000004 1.0000000180025095e-35 2.1767578125000004 1.0000000180025095e-35 1.0000000180025095e-35
decision_type=2 2 2 2 2 2 2 2 2 2 2 2 2 2 2 2 2 2 2 2 2 2 2 2 2 2 2 2 2 2
left_child=1 8 3 4 5 6 -3 -5 10 -10 11 18 14 -14 15 16 20 -18 -1 -20 21 -12 -22 -4 25 27 -27 -2 29 -29
right_child=24 2 23 7 -6 -7 -8 -9 9 -11 12 -13 13 -15 -16 -17 17 -19 19 -21 22 -23 -24 -25 -26 26 -28 28 -30 -31
leaf_value=30788.607945312502 1844.2900526203064 4974144.1122500002 -7732.4589740349693 -693964.58570075769 -312333.97556573275 -169591.23256835938 2670500.5431344695 1303.5926498413087 -34138.11636117789 455725.20953125006 -5628.2807516346811 22711.908645155709 360219.92812500003 20945.874759432165 -188306.17080078126 177957.19745912906 282.8197684151786 350952.70148168108 323300.48625000002 92034.569230769237 136943.90653935185 206205.15405405406 -506.21346556109779 -141097.8674127394 -846.92605375532594 -16776.382513950895 641962.11195845169 266750.81980785023 483595.38149414066 1059.6904129464288
leaf_weight=25 39902 25 156 33 29 24 33 32 26 20 46 251 22 41 24 27 98 29 40 26 27 37 6281 31 390592 35 22 22 20 35
leaf_count=25 39902 25 156 33 29 24 33 32 26 20 46 251 22 41 24 27 98 29 40 26 27 37 6281 31 390592 35 22 22 20 35
internal_value=0 30895.1 470834 1.0028e+06 1.79597e+06 2.54158e+06 3.66345e+06 -351679 8146.06 178846 7020.14 63729 4095.76 139423 2797.91 3498.68 2776 80357 176864 232196 1234.34 88803.5 82.1114 -29841.2 -529.687 2565.3 237474 2230.38 202305 103607
internal_weight=0 7383 363 176 111 82 58 65 7020 46 6974 342 6632 63 6569 6545 6518 127 91 66 6391 83 6308 187 430628 40036 57 39979 77 57
internal_count=438011 7383 363 176 111 82 58 65 7020 46 6974 342 6632 63 6569 6545 6518 127 91 66 6391 83 6308 187 430628 40036 57 39979 77 57
is_linear=0
shrinkage=0.1


Tree=7
num_leaves=31
num_cat=0
split_feature=1381 1975 456 1594 423 684 759 1375 1101 790 2004 891 235 1675 1105 1832 1026 1720 1153 237 227 1042 159 586 577 753 1811 406 1319 404
split_gain=5.80602e+14 7.1066e+15 8.76902e+16 8.42562e+14 2.02241e+15 3.84412e+14 2.77241e+14 3.52024e+14 1.93742e+14 3.50372e+14 1.69464e+14 1.18508e+15 1.78221e+14 1.02905e+15 1.04359e+15 3.92673e+14 1.97838e+14 2.09547e+14 5.09228e+14 1.24502e+14 2.33304e+14 1.07289e+14 3.49609e+14 7.65251e+13 6.75804e+13 6.62269e+13 6.43766e+13 5.86311e+13 6.21561e+13 5.54554e+13
threshold=1.0000000180025095e-35 1.0000000180025095e-35 1.6108398437500002 1.0000000180025095e-35 1.3149414062500002 0.80175781250000011 2.9082031250000004 1.0000000180025095e-35 1.0000000180025095e-35 -0.45361328124999994 1.0000000180025095e-35 -0.55249023437499989 -2.6933593749999996 1.0000000180025095e-35 1.0000000180025095e-35 1.0000000180025095e-35 1.0000000180025095e-35 1.0000000180025095e-35 1.0000000180025095e-35 2.4013671875000004 0.87622070312500011 1.0000000180025095e-35 -1.1435546874999998 -2.1923828124999996 -0.44763183593749994 2.0332031250000004 1.0000000180025095e-35 1.4584960937500002 1.0000000180025095e-35 2.2031250000000004
decision_type=2 2 2 2 2 2 2 2 2 2 2 2 2 2 2 2 2 2 2 2 2 2 2 2 2 2 2 2 2 2
left_child=1 3 5 6 -5 24 8 -8 10 -10 12 -12 13 14 15 -1 17 18 -15 21 -21 23 -23 -14 -3 27 -27 29 -29 -25
right_child=-2 2 -4 4 -6 -7 7 -9 9 -11 11 -13 19 16 -16 -17 -18 -19 -20 20 -22 22 -24 25 -26 26 -28 28 -30 -31
leaf_value=-1041169.425 -476.71854608929692 174811.94435546876 6900650.6773461914 -157536.47254687501 1191599.697734375 -433126.13600543479 505597.34737500001 -57271.627656250006 -514312.87742187502 16120.316057054926 818737.07470703125 -71995.130640889838 197768.50930059527 466037.34596975223 13250.744563802085 -428940.75170454546 -204428.3436018319 -19261.704636390186 -15559.909332744892 428460.08921875007 -43450.289577414776 485508.48273437499 -2722.8854745205967 2341.4602298605205 -20581.376765422079 13804.94261842758 164133.27089468151 140902.4090560913 -16805.973475609757 58062.37984214451
leaf_weight=20 430628 20 20 25 20 23 25 20 20 33 20 59 21 38 36 22 29 107 52 20 22 20 55 6098 154 63 52 64 41 184
leaf_count=20 430628 20 20 25 20 23 25 20 20 33 20 59 21 38 36 22 29 107 52 20 22 20 55 6098 154 63 52 64 41 184
internal_value=0 27805.5 591603 10732.7 442080 -48909.6 8006.88 255433 6433.36 -184043 7870.82 153507 6213.96 -68658.5 -381834 -720478 39428.7 75326.4 187781 9641.85 181269 8549.35 127472 7182 1877.63 6566.45 81779.5 5212.21 79321 3973.53
internal_weight=0 7383 217 7166 45 197 7121 45 7076 53 7023 79 6944 304 78 42 226 197 90 6640 42 6598 75 6523 174 6502 115 6387 105 6282
internal_count=438011 7383 217 7166 45 197 7121 45 7076 53 7023 79 6944 304 78 42 226 197 90 6640 42 6598 75 6523 174 6502 115 6387 105 6282
is_linear=0
shrinkage=0.1


Tree=8
num_leaves=31
num_cat=0
split_feature=1381 1975 1951 848 1266 450 209 2004 253 235 1675 1105 1832 1013 1026 1918 2044 237 92 1740 1608 325 634 613 753 558 884 158 182 1115
split_gain=4.70288e+14 5.75634e+15 8.42964e+16 7.60668e+15 8.12289e+14 3.07249e+15 2.98162e+14 1.99495e+14 1.42016e+15 3.78308e+14 1.37855e+15 1.16887e+15 4.11422e+14 1.56617e+14 1.444e+14 1.66947e+14 5.1307e+14 1.03306e+14 1.81525e+14 8.4221e+13 1.11023e+14 7.99336e+13 1.71293e+14 7.24685e+13 7.55382e+13 5.48492e+13 5.34196e+13 1.55341e+14 5.09849e+13 5.95329e+13
threshold=1.0000000180025095e-35 1.0000000180025095e-35 1.0000000180025095e-35 1.5971679687500002 1.0000000180025095e-35 -1.4042968749999998 1.0253906250000002 1.0000000180025095e-35 -0.97436523437499989 -2.6933593749999996 1.0000000180025095e-35 1.0000000180025095e-35 1.0000000180025095e-35 -2.7744140624999996 1.0000000180025095e-35 1.0000000180025095e-35 1.0000000180025095e-35 2.4013671875000004 0.96972656250000011 1.0000000180025095e-35 1.0000000180025095e-35 -2.1220703124999996 -0.49328613281249994 2.0068359375000004 2.0332031250000004 -0.83691406249999989 1.9326171875000002 0.25158691406250006 -0.66284179687499989 1.0000000180025095e-35
decision_type=2 2 2 2 2 2 2 2 2 2 2 2 2 2 2 2 2 2 2 2 2 2 2 2 2 2 2 2 2 2
left_child=1 4 -3 6 7 -6 25 9 -9 10 11 12 -1 -11 15 19 -17 21 -19 20 -12 22 -15 24 26 -4 -23 -28 29 -26
right_child=-2 2 3 -5 5 -7 -8 8 -10 13 14 -13 -14 17 -16 16 -18 18 -20 -21 -22 23 -24 -25 28 -27 27 -29 -30 -31
leaf_value=-944332.91780303034 -429.04669680933569 5453230.9940104168 175725.75381835937 -2099965.75 1398787.3809716797 -45132.585775320877 -340536.46069878474 892960.83589843754 -80061.221796875005 275828.38536931819 -257995.98365885415 11925.669961208769 -386046.67045454547 352924.77483723965 -187816.38761574076 488012.4549143145 -1746.8744480298913 382432.00703125005 -38523.080757068456 151574.7671484375 -1603.6479046737941 3242.5167064113189 5796.1341563831675 139035.9606707317 201715.49267578125 -3146.7744118245446 -5392.4774747314459 318706.23199404764 8296.4383732910155 -3635.8309277343756
leaf_weight=33 430628 30 20 20 20 56 27 20 60 22 24 36 22 21 27 31 69 20 21 20 57 6333 44 41 48 120 50 21 50 20
leaf_count=33 430628 30 20 20 20 56 27 20 60 22 24 36 22 21 27 31 69 20 21 20 57 6333 44 41 48 120 50 21 50 20
internal_value=0 25025 532443 -256989 9659.43 334846 -36272.9 6173.65 163194 4381.69 -102012 -431063 -721018 9454.09 29320.1 58487.7 150079 8575.36 166821 -32196.2 -77571.7 7596.48 117945 6503.58 5670.43 22406.4 4209.57 90467.7 84953 141318
internal_weight=0 7383 217 187 7166 76 167 7090 80 7010 319 91 55 6691 228 201 100 6669 41 101 81 6628 65 6563 6522 140 6404 71 118 68
internal_count=438011 7383 217 187 7166 76 167 7090 80 7010 319 91 55 6691 228 201 100 6669 41 101 81 6628 65 6563 6522 140 6404 71 118 68
is_linear=0
shrinkage=0.1


Tree=9
num_leaves=31
num_cat=0
split_feature=578 1975 1960 1751 1594 1368 1375 1983 1900 1381 1105 1951 1375 1 819 660 1381 441 1874 12 153 1598 818 556 837 1481 905 190 1422 422
split_gain=4.0822e+14 1.08522e+16 7.59221e+16 3.76904e+15 2.00298e+15 3.35479e+14 1.27761e+15 3.41505e+14 1.43756e+15 4.20695e+14 7.65805e+14 8.35934e+14 1.32029e+15 1.49934e+15 6.13056e+13 4.18319e+14 3.00027e+14 9.18212e+13 1.96252e+14 5.37103e+13 5.34859e+13 8.64267e+13 4.53283e+13 2.71503e+14 2.30586e+14 1.82594e+14 1.69512e+14 1.46253e+14 1.40961e+14 7.77604e+13
threshold=-2.6884765624999996 1.0000000180025095e-35 1.0000000180025095e-35 1.0000000180025095e-35 1.0000000180025095e-35 1.0000000180025095e-35 1.0000000180025095e-35 1.0000000180025095e-35 1.0000000180025095e-35 1.0000000180025095e-35 1.0000000180025095e-35 1.0000000180025095e-35 1.0000000180025095e-35 1.0419921875000002 2.1523437500000004 1.5673828125000002 1.0000000180025095e-35 1.2480468750000002 1.0000000180025095e-35 0.32580566406250006 1.6362304687500002 1.0000000180025095e-35 -0.40148925781249994 2.4082031250000004 2.7822265625000004 1.0000000180025095e-35 3.4082031250000004 -1.7705078124999998 1.0000000180025095e-35 3.0498046875000004
decision_type=2 2 2 2 2 2 2 2 2 2 2 2 2 2 2 2 2 2 2 2 2 2 2 2 2 2 2 2 2 2
left_child=1 4 -3 -4 5 7 -7 9 -9 10 11 12 13 -1 22 17 -17 -16 -19 -12 -11 -22 23 24 27 28 -24 -2 -25 -29
right_child=14 2 3 -5 -6 6 -8 8 -10 20 19 -13 -14 -15 15 16 -18 18 -20 -21 21 -23 26 25 -26 -27 -28 29 -30 -31
leaf_value=-1268681.2321428573 177466.73699301863 5274249.157419119 -1398001.8592041016 3084.2524944305424 917302.36835123692 788267.0076397236 -1969.8751068115234 877008.95310377039 205.40071691894534 1501.5622964855522 131859.91694335939 38597.536977453405 8082.7267339939026 -298781.17086148652 4258.3065161213835 103868.48860887098 600654.88879638666 277784.18022836541 19032.57279476877 -7440.0377620045738 14605.800747282608 259440.40766369051 -1059.1288173842963 42530.947873575184 293383.67897858797 371815.26243990386 259344.63185546873 970.1485875368985 323027.44896763394 152226.93038778866
leaf_weight=28 47 31 24 96 24 26 96 23 100 6018 32 57 41 37 2293 31 20 39 118 205 46 21 330028 122 27 26 25 98275 21 34
leaf_count=28 47 31 24 96 24 26 96 23 100 6018 32 57 41 37 2293 31 20 39 118 205 46 21 330028 122 27 26 25 98275 21 34
internal_value=0 24122.1 862555 -277133 5377.13 2125.09 166441 -908.589 164161 -4039.43 -103381 -270224 -436289 -716584 -386.362 15224.6 298687 9323.97 83308.4 11368.4 2490.8 91345 -477.455 1404.53 1186.99 128045 -1039.4 1106.78 83722.7 1022.46
internal_weight=0 6905 151 120 6754 6730 122 6608 123 6485 400 163 106 65 431106 2501 51 2450 157 237 6085 67 428605 98552 98383 169 330053 98356 143 98309
internal_count=438011 6905 151 120 6754 6730 122 6608 123 6485 400 163 106 65 431106 2501 51 2450 157 237 6085 67 428605 98552 98383 169 330053 98356 143 98309
is_linear=0
shrinkage=0.1


Tree=10
num_leaves=31
num_cat=0
split_feature=1381 157 1832 1675 1122 1058 1153 1 1029 1105 1975 1951 145 1105 137 1042 434 406 1032 1635 399 2004 884 383 1594 676 1874 894 1157 253
split_gain=3.84654e+14 5.93194e+15 8.71605e+15 2.73399e+16 3.01555e+15 2.73024e+15 4.38249e+15 1.71764e+15 6.84231e+14 1.63758e+15 3.0625e+14 5.55488e+14 3.30322e+14 1.34244e+14 9.04974e+13 7.24014e+13 2.48173e+14 7.39679e+13 1.29084e+14 2.44139e+14 6.37425e+13 5.92977e+13 4.45301e+13 1.23666e+14 5.07438e+13 4.33461e+13 4.48239e+13 4.19346e+13 1.22551e+14 4.18053e+13
threshold=1.0000000180025095e-35 2.4394531250000004 1.0000000180025095e-35 1.0000000180025095e-35 1.0000000180025095e-35 1.0000000180025095e-35 1.0000000180025095e-35 1.2744140625000002 1.0000000180025095e-35 1.0000000180025095e-35 1.0000000180025095e-35 1.0000000180025095e-35 -0.36303710937499994 1.0000000180025095e-35 -2.0537109374999996 1.0000000180025095e-35 -0.51074218749999989 1.4584960937500002 1.0000000180025095e-35 1.0000000180025095e-35 0.80346679687500011 1.0000000180025095e-35 1.9326171875000002 0.93798828125000011 1.0000000180025095e-35 -2.1230468749999996 1.0000000180025095e-35 -1.3754882812499998 1.0000000180025095e-35 -0.33105468749999994
decision_type=2 2 2 2 2 2 2 2 2 2 2 2 2 2 2 2 2 2 2 2 2 2 2 2 2 2 2 2 2 2
left_child=1 10 3 7 5 6 -4 -3 9 -6 14 -12 -13 -5 -1 17 -17 21 19 -19 29 22 24 -24 25 26 -16 28 -27 -14
right_child=-2 2 4 13 8 -7 -8 -9 -10 -11 11 12 20 -15 15 16 -18 18 -20 -21 -22 -23 23 -25 -26 27 -28 -29 -30 -31
leaf_value=185253.90633544922 -388.02324280338343 2441773.7986506498 1552381.8001193576 -289600.58679108799 -1249563.075 -20616.597478993735 -115710.06673758371 3646392.487558594 25119.44523607337 -163946.18355823867 -541276.7111111111 -398572.81350911461 -157657.0275 -9810.1001786901597 10494.921372767858 404538.27490234375 -5831.4094181605751 50742.951002261514 -136003.22162642048 443416.8505859375 167096.38521484376 -86410.831545608118 -3155.5634346618654 286018.32157738099 -117336.28651785714 19092.968157552084 180245.88692626954 689.12985979720213 241520.81273148151 -593.76118526974244
leaf_weight=28 430628 29 36 27 24 96 28 20 23 33 27 24 20 47 35 20 56 76 22 20 20 74 50 21 35 300 28 6026 27 111
leaf_count=28 430628 29 36 27 24 96 28 20 23 33 27 24 20 47 35 20 56 76 22 20 20 74 50 21 35 300 28 6026 27 111
internal_value=0 22632.2 416815 1.10129e+06 66019.5 316667 822592 2.93345e+06 -435275 -621048 2249.29 -119096 -53959.2 -111896 5844.43 5104.6 102161 4005.96 82480.8 132550 813.773 2602.08 3612.04 82374.7 2745.17 3400.23 85939.8 2581.72 37458.6 -24572.9
internal_weight=0 7383 363 123 240 160 64 49 80 57 7020 202 175 74 6818 6790 76 6714 118 96 151 6596 6522 71 6451 6416 63 6353 327 131
internal_count=438011 7383 363 123 240 160 64 49 80 57 7020 202 175 74 6818 6790 76 6714 118 96 151 6596 6522 71 6451 6416 63 6353 327 131
is_linear=0
shrinkage=0.1


Tree=11
num_leaves=31
num_cat=0
split_feature=1381 1975 288 1266 514 1951 29 1675 1135 209 1368 393 235 1675 1721 1918 1058 414 1802 283 157 1550 325 8 206 613 298 2004 857 802
split_gain=3.1157e+14 5.01827e+15 8.00564e+16 6.3956e+14 2.878e+15 5.56274e+14 2.99429e+14 3.66002e+14 5.12216e+14 2.95356e+14 1.50752e+14 1.70316e+15 1.94568e+14 1.28376e+15 1.1609e+15 2.4263e+14 7.44429e+14 7.96538e+13 7.81245e+13 6.61413e+14 3.21498e+14 7.17914e+13 6.33326e+13 1.60289e+14 5.73416e+13 5.52556e+13 5.38396e+13 4.62643e+13 4.41747e+13 3.64074e+13
threshold=1.0000000180025095e-35 1.0000000180025095e-35 -1.6923828124999998 1.0000000180025095e-35 1.2319335937500002 1.0000000180025095e-35 3.1796875000000004 1.0000000180025095e-35 1.0000000180025095e-35 1.0253906250000002 1.0000000180025095e-35 -0.94531249999999989 -2.6933593749999996 1.0000000180025095e-35 1.0000000180025095e-35 1.0000000180025095e-35 1.0000000180025095e-35 -2.0341796874999996 1.0000000180025095e-35 -0.60742187499999989 2.4394531250000004 1.0000000180025095e-35 -2.1220703124999996 -0.19909667968749997 -1.0454101562499998 2.0068359375000004 -2.6347656249999996 1.0000000180025095e-35 -2.2529296874999996 1.0610351562500002
decision_type=2 2 2 2 2 2 2 2 2 2 2 2 2 2 2 2 2 2 2 2 2 2 2 2 2 2 2 2 2 2
left_child=1 3 -3 6 -5 -4 10 8 -8 24 12 -12 13 14 -1 -15 -17 -14 20 -20 21 22 23 -19 -7 26 -24 28 -28 -2
right_child=29 2 5 4 -6 9 7 -9 -10 -11 11 -13 17 15 -16 16 -18 18 19 -21 -22 -23 25 -25 -26 -27 27 -29 -30 -31
leaf_value=-1075864.625 -642.50457226119488 6522322.015625 -539509.21851851861 -73185.379794747496 1324287.1906005861 161055.81849121093 -738672.39821428573 -36250.33340460527 -31550.994843749999 -368329.64656250004 967200.10949218762 2229.6221770955026 180585.92641225964 -79207.626098632812 -97270.758036747691 705808.49056640628 -16064.297167968751 -1250.4187245244566 612183.58562377933 -2051.5030892385562 -396847.80890624999 177346.09635416669 127749.8882008272 337850.99796875002 -21312.279510742188 117345.72286086311 135175.4287265625 -77027.689822635133 1973.6261264755733 2533.4783113366229
leaf_weight=22 390862 20 27 56 20 20 21 95 20 25 20 214 26 64 27 20 50 46 20 142 20 24 34 20 125 42 25 74 6064 39766
leaf_count=22 390862 20 27 56 20 20 21 95 20 25 20 214 26 64 27 20 50 46 20 142 20 24 34 20 125 42 25 74 6064 39766
internal_value=0 20369 494141 6022.3 294571 -117857 2929.26 -144021 -393735 -50889.2 5803.18 84705.7 3055.68 -98643 -536639 61519.9 190185 5902.69 5205.13 73780 3455.39 4720.37 4063.27 101508 3841.94 3032.44 2257.69 1565.37 2520.52 -349.221
internal_weight=0 7383 217 7166 76 197 7090 136 41 170 6954 234 6720 183 49 134 70 6537 6511 162 6349 6329 6305 66 145 6239 6197 6163 6089 430628
internal_count=438011 7383 217 7166 76 197 7090 136 41 170 6954 234 6720 183 49 134 70 6537 6511 162 6349 6329 6305 66 145 6239 6197 6163 6089 430628
is_linear=0
shrinkage=0.1


end of trees

feature_importances:
mol_80=14
mol_356=13
mol_926=10
mol_650=9
prot_236=8
mol_950=8
mol_979=7
prot_156=6
mol_128=6
mol_350=6
mol_736=6
mol_807=6
prot_35=5
prot_234=5
prot_555=5
mol_569=5
prot_4=4
prot_324=4
prot_400=4
prot_585=4
prot_612=4
prot_818=4
mol_715=4
prot_0=3
prot_275=3
prot_291=3
prot_405=3
prot_413=3
prot_424=3
prot_446=3
prot_561=3
prot_752=3
prot_758=3
mol_33=3
mol_241=3
mol_893=3
prot_22=2
prot_34=2
prot_91=2
prot_116=2
prot_204=2
prot_208=2
prot_228=2
prot_252=2
prot_296=2
prot_299=2
prot_369=2
prot_454=2
prot_577=2
prot_651=2
prot_856=2
prot_883=2
prot_893=2
prot_1003=2
mol_1=2
mol_17=2
mol_76=2
mol_147=2
mol_283=2
mol_301=2
mol_343=2
mol_573=2
mol_695=2
mol_786=2
mol_849=2
mol_875=2
prot_1=1
prot_2=1
prot_3=1
prot_5=1
prot_7=1
prot_11=1
prot_12=1
prot_28=1
prot_45=1
prot_48=1
prot_51=1
prot_53=1
prot_62=1
prot_72=1
prot_77=1
prot_93=1
prot_99=1
prot_111=1
prot_122=1
prot_136=1
prot_144=1
prot_152=1
prot_153=1
prot_154=1
prot_157=1
prot_158=1
prot_181=1
prot_189=1
prot_205=1
prot_207=1
prot_226=1
prot_240=1
prot_278=1
prot_282=1
prot_286=1
prot_287=1
prot_297=1
prot_298=1
prot_355=1
prot_382=1
prot_392=1
prot_398=1
prot_403=1
prot_421=1
prot_422=1
prot_433=1
prot_440=1
prot_449=1
prot_455=1
prot_459=1
prot_483=1
prot_496=1
prot_513=1
prot_515=1
prot_553=1
prot_557=1
prot_576=1
prot_613=1
prot_616=1
prot_625=1
prot_633=1
prot_659=1
prot_672=1
prot_675=1
prot_683=1
prot_684=1
prot_692=1
prot_697=1
prot_740=1
prot_767=1
prot_774=1
prot_789=1
prot_791=1
prot_801=1
prot_817=1
prot_830=1
prot_836=1
prot_847=1
prot_890=1
prot_896=1
prot_904=1
prot_962=1
prot_976=1
prot_1012=1
prot_1016=1
mol_4=1
mol_7=1
mol_39=1
mol_79=1
mol_90=1
mol_97=1
mol_110=1
mol_132=1
mol_140=1
mol_197=1
mol_255=1
mol_294=1
mol_338=1
mol_397=1
mol_456=1
mol_457=1
mol_519=1
mol_525=1
mol_583=1
mol_610=1
mol_667=1
mol_696=1
mol_726=1
mol_745=1
mol_777=1
mol_932=1
mol_935=1
mol_958=1
mol_1019=1

parameters:
[boosting: gbdt]
[objective: regression]
[metric: l2]
[tree_learner: serial]
[device_type: cpu]
[data_sample_strategy: bagging]
[data: ]
[valid: ]
[num_iterations: 1000]
[learning_rate: 0.1]
[num_leaves: 31]
[num_threads: 0]
[seed: 0]
[deterministic: 0]
[force_col_wise: 0]
[force_row_wise: 0]
[histogram_pool_size: -1]
[max_depth: -1]
[min_data_in_leaf: 20]
[min_sum_hessian_in_leaf: 0.001]
[bagging_fraction: 1]
[pos_bagging_fraction: 1]
[neg_bagging_fraction: 1]
[bagging_freq: 0]
[bagging_seed: 3]
[feature_fraction: 1]
[feature_fraction_bynode: 1]
[feature_fraction_seed: 2]
[extra_trees: 0]
[extra_seed: 6]
[early_stopping_round: 0]
[early_stopping_min_delta: 0]
[first_metric_only: 0]
[max_delta_step: 0]
[lambda_l1: 0]
[lambda_l2: 0]
[linear_lambda: 0]
[min_gain_to_split: 0]
[drop_rate: 0.1]
[max_drop: 50]
[skip_drop: 0.5]
[xgboost_dart_mode: 0]
[uniform_drop: 0]
[drop_seed: 4]
[top_rate: 0.2]
[other_rate: 0.1]
[min_data_per_group: 100]
[max_cat_threshold: 32]
[cat_l2: 10]
[cat_smooth: 10]
[max_cat_to_onehot: 4]
[top_k: 20]
[monotone_constraints: ]
[monotone_constraints_method: basic]
[monotone_penalty: 0]
[feature_contri: ]
[forcedsplits_filename: ]
[refit_decay_rate: 0.9]
[cegb_tradeoff: 1]
[cegb_penalty_split: 0]
[cegb_penalty_feature_lazy: ]
[cegb_penalty_feature_coupled: ]
[path_smooth: 0]
[interaction_constraints: ]
[verbosity: 1]
[saved_feature_importance_type: 0]
[use_quantized_grad: 0]
[num_grad_quant_bins: 4]
[quant_train_renew_leaf: 0]
[stochastic_rounding: 1]
[linear_tree: 0]
[max_bin: 255]
[max_bin_by_feature: ]
[min_data_in_bin: 3]
[bin_construct_sample_cnt: 200000]
[data_random_seed: 1]
[is_enable_sparse: 1]
[enable_bundle: 1]
[use_missing: 1]
[zero_as_missing: 0]
[feature_pre_filter: 1]
[pre_partition: 0]
[two_round: 0]
[header: 0]
[label_column: ]
[weight_column: ]
[group_column: ]
[ignore_column: ]
[categorical_feature: ]
[forcedbins_filename: ]
[precise_float_parser: 0]
[parser_config_file: ]
[objective_seed: 5]
[num_class: 1]
[is_unbalance: 0]
[scale_pos_weight: 1]
[sigmoid: 1]
[boost_from_average: 1]
[reg_sqrt: 0]
[alpha: 0.9]
[fair_c: 1]
[poisson_max_delta_step: 0.7]
[tweedie_variance_power: 1.5]
[lambdarank_truncation_level: 30]
[lambdarank_norm: 1]
[label_gain: ]
[lambdarank_position_bias_regularization: 0]
[eval_at: ]
[multi_error_top_k: 1]
[auc_mu_weights: ]
[num_machines: 1]
[local_listen_port: 12400]
[time_out: 120]
[machine_list_filename: ]
[machines: ]
[gpu_platform_id: -1]
[gpu_device_id: -1]
[gpu_use_dp: 0]
[num_gpu: 1]

end of parameters

pandas_categorical:[]
