tree
version=v4
num_class=1
num_tree_per_iteration=1
label_index=0
max_feature_idx=2048
objective=regression
feature_names=kiba_score_estimated prot_0 prot_1 prot_2 prot_3 prot_4 prot_5 prot_6 prot_7 prot_8 prot_9 prot_10 prot_11 prot_12 prot_13 prot_14 prot_15 prot_16 prot_17 prot_18 prot_19 prot_20 prot_21 prot_22 prot_23 prot_24 prot_25 prot_26 prot_27 prot_28 prot_29 prot_30 prot_31 prot_32 prot_33 prot_34 prot_35 prot_36 prot_37 prot_38 prot_39 prot_40 prot_41 prot_42 prot_43 prot_44 prot_45 prot_46 prot_47 prot_48 prot_49 prot_50 prot_51 prot_52 prot_53 prot_54 prot_55 prot_56 prot_57 prot_58 prot_59 prot_60 prot_61 prot_62 prot_63 prot_64 prot_65 prot_66 prot_67 prot_68 prot_69 prot_70 prot_71 prot_72 prot_73 prot_74 prot_75 prot_76 prot_77 prot_78 prot_79 prot_80 prot_81 prot_82 prot_83 prot_84 prot_85 prot_86 prot_87 prot_88 prot_89 prot_90 prot_91 prot_92 prot_93 prot_94 prot_95 prot_96 prot_97 prot_98 prot_99 prot_100 prot_101 prot_102 prot_103 prot_104 prot_105 prot_106 prot_107 prot_108 prot_109 prot_110 prot_111 prot_112 prot_113 prot_114 prot_115 prot_116 prot_117 prot_118 prot_119 prot_120 prot_121 prot_122 prot_123 prot_124 prot_125 prot_126 prot_127 prot_128 prot_129 prot_130 prot_131 prot_132 prot_133 prot_134 prot_135 prot_136 prot_137 prot_138 prot_139 prot_140 prot_141 prot_142 prot_143 prot_144 prot_145 prot_146 prot_147 prot_148 prot_149 prot_150 prot_151 prot_152 prot_153 prot_154 prot_155 prot_156 prot_157 prot_158 prot_159 prot_160 prot_161 prot_162 prot_163 prot_164 prot_165 prot_166 prot_167 prot_168 prot_169 prot_170 prot_171 prot_172 prot_173 prot_174 prot_175 prot_176 prot_177 prot_178 prot_179 prot_180 prot_181 prot_182 prot_183 prot_184 prot_185 prot_186 prot_187 prot_188 prot_189 prot_190 prot_191 prot_192 prot_193 prot_194 prot_195 prot_196 prot_197 prot_198 prot_199 prot_200 prot_201 prot_202 prot_203 prot_204 prot_205 prot_206 prot_207 prot_208 prot_209 prot_210 prot_211 prot_212 prot_213 prot_214 prot_215 prot_216 prot_217 prot_218 prot_219 prot_220 prot_221 prot_222 prot_223 prot_224 prot_225 prot_226 prot_227 prot_228 prot_229 prot_230 prot_231 prot_232 prot_233 prot_234 prot_235 prot_236 prot_237 prot_238 prot_239 prot_240 prot_241 prot_242 prot_243 prot_244 prot_245 prot_246 prot_247 prot_248 prot_249 prot_250 prot_251 prot_252 prot_253 prot_254 prot_255 prot_256 prot_257 prot_258 prot_259 prot_260 prot_261 prot_262 prot_263 prot_264 prot_265 prot_266 prot_267 prot_268 prot_269 prot_270 prot_271 prot_272 prot_273 prot_274 prot_275 prot_276 prot_277 prot_278 prot_279 prot_280 prot_281 prot_282 prot_283 prot_284 prot_285 prot_286 prot_287 prot_288 prot_289 prot_290 prot_291 prot_292 prot_293 prot_294 prot_295 prot_296 prot_297 prot_298 prot_299 prot_300 prot_301 prot_302 prot_303 prot_304 prot_305 prot_306 prot_307 prot_308 prot_309 prot_310 prot_311 prot_312 prot_313 prot_314 prot_315 prot_316 prot_317 prot_318 prot_319 prot_320 prot_321 prot_322 prot_323 prot_324 prot_325 prot_326 prot_327 prot_328 prot_329 prot_330 prot_331 prot_332 prot_333 prot_334 prot_335 prot_336 prot_337 prot_338 prot_339 prot_340 prot_341 prot_342 prot_343 prot_344 prot_345 prot_346 prot_347 prot_348 prot_349 prot_350 prot_351 prot_352 prot_353 prot_354 prot_355 prot_356 prot_357 prot_358 prot_359 prot_360 prot_361 prot_362 prot_363 prot_364 prot_365 prot_366 prot_367 prot_368 prot_369 prot_370 prot_371 prot_372 prot_373 prot_374 prot_375 prot_376 prot_377 prot_378 prot_379 prot_380 prot_381 prot_382 prot_383 prot_384 prot_385 prot_386 prot_387 prot_388 prot_389 prot_390 prot_391 prot_392 prot_393 prot_394 prot_395 prot_396 prot_397 prot_398 prot_399 prot_400 prot_401 prot_402 prot_403 prot_404 prot_405 prot_406 prot_407 prot_408 prot_409 prot_410 prot_411 prot_412 prot_413 prot_414 prot_415 prot_416 prot_417 prot_418 prot_419 prot_420 prot_421 prot_422 prot_423 prot_424 prot_425 prot_426 prot_427 prot_428 prot_429 prot_430 prot_431 prot_432 prot_433 prot_434 prot_435 prot_436 prot_437 prot_438 prot_439 prot_440 prot_441 prot_442 prot_443 prot_444 prot_445 prot_446 prot_447 prot_448 prot_449 prot_450 prot_451 prot_452 prot_453 prot_454 prot_455 prot_456 prot_457 prot_458 prot_459 prot_460 prot_461 prot_462 prot_463 prot_464 prot_465 prot_466 prot_467 prot_468 prot_469 prot_470 prot_471 prot_472 prot_473 prot_474 prot_475 prot_476 prot_477 prot_478 prot_479 prot_480 prot_481 prot_482 prot_483 prot_484 prot_485 prot_486 prot_487 prot_488 prot_489 prot_490 prot_491 prot_492 prot_493 prot_494 prot_495 prot_496 prot_497 prot_498 prot_499 prot_500 prot_501 prot_502 prot_503 prot_504 prot_505 prot_506 prot_507 prot_508 prot_509 prot_510 prot_511 prot_512 prot_513 prot_514 prot_515 prot_516 prot_517 prot_518 prot_519 prot_520 prot_521 prot_522 prot_523 prot_524 prot_525 prot_526 prot_527 prot_528 prot_529 prot_530 prot_531 prot_532 prot_533 prot_534 prot_535 prot_536 prot_537 prot_538 prot_539 prot_540 prot_541 prot_542 prot_543 prot_544 prot_545 prot_546 prot_547 prot_548 prot_549 prot_550 prot_551 prot_552 prot_553 prot_554 prot_555 prot_556 prot_557 prot_558 prot_559 prot_560 prot_561 prot_562 prot_563 prot_564 prot_565 prot_566 prot_567 prot_568 prot_569 prot_570 prot_571 prot_572 prot_573 prot_574 prot_575 prot_576 prot_577 prot_578 prot_579 prot_580 prot_581 prot_582 prot_583 prot_584 prot_585 prot_586 prot_587 prot_588 prot_589 prot_590 prot_591 prot_592 prot_593 prot_594 prot_595 prot_596 prot_597 prot_598 prot_599 prot_600 prot_601 prot_602 prot_603 prot_604 prot_605 prot_606 prot_607 prot_608 prot_609 prot_610 prot_611 prot_612 prot_613 prot_614 prot_615 prot_616 prot_617 prot_618 prot_619 prot_620 prot_621 prot_622 prot_623 prot_624 prot_625 prot_626 prot_627 prot_628 prot_629 prot_630 prot_631 prot_632 prot_633 prot_634 prot_635 prot_636 prot_637 prot_638 prot_639 prot_640 prot_641 prot_642 prot_643 prot_644 prot_645 prot_646 prot_647 prot_648 prot_649 prot_650 prot_651 prot_652 prot_653 prot_654 prot_655 prot_656 prot_657 prot_658 prot_659 prot_660 prot_661 prot_662 prot_663 prot_664 prot_665 prot_666 prot_667 prot_668 prot_669 prot_670 prot_671 prot_672 prot_673 prot_674 prot_675 prot_676 prot_677 prot_678 prot_679 prot_680 prot_681 prot_682 prot_683 prot_684 prot_685 prot_686 prot_687 prot_688 prot_689 prot_690 prot_691 prot_692 prot_693 prot_694 prot_695 prot_696 prot_697 prot_698 prot_699 prot_700 prot_701 prot_702 prot_703 prot_704 prot_705 prot_706 prot_707 prot_708 prot_709 prot_710 prot_711 prot_712 prot_713 prot_714 prot_715 prot_716 prot_717 prot_718 prot_719 prot_720 prot_721 prot_722 prot_723 prot_724 prot_725 prot_726 prot_727 prot_728 prot_729 prot_730 prot_731 prot_732 prot_733 prot_734 prot_735 prot_736 prot_737 prot_738 prot_739 prot_740 prot_741 prot_742 prot_743 prot_744 prot_745 prot_746 prot_747 prot_748 prot_749 prot_750 prot_751 prot_752 prot_753 prot_754 prot_755 prot_756 prot_757 prot_758 prot_759 prot_760 prot_761 prot_762 prot_763 prot_764 prot_765 prot_766 prot_767 prot_768 prot_769 prot_770 prot_771 prot_772 prot_773 prot_774 prot_775 prot_776 prot_777 prot_778 prot_779 prot_780 prot_781 prot_782 prot_783 prot_784 prot_785 prot_786 prot_787 prot_788 prot_789 prot_790 prot_791 prot_792 prot_793 prot_794 prot_795 prot_796 prot_797 prot_798 prot_799 prot_800 prot_801 prot_802 prot_803 prot_804 prot_805 prot_806 prot_807 prot_808 prot_809 prot_810 prot_811 prot_812 prot_813 prot_814 prot_815 prot_816 prot_817 prot_818 prot_819 prot_820 prot_821 prot_822 prot_823 prot_824 prot_825 prot_826 prot_827 prot_828 prot_829 prot_830 prot_831 prot_832 prot_833 prot_834 prot_835 prot_836 prot_837 prot_838 prot_839 prot_840 prot_841 prot_842 prot_843 prot_844 prot_845 prot_846 prot_847 prot_848 prot_849 prot_850 prot_851 prot_852 prot_853 prot_854 prot_855 prot_856 prot_857 prot_858 prot_859 prot_860 prot_861 prot_862 prot_863 prot_864 prot_865 prot_866 prot_867 prot_868 prot_869 prot_870 prot_871 prot_872 prot_873 prot_874 prot_875 prot_876 prot_877 prot_878 prot_879 prot_880 prot_881 prot_882 prot_883 prot_884 prot_885 prot_886 prot_887 prot_888 prot_889 prot_890 prot_891 prot_892 prot_893 prot_894 prot_895 prot_896 prot_897 prot_898 prot_899 prot_900 prot_901 prot_902 prot_903 prot_904 prot_905 prot_906 prot_907 prot_908 prot_909 prot_910 prot_911 prot_912 prot_913 prot_914 prot_915 prot_916 prot_917 prot_918 prot_919 prot_920 prot_921 prot_922 prot_923 prot_924 prot_925 prot_926 prot_927 prot_928 prot_929 prot_930 prot_931 prot_932 prot_933 prot_934 prot_935 prot_936 prot_937 prot_938 prot_939 prot_940 prot_941 prot_942 prot_943 prot_944 prot_945 prot_946 prot_947 prot_948 prot_949 prot_950 prot_951 prot_952 prot_953 prot_954 prot_955 prot_956 prot_957 prot_958 prot_959 prot_960 prot_961 prot_962 prot_963 prot_964 prot_965 prot_966 prot_967 prot_968 prot_969 prot_970 prot_971 prot_972 prot_973 prot_974 prot_975 prot_976 prot_977 prot_978 prot_979 prot_980 prot_981 prot_982 prot_983 prot_984 prot_985 prot_986 prot_987 prot_988 prot_989 prot_990 prot_991 prot_992 prot_993 prot_994 prot_995 prot_996 prot_997 prot_998 prot_999 prot_1000 prot_1001 prot_1002 prot_1003 prot_1004 prot_1005 prot_1006 prot_1007 prot_1008 prot_1009 prot_1010 prot_1011 prot_1012 prot_1013 prot_1014 prot_1015 prot_1016 prot_1017 prot_1018 prot_1019 prot_1020 prot_1021 prot_1022 prot_1023 mol_0 mol_1 mol_2 mol_3 mol_4 mol_5 mol_6 mol_7 mol_8 mol_9 mol_10 mol_11 mol_12 mol_13 mol_14 mol_15 mol_16 mol_17 mol_18 mol_19 mol_20 mol_21 mol_22 mol_23 mol_24 mol_25 mol_26 mol_27 mol_28 mol_29 mol_30 mol_31 mol_32 mol_33 mol_34 mol_35 mol_36 mol_37 mol_38 mol_39 mol_40 mol_41 mol_42 mol_43 mol_44 mol_45 mol_46 mol_47 mol_48 mol_49 mol_50 mol_51 mol_52 mol_53 mol_54 mol_55 mol_56 mol_57 mol_58 mol_59 mol_60 mol_61 mol_62 mol_63 mol_64 mol_65 mol_66 mol_67 mol_68 mol_69 mol_70 mol_71 mol_72 mol_73 mol_74 mol_75 mol_76 mol_77 mol_78 mol_79 mol_80 mol_81 mol_82 mol_83 mol_84 mol_85 mol_86 mol_87 mol_88 mol_89 mol_90 mol_91 mol_92 mol_93 mol_94 mol_95 mol_96 mol_97 mol_98 mol_99 mol_100 mol_101 mol_102 mol_103 mol_104 mol_105 mol_106 mol_107 mol_108 mol_109 mol_110 mol_111 mol_112 mol_113 mol_114 mol_115 mol_116 mol_117 mol_118 mol_119 mol_120 mol_121 mol_122 mol_123 mol_124 mol_125 mol_126 mol_127 mol_128 mol_129 mol_130 mol_131 mol_132 mol_133 mol_134 mol_135 mol_136 mol_137 mol_138 mol_139 mol_140 mol_141 mol_142 mol_143 mol_144 mol_145 mol_146 mol_147 mol_148 mol_149 mol_150 mol_151 mol_152 mol_153 mol_154 mol_155 mol_156 mol_157 mol_158 mol_159 mol_160 mol_161 mol_162 mol_163 mol_164 mol_165 mol_166 mol_167 mol_168 mol_169 mol_170 mol_171 mol_172 mol_173 mol_174 mol_175 mol_176 mol_177 mol_178 mol_179 mol_180 mol_181 mol_182 mol_183 mol_184 mol_185 mol_186 mol_187 mol_188 mol_189 mol_190 mol_191 mol_192 mol_193 mol_194 mol_195 mol_196 mol_197 mol_198 mol_199 mol_200 mol_201 mol_202 mol_203 mol_204 mol_205 mol_206 mol_207 mol_208 mol_209 mol_210 mol_211 mol_212 mol_213 mol_214 mol_215 mol_216 mol_217 mol_218 mol_219 mol_220 mol_221 mol_222 mol_223 mol_224 mol_225 mol_226 mol_227 mol_228 mol_229 mol_230 mol_231 mol_232 mol_233 mol_234 mol_235 mol_236 mol_237 mol_238 mol_239 mol_240 mol_241 mol_242 mol_243 mol_244 mol_245 mol_246 mol_247 mol_248 mol_249 mol_250 mol_251 mol_252 mol_253 mol_254 mol_255 mol_256 mol_257 mol_258 mol_259 mol_260 mol_261 mol_262 mol_263 mol_264 mol_265 mol_266 mol_267 mol_268 mol_269 mol_270 mol_271 mol_272 mol_273 mol_274 mol_275 mol_276 mol_277 mol_278 mol_279 mol_280 mol_281 mol_282 mol_283 mol_284 mol_285 mol_286 mol_287 mol_288 mol_289 mol_290 mol_291 mol_292 mol_293 mol_294 mol_295 mol_296 mol_297 mol_298 mol_299 mol_300 mol_301 mol_302 mol_303 mol_304 mol_305 mol_306 mol_307 mol_308 mol_309 mol_310 mol_311 mol_312 mol_313 mol_314 mol_315 mol_316 mol_317 mol_318 mol_319 mol_320 mol_321 mol_322 mol_323 mol_324 mol_325 mol_326 mol_327 mol_328 mol_329 mol_330 mol_331 mol_332 mol_333 mol_334 mol_335 mol_336 mol_337 mol_338 mol_339 mol_340 mol_341 mol_342 mol_343 mol_344 mol_345 mol_346 mol_347 mol_348 mol_349 mol_350 mol_351 mol_352 mol_353 mol_354 mol_355 mol_356 mol_357 mol_358 mol_359 mol_360 mol_361 mol_362 mol_363 mol_364 mol_365 mol_366 mol_367 mol_368 mol_369 mol_370 mol_371 mol_372 mol_373 mol_374 mol_375 mol_376 mol_377 mol_378 mol_379 mol_380 mol_381 mol_382 mol_383 mol_384 mol_385 mol_386 mol_387 mol_388 mol_389 mol_390 mol_391 mol_392 mol_393 mol_394 mol_395 mol_396 mol_397 mol_398 mol_399 mol_400 mol_401 mol_402 mol_403 mol_404 mol_405 mol_406 mol_407 mol_408 mol_409 mol_410 mol_411 mol_412 mol_413 mol_414 mol_415 mol_416 mol_417 mol_418 mol_419 mol_420 mol_421 mol_422 mol_423 mol_424 mol_425 mol_426 mol_427 mol_428 mol_429 mol_430 mol_431 mol_432 mol_433 mol_434 mol_435 mol_436 mol_437 mol_438 mol_439 mol_440 mol_441 mol_442 mol_443 mol_444 mol_445 mol_446 mol_447 mol_448 mol_449 mol_450 mol_451 mol_452 mol_453 mol_454 mol_455 mol_456 mol_457 mol_458 mol_459 mol_460 mol_461 mol_462 mol_463 mol_464 mol_465 mol_466 mol_467 mol_468 mol_469 mol_470 mol_471 mol_472 mol_473 mol_474 mol_475 mol_476 mol_477 mol_478 mol_479 mol_480 mol_481 mol_482 mol_483 mol_484 mol_485 mol_486 mol_487 mol_488 mol_489 mol_490 mol_491 mol_492 mol_493 mol_494 mol_495 mol_496 mol_497 mol_498 mol_499 mol_500 mol_501 mol_502 mol_503 mol_504 mol_505 mol_506 mol_507 mol_508 mol_509 mol_510 mol_511 mol_512 mol_513 mol_514 mol_515 mol_516 mol_517 mol_518 mol_519 mol_520 mol_521 mol_522 mol_523 mol_524 mol_525 mol_526 mol_527 mol_528 mol_529 mol_530 mol_531 mol_532 mol_533 mol_534 mol_535 mol_536 mol_537 mol_538 mol_539 mol_540 mol_541 mol_542 mol_543 mol_544 mol_545 mol_546 mol_547 mol_548 mol_549 mol_550 mol_551 mol_552 mol_553 mol_554 mol_555 mol_556 mol_557 mol_558 mol_559 mol_560 mol_561 mol_562 mol_563 mol_564 mol_565 mol_566 mol_567 mol_568 mol_569 mol_570 mol_571 mol_572 mol_573 mol_574 mol_575 mol_576 mol_577 mol_578 mol_579 mol_580 mol_581 mol_582 mol_583 mol_584 mol_585 mol_586 mol_587 mol_588 mol_589 mol_590 mol_591 mol_592 mol_593 mol_594 mol_595 mol_596 mol_597 mol_598 mol_599 mol_600 mol_601 mol_602 mol_603 mol_604 mol_605 mol_606 mol_607 mol_608 mol_609 mol_610 mol_611 mol_612 mol_613 mol_614 mol_615 mol_616 mol_617 mol_618 mol_619 mol_620 mol_621 mol_622 mol_623 mol_624 mol_625 mol_626 mol_627 mol_628 mol_629 mol_630 mol_631 mol_632 mol_633 mol_634 mol_635 mol_636 mol_637 mol_638 mol_639 mol_640 mol_641 mol_642 mol_643 mol_644 mol_645 mol_646 mol_647 mol_648 mol_649 mol_650 mol_651 mol_652 mol_653 mol_654 mol_655 mol_656 mol_657 mol_658 mol_659 mol_660 mol_661 mol_662 mol_663 mol_664 mol_665 mol_666 mol_667 mol_668 mol_669 mol_670 mol_671 mol_672 mol_673 mol_674 mol_675 mol_676 mol_677 mol_678 mol_679 mol_680 mol_681 mol_682 mol_683 mol_684 mol_685 mol_686 mol_687 mol_688 mol_689 mol_690 mol_691 mol_692 mol_693 mol_694 mol_695 mol_696 mol_697 mol_698 mol_699 mol_700 mol_701 mol_702 mol_703 mol_704 mol_705 mol_706 mol_707 mol_708 mol_709 mol_710 mol_711 mol_712 mol_713 mol_714 mol_715 mol_716 mol_717 mol_718 mol_719 mol_720 mol_721 mol_722 mol_723 mol_724 mol_725 mol_726 mol_727 mol_728 mol_729 mol_730 mol_731 mol_732 mol_733 mol_734 mol_735 mol_736 mol_737 mol_738 mol_739 mol_740 mol_741 mol_742 mol_743 mol_744 mol_745 mol_746 mol_747 mol_748 mol_749 mol_750 mol_751 mol_752 mol_753 mol_754 mol_755 mol_756 mol_757 mol_758 mol_759 mol_760 mol_761 mol_762 mol_763 mol_764 mol_765 mol_766 mol_767 mol_768 mol_769 mol_770 mol_771 mol_772 mol_773 mol_774 mol_775 mol_776 mol_777 mol_778 mol_779 mol_780 mol_781 mol_782 mol_783 mol_784 mol_785 mol_786 mol_787 mol_788 mol_789 mol_790 mol_791 mol_792 mol_793 mol_794 mol_795 mol_796 mol_797 mol_798 mol_799 mol_800 mol_801 mol_802 mol_803 mol_804 mol_805 mol_806 mol_807 mol_808 mol_809 mol_810 mol_811 mol_812 mol_813 mol_814 mol_815 mol_816 mol_817 mol_818 mol_819 mol_820 mol_821 mol_822 mol_823 mol_824 mol_825 mol_826 mol_827 mol_828 mol_829 mol_830 mol_831 mol_832 mol_833 mol_834 mol_835 mol_836 mol_837 mol_838 mol_839 mol_840 mol_841 mol_842 mol_843 mol_844 mol_845 mol_846 mol_847 mol_848 mol_849 mol_850 mol_851 mol_852 mol_853 mol_854 mol_855 mol_856 mol_857 mol_858 mol_859 mol_860 mol_861 mol_862 mol_863 mol_864 mol_865 mol_866 mol_867 mol_868 mol_869 mol_870 mol_871 mol_872 mol_873 mol_874 mol_875 mol_876 mol_877 mol_878 mol_879 mol_880 mol_881 mol_882 mol_883 mol_884 mol_885 mol_886 mol_887 mol_888 mol_889 mol_890 mol_891 mol_892 mol_893 mol_894 mol_895 mol_896 mol_897 mol_898 mol_899 mol_900 mol_901 mol_902 mol_903 mol_904 mol_905 mol_906 mol_907 mol_908 mol_909 mol_910 mol_911 mol_912 mol_913 mol_914 mol_915 mol_916 mol_917 mol_918 mol_919 mol_920 mol_921 mol_922 mol_923 mol_924 mol_925 mol_926 mol_927 mol_928 mol_929 mol_930 mol_931 mol_932 mol_933 mol_934 mol_935 mol_936 mol_937 mol_938 mol_939 mol_940 mol_941 mol_942 mol_943 mol_944 mol_945 mol_946 mol_947 mol_948 mol_949 mol_950 mol_951 mol_952 mol_953 mol_954 mol_955 mol_956 mol_957 mol_958 mol_959 mol_960 mol_961 mol_962 mol_963 mol_964 mol_965 mol_966 mol_967 mol_968 mol_969 mol_970 mol_971 mol_972 mol_973 mol_974 mol_975 mol_976 mol_977 mol_978 mol_979 mol_980 mol_981 mol_982 mol_983 mol_984 mol_985 mol_986 mol_987 mol_988 mol_989 mol_990 mol_991 mol_992 mol_993 mol_994 mol_995 mol_996 mol_997 mol_998 mol_999 mol_1000 mol_1001 mol_1002 mol_1003 mol_1004 mol_1005 mol_1006 mol_1007 mol_1008 mol_1009 mol_1010 mol_1011 mol_1012 mol_1013 mol_1014 mol_1015 mol_1016 mol_1017 mol_1018 mol_1019 mol_1020 mol_1021 mol_1022 mol_1023
feature_infos=[0:1] [-4.00390625:2.412109375] [-2.94921875:2.375] [-3.216796875:3.40625] [-3.125:3.228515625] [-2.7734375:3.724609375] [-3.89453125:3.087890625] [-2.796875:3.0859375] [-4.640625:4.23046875] [-2.8046875:3.31640625] [-2.2421875:2.75] [-2.1015625:3.068359375] [-5.16015625:3.291015625] [-2.3828125:3.42578125] [-4.76171875:3.853515625] [-2.78515625:3.158203125] [-2.830078125:2.857421875] [-4.78125:2.388671875] [-4.3671875:4.234375] [-3.341796875:3.689453125] [-3.283203125:3.638671875] [-2.82421875:3.33203125] [-3.5546875:2.609375] [-2.328125:2.931640625] [-3.1328125:3.12890625] [-2.91015625:2.9453125] [-3.388671875:4.30859375] [-3.009765625:2.779296875] [-2.708984375:3.15625] [-3.162109375:2.470703125] [-2.44921875:2.966796875] [-2.91796875:3.158203125] [-3.453125:3.8125] [-3.1328125:3.095703125] [-3.31640625:2.5390625] [-2.677734375:3.962890625] [-2.791015625:4.234375] [-3.763671875:3.1953125] [-2.716796875:3.49609375] [-2.98046875:3.255859375] [-3.203125:2.53515625] [-3.9140625:2.798828125] [-2.669921875:3.310546875] [-3.83984375:2.287109375] [-2.3671875:4.41796875] [-2.587890625:5.12109375] [-6.078125:4.22265625] [-3.169921875:2.822265625] [-2.869140625:3.4453125] [-4.16796875:2.880859375] [-2.423828125:3.529296875] [-3.306640625:3.1796875] [-3.4296875:3.037109375] [-3.30078125:5.3359375] [-2.6953125:3.455078125] [-3.3203125:2.822265625] [-3.0234375:2.783203125] [-3.896484375:2.44921875] [-2.341796875:3.720703125] [-4.6796875:3.375] [-3.71875:2.828125] [-3.669921875:5.1875] [-3.01171875:2.42578125] [-3.71875:3.1484375] [-2.470703125:7.4140625] [-4.28515625:2.134765625] [-2.841796875:3.376953125] [-2.759765625:2.388671875] [-2.978515625:5.359375] [-2.60546875:4.19140625] [-2.849609375:2.654296875] [-3:3.06640625] [-3.1484375:3.59375] [-3.921875:2.732421875] [-2.326171875:2.296875] [-3.34375:3.072265625] [-3.9453125:1.9619140625] [-2.966796875:2.81640625] [-2.802734375:2.326171875] [-3.81640625:2.298828125] [-4.28515625:3.654296875] [-4.0546875:2.408203125] [-3.462890625:3.419921875] [-3.333984375:3.78515625] [-3.416015625:2.3671875] [-2.865234375:3.2890625] [-3.326171875:5.6328125] [-5.96484375:1.990234375] [-2.779296875:4.32421875] [-2.287109375:3.916015625] [-3.587890625:3.53125] [-2.82421875:2.685546875] [-3.798828125:3.001953125] [-2.5390625:2.974609375] [-3.455078125:4.24609375] [-3.0859375:2.48046875] [-2.70703125:4.00390625] [-2.642578125:3.033203125] [-3.224609375:3.138671875] [-2.8828125:2.810546875] [-3.310546875:3.376953125] [-4.78125:2.82421875] [-5.03515625:2.896484375] [-2.607421875:3.052734375] [-3.267578125:4.0078125] [-3.705078125:3.638671875] [-2.662109375:2.8828125] [-1.9482421875:2.193359375] [-3.638671875:3.66015625] [-2.59765625:4.8203125] [-2.54296875:2.51171875] [-3.013671875:4.1796875] [-3.478515625:2.814453125] [-3.166015625:3.08203125] [-2.986328125:2.849609375] [-2.87890625:4.21484375] [-2.68359375:2.474609375] [-2.775390625:3.7109375] [-2.6328125:2.5234375] [-2.650390625:3.12109375] [-2.990234375:2.9296875] [-2.72265625:3.21484375] [-4.3359375:3.025390625] [-3.25:2.8984375] [-3.84765625:3.35546875] [-2.88671875:3.169921875] [-3.71484375:3.091796875] [-2.595703125:3.17578125] [-3.05859375:3.4375] [-4.3203125:5.6171875] [-4.66796875:4.4140625] [-3.447265625:3.654296875] [-4.72265625:3.490234375] [-3.5390625:3.275390625] [-2.8046875:3.052734375] [-3.298828125:4.36328125] [-2.755859375:4.5078125] [-3.361328125:3.7109375] [-3.734375:4.23828125] [-4.98828125:2.646484375] [-2.576171875:3.16796875] [-4.29296875:3.953125] [-2.42578125:3.3203125] [-2.357421875:3.00390625] [-2.978515625:2.89453125] [-4.49609375:3.15625] [-2.64453125:4.32421875] [-3.712890625:2.658203125] [-3.470703125:2.361328125] [-2.283203125:4.1640625] [-3.146484375:2.654296875] [-2.76171875:3.361328125] [-4.23046875:2.60546875] [-3.013671875:3.59375] [-2.115234375:2.51953125] [-2.96484375:2.7578125] [-3.908203125:3.421875] [-5.21875:4.5859375] [-2.8828125:3.1484375] [-3.064453125:2.763671875] [-3.009765625:4.65625] [-3.005859375:2.703125] [-3.111328125:2.783203125] [-3.21875:2.583984375] [-3.81640625:3.109375] [-3.8984375:2.0078125] [-3.63671875:2.458984375] [-4.01953125:3.240234375] [-2.3984375:2.9609375] [-2.76171875:5.37890625] [-3.53125:2.83203125] [-2.904296875:5.2578125] [-2.486328125:2.986328125] [-4.40625:2.58984375] [-3.091796875:2.548828125] [-5.17578125:3.0546875] [-2.876953125:4.09375] [-2.8671875:2.572265625] [-2.958984375:5.01171875] [-3.439453125:4.75] [-3.10546875:3.8515625] [-3.541015625:3.177734375] [-2.861328125:3.14453125] [-3.5390625:3.2109375] [-3.421875:7.1328125] [-3.5546875:6.66796875] [-3.568359375:3.017578125] [-3.57421875:4.03515625] [-3.796875:3.546875] [-2.4140625:2.888671875] [-2.283203125:3.111328125] [-3.9765625:2.873046875] [-5.72265625:2.541015625] [-3.884765625:2.751953125] [-2.310546875:4.9765625] [-2.9765625:4.02734375] [-4.0625:2.142578125] [-4.390625:4.55078125] [-3.11328125:2.849609375] [-2.482421875:2.67578125] [-4.41015625:3.4375] [-2.509765625:2.912109375] [-3.619140625:3.140625] [-2.826171875:3.5] [-2.119140625:3.251953125] [-2.80078125:6.32421875] [-2.689453125:3.14453125] [-3.451171875:3.716796875] [-3.4765625:2.279296875] [-2.650390625:3.11328125] [-3.107421875:4.234375] [-5.03515625:3.4765625] [-3.341796875:2.578125] [-3.251953125:3.09765625] [-2.302734375:3.38671875] [-3.26171875:3.740234375] [-5.23046875:2.931640625] [-2.35546875:5.8203125] [-4.5:2.955078125] [-2.9921875:2.435546875] [-2.56640625:2.8671875] [-2.7734375:4.71875] [-3.03125:2.41796875] [-2.765625:4.4609375] [-2.341796875:3.748046875] [-3.109375:2.458984375] [-2.943359375:2.6875] [-2.716796875:2.95703125] [-3.234375:2.943359375] [-3.52734375:3.58203125] [-3.181640625:3.171875] [-3.564453125:5.04296875] [-2.890625:2.8046875] [-6.65625:2.74609375] [-9.1953125:2.46484375] [-2.357421875:2.7578125] [-4.25390625:2.662109375] [-2.783203125:2.984375] [-3.142578125:3.603515625] [-2.978515625:3.0078125] [-2.25:3.51953125] [-3.134765625:3.240234375] [-4.06640625:2.298828125] [-2.578125:2.91015625] [-2.65234375:2.62890625] [-3.572265625:2.88671875] [-3.080078125:3.0625] [-4.640625:2.595703125] [-4.03515625:3.474609375] [-2.62109375:3.142578125] [-3.10546875:2.828125] [-4.55859375:3.1171875] [-2.671875:3.982421875] [-3.564453125:2.890625] [-3.3359375:3.318359375] [-3.734375:2.8046875] [-2.818359375:3.728515625] [-4.1015625:3.16015625] [-2.771484375:3.896484375] [-2.591796875:3.16796875] [-2.333984375:3.478515625] [-2.88671875:2.4765625] [-3.587890625:2.505859375] [-2.978515625:2.728515625] [-4.5078125:2.9453125] [-2.24609375:3.865234375] [-4.609375:2.77734375] [-5.44921875:2.583984375] [-4.53125:2.603515625] [-2.947265625:2.669921875] [-3.134765625:4.0703125] [-3.28515625:3.029296875] [-3.59765625:3.416015625] [-4.890625:2.84375] [-2.62890625:4.42578125] [-3.470703125:3.154296875] [-2.712890625:3.732421875] [-3.650390625:5.046875] [-2.85546875:2.84375] [-2.828125:3.6875] [-2.583984375:4.17578125] [-2.87890625:2.849609375] [-3.94921875:1.9736328125] [-3.77734375:3.0859375] [-5.08984375:3.05859375] [-3.40625:2.158203125] [-3.423828125:3.201171875] [-4.21875:2.62890625] [-3.798828125:2.365234375] [-2.74609375:3.884765625] [-3.375:3.41015625] [-3.068359375:4.2109375] [-4.04296875:2.833984375] [-3.880859375:4.2109375] [-3.6171875:2.421875] [-3.544921875:1.96484375] [-3.162109375:3.072265625] [-2.931640625:3.044921875] [-2.82421875:2.123046875] [-3.126953125:2.611328125] [-5.390625:3.51171875] [-2.693359375:3.892578125] [-2.640625:4.9296875] [-3.42578125:3.73828125] [-3.83203125:3.552734375] [-4.32421875:2.86328125] [-2.83203125:2.859375] [-1.978515625:4.4609375] [-2.333984375:3.1328125] [-4.66796875:6.0234375] [-3.267578125:2.3515625] [-2.669921875:3.505859375] [-2.931640625:4.890625] [-3.177734375:2.896484375] [-4.0625:3.146484375] [-3.2421875:3.791015625] [-5.05078125:3.9453125] [-3.203125:2.724609375] [-4.875:6.17578125] [-3.658203125:2.384765625] [-3.34375:4.44921875] [-2.46875:2.9765625] [-4.45703125:3.1328125] [-3.42578125:3.5625] [-2.142578125:3.244140625] [-2.166015625:6.91796875] [-2.70703125:4.03125] [-3.904296875:2.93359375] [-2.884765625:4.15234375] [-3.052734375:3.142578125] [-2.556640625:3.36328125] [-3.60546875:2.408203125] [-3.474609375:9.3671875] [-3.9375:3.580078125] [-2.341796875:3.291015625] [-3.08984375:3.095703125] [-1.8828125:3.708984375] [-3.005859375:3.146484375] [-3.8046875:2.689453125] [-2.9921875:3.1796875] [-3.791015625:3.115234375] [-3.79296875:2.763671875] [-2.748046875:2.359375] [-3.794921875:2.935546875] [-4.08203125:3.455078125] [-2.59765625:3.109375] [-3.47265625:2.734375] [-3.001953125:3.83984375] [-2.884765625:3.8359375] [-2.052734375:4.84375] [-2.9453125:3.529296875] [-3.267578125:3.263671875] [-4.0703125:3.544921875] [-3.47265625:3.447265625] [-2.44140625:2.474609375] [-3.22265625:3.625] [-2.51171875:4.00390625] [-3.498046875:4.51171875] [-4.26953125:3.37890625] [-3.255859375:2.859375] [-3.115234375:8.1953125] [-3.033203125:2.357421875] [-2.9375:3.26171875] [-5.61328125:2.955078125] [-4.55859375:2.900390625] [-2.755859375:2.515625] [-3.66796875:2.205078125] [-2.685546875:3.462890625] [-4.171875:3.275390625] [-4.046875:2.521484375] [-4.42578125:2.634765625] [-2.931640625:2.787109375] [-3.041015625:4.36328125] [-3.939453125:3.025390625] [-3.02734375:4.53125] [-2.958984375:4.30859375] [-3.88671875:5.46484375] [-1.755859375:3.83984375] [-3.345703125:2.5390625] [-7.87890625:3.16015625] [-3.345703125:5.2109375] [-3.900390625:3.189453125] [-3.15625:4.515625] [-3.38671875:3.119140625] [-2.8125:3.525390625] [-3.25:3.669921875] [-2.908203125:5.203125] [-3.3515625:2.978515625] [-2.134765625:6.29296875] [-2.638671875:3.5859375] [-4.01953125:2.9609375] [-3.68359375:3.681640625] [-2.908203125:2.16015625] [-4.10546875:2.81640625] [-2.669921875:4.109375] [-4.24609375:3.033203125] [-2.546875:4.8203125] [-3.4140625:2.328125] [-3.125:2.869140625] [-3.544921875:3.236328125] [-2.88671875:3.8125] [-2.732421875:2.75] [-3.73828125:2.7265625] [-4.25390625:3.2421875] [-2.431640625:3.12890625] [-2.939453125:5.76953125] [-7.64453125:1.5341796875] [-3.345703125:3.1640625] [-3.080078125:3.7421875] [-3.15234375:2.970703125] [-3.6328125:4.51953125] [-3.455078125:3.134765625] [-5.44921875:2.447265625] [-3.44921875:2.619140625] [-2.2734375:2.970703125] [-3.072265625:2.59765625] [-2.25390625:5.453125] [-8.03125:3.41015625] [-2.732421875:3.939453125] [-3.564453125:3.0859375] [-3.53125:4.18359375] [-2.826171875:2.83203125] [-2.896484375:3.609375] [-2.42578125:5.0546875] [-3.28515625:4.38671875] [-2.43359375:2.30859375] [-3.2109375:3.423828125] [-3.982421875:2.720703125] [-3.693359375:2.42578125] [-4.3203125:4.01953125] [-3.185546875:4.53515625] [-4.015625:3.25390625] [-2.349609375:4.015625] [-4.59765625:3.03515625] [-3.46875:3.83203125] [-3.83984375:2.453125] [-4.75:4.640625] [-1.884765625:6.92578125] [-2.29296875:6.9609375] [-3.533203125:3.189453125] [-4.359375:3.80859375] [-3.9296875:2.603515625] [-4.609375:3.15625] [-2.55078125:2.58984375] [-6.97265625:2.58984375] [-2.66796875:3.4140625] [-2.810546875:3.345703125] [-2.8046875:3.185546875] [-3.728515625:3.26953125] [-3.287109375:3.1640625] [-2.87890625:3.267578125] [-2.890625:2.5078125] [-3.056640625:3.1171875] [-4.046875:2.7734375] [-3.736328125:2.708984375] [-2.5625:3.3828125] [-2.708984375:4.19140625] [-4.23046875:3.9921875] [-3.419921875:2.58203125] [-3.046875:3.248046875] [-3.109375:4.0390625] [-2.6796875:3.525390625] [-3.40625:3.5] [-3.09375:3.048828125] [-5.19140625:2.98046875] [-3.986328125:3.84765625] [-3.556640625:2.998046875] [-3.2421875:3.02734375] [-2.58203125:4.6328125] [-3.990234375:2.26953125] [-4.265625:2.79296875] [-2.779296875:3.48046875] [-3.677734375:4.6875] [-2.677734375:4.00390625] [-3.41015625:3.794921875] [-3.984375:2.958984375] [-2.833984375:3.6640625] [-3.740234375:2.892578125] [-2.431640625:6.84375] [-3.009765625:4.1328125] [-3.66796875:3.04296875] [-4.03125:3.546875] [-6.515625:2.541015625] [-3.390625:4.1484375] [-3.64453125:2.953125] [-1.896484375:4.5859375] [-3.802734375:2.453125] [-2.123046875:3.068359375] [-4.34765625:2.61328125] [-2.7109375:3.55859375] [-4.47265625:2.548828125] [-2.79296875:2.49609375] [-3.625:2.7578125] [-3.923828125:3.255859375] [-5.59765625:3.142578125] [-2.15625:2.76171875] [-3.3828125:3.029296875] [-4.41796875:2.662109375] [-2.263671875:3.193359375] [-6.234375:2.38671875] [-2.62109375:2.5859375] [-4.84765625:2.248046875] [-2.720703125:2.95703125] [-3.099609375:3.078125] [-2.841796875:2.798828125] [-3.29296875:2.376953125] [-2.978515625:3.62890625] [-3.173828125:3.005859375] [-3.205078125:2.47265625] [-3.291015625:3.9296875] [-3.080078125:4.80859375] [-2.892578125:3.765625] [-3.7265625:3.322265625] [-3.552734375:3.056640625] [-3.16796875:3.662109375] [-4.0703125:2.818359375] [-5.51171875:3.640625] [-3.1015625:2.783203125] [-2.94921875:2.33203125] [-3.380859375:4.21875] [-2.791015625:2.9609375] [-2.94921875:2.400390625] [-2.970703125:3.40234375] [-2.619140625:2.833984375] [-4.19921875:4.06640625] [-2.859375:4.9921875] [-3.95703125:3.0078125] [-2.97265625:2.904296875] [-2.751953125:2.796875] [-2.771484375:3.08984375] [-2.759765625:2.302734375] [-3.07421875:2.390625] [-3.703125:3.857421875] [-4.46484375:3.40234375] [-2.869140625:2.947265625] [-2.95703125:2.82421875] [-4.44140625:2.708984375] [-2.869140625:2.88671875] [-2.3046875:3.759765625] [-3.208984375:3.845703125] [-2.52734375:3.251953125] [-3.28515625:2.904296875] [-2.779296875:3.0625] [-2.94921875:2.177734375] [-2.193359375:3.50390625] [-4.05859375:2.435546875] [-2.89453125:2.625] [-2.76171875:5.13671875] [-2.322265625:4.59375] [-1.9208984375:3.328125] [-3.736328125:3.234375] [-3.95703125:2.83203125] [-3.298828125:3.244140625] [-3.072265625:3.33984375] [-3.30859375:5.66796875] [-3.984375:2.771484375] [-5.890625:2.498046875] [-4.01953125:3.521484375] [-3.21484375:2.583984375] [-3.15234375:3.51953125] [-3.05859375:6.44140625] [-3.869140625:2.810546875] [-3.5859375:2.3828125] [-2.755859375:2.974609375] [-2.3984375:2.873046875] [-6.171875:3.88671875] [-3.27734375:2.822265625] [-4.0703125:2.896484375] [-2.916015625:2.70703125] [-1.9453125:3.109375] [-2.6015625:5.5078125] [-3.646484375:4.35546875] [-2.73828125:2.849609375] [-3.197265625:2.33984375] [-2.41015625:2.677734375] [-3.11328125:2.673828125] [-3.7421875:6.08984375] [-3.642578125:5.20703125] [-3.646484375:2.75] [-2.578125:2.3203125] [-3.599609375:2.751953125] [-3.185546875:2.26171875] [-2.71875:2.9296875] [-2.814453125:2.466796875] [-3.2109375:2.35546875] [-2.423828125:3.3359375] [-2.65625:3.244140625] [-3.044921875:6.1875] [-3.392578125:2.818359375] [-2.763671875:3.544921875] [-2.279296875:2.5625] [-2.556640625:2.08203125] [-2.5:7.7109375] [-2.9453125:3.21484375] [-2.755859375:2.81640625] [-3.57421875:2.740234375] [-2.90234375:3.923828125] [-3.943359375:3.55078125] [-3.65625:2.220703125] [-4.02734375:2.078125] [-2.443359375:4.4296875] [-3.490234375:3.876953125] [-3.994140625:3.65234375] [-2.404296875:3.2421875] [-3.345703125:2.341796875] [-2.73046875:2.779296875] [-3.748046875:2.52734375] [-3.5234375:2.318359375] [-3.03125:3.947265625] [-3.90625:2.958984375] [-2.32421875:4.3828125] [-5.08984375:4.0078125] [-3.048828125:2.455078125] [-2.4140625:2.9296875] [-2.53125:2.935546875] [-3.720703125:2.751953125] [-2.994140625:3.07421875] [-3.298828125:2.98828125] [-2.931640625:4.90234375] [-2.478515625:3.69921875] [-4.24609375:2.71875] [-4.07421875:2.517578125] [-3.181640625:3.951171875] [-2.748046875:3.40234375] [-2.513671875:3.671875] [-2.962890625:5.70703125] [-2.771484375:5.01171875] [-4.12109375:2.998046875] [-2.62890625:3.03515625] [-4.25390625:4.30078125] [-6.921875:2.51171875] [-2.966796875:2.796875] [-4.4140625:3.193359375] [-2.755859375:5.26953125] [-3.3046875:2.673828125] [-2.669921875:2.2890625] [-3.0546875:2.169921875] [-2.337890625:3.4140625] [-3.333984375:4.35546875] [-3.4609375:2.525390625] [-3.908203125:3.578125] [-3.064453125:3.099609375] [-4.5625:2.560546875] [-2.28515625:6.36328125] [-3.15234375:2.798828125] [-2.501953125:2.60546875] [-4.61328125:3.228515625] [-3.818359375:2.546875] [-2.861328125:2.39453125] [-3.21875:2.59765625] [-4.56640625:2.53125] [-2.822265625:2.986328125] [-2.5546875:3.486328125] [-3.87109375:3.490234375] [-2.21875:3.193359375] [-3.65625:3.484375] [-3.798828125:4.09765625] [-3.0859375:4.12109375] [-3.30078125:5.53125] [-2.703125:3.216796875] [-2.484375:2.890625] [-3.224609375:2.671875] [-2.892578125:4.71484375] [-3.099609375:3.46875] [-2.6328125:2.82421875] [-2.60546875:4.44921875] [-2.38671875:3.095703125] [-2.232421875:2.84765625] [-2.974609375:2.0625] [-2.9296875:2.318359375] [-2.8671875:2.63671875] [-3.55859375:2.134765625] [-2.87890625:2.736328125] [-2.787109375:3.458984375] [-2.890625:6.98046875] [-2.841796875:2.533203125] [-2.625:3.4609375] [-3.34765625:3.265625] [-3.484375:3.046875] [-2.4296875:5.4609375] [-2.970703125:3.849609375] [-2.779296875:3.388671875] [-3.248046875:4.27734375] [-2.767578125:2.51171875] [-4.00390625:3.876953125] [-2.80078125:4.43359375] [-2.41015625:4.078125] [-3.9453125:3.236328125] [-3.20703125:2.546875] [-3.076171875:4.1640625] [-3.56640625:2.642578125] [-2.53515625:2.51953125] [-3.708984375:2.80078125] [-2.931640625:1.8916015625] [-2.865234375:3.693359375] [-3.197265625:2.6796875] [-3.10546875:6.1171875] [-4.33984375:4.7890625] [-2.439453125:2.763671875] [-2.83203125:3.02734375] [-2.853515625:4.23828125] [-5.38671875:2.92578125] [-3.17578125:3.216796875] [-4.13671875:3.17578125] [-3.677734375:4.23828125] [-2.966796875:2.52734375] [-4.0234375:3.7734375] [-3.3046875:3.345703125] [-3.0703125:3.419921875] [-3.04296875:2.453125] [-2.705078125:4.2734375] [-3.05859375:3.08984375] [-5:2.126953125] [-5.4765625:3.734375] [-2.63671875:3.330078125] [-3.140625:4.8046875] [-3.0078125:2.63671875] [-3.15234375:4.58203125] [-3.130859375:3.099609375] [-3.12890625:4.37890625] [-3.2421875:3.201171875] [-2.302734375:5.625] [-2.1328125:3.087890625] [-2.6328125:3.3359375] [-2.966796875:3.951171875] [-3.99609375:4.16796875] [-2.70703125:2.833984375] [-2.671875:3.529296875] [-3.361328125:3.24609375] [-2.990234375:3.48046875] [-3.240234375:4.8203125] [-2.845703125:2.3515625] [-2.572265625:3.37890625] [-4.52734375:3.3515625] [-3.26171875:3.029296875] [-2.330078125:3.560546875] [-3.40234375:2.939453125] [-3.810546875:2.5078125] [-3.14453125:2.380859375] [-2.76953125:4.38671875] [-4.32421875:2.59765625] [-2.853515625:3.462890625] [-3.748046875:3.6640625] [-3.189453125:5.171875] [-3.0546875:3.56640625] [-2.455078125:7.05859375] [-2.8203125:3.330078125] [-3.06640625:2.833984375] [-2.5859375:3.01171875] [-3.23046875:3.1875] [-2.55859375:2.923828125] [-3.611328125:2.4375] [-2.7734375:3.140625] [-3.08984375:3.62109375] [-3.279296875:2.24609375] [-3.869140625:3.025390625] [-4.046875:2.826171875] [-3.16015625:3.83203125] [-2.884765625:3.02734375] [-4.80859375:2.83984375] [-2.654296875:5.73828125] [-2.078125:2.83203125] [-3.19140625:4.1796875] [-3.619140625:2.876953125] [-3.08984375:3.6875] [-3.353515625:3.236328125] [-5.0625:2.875] [-3.4453125:2.33203125] [-2.75390625:4.34765625] [-2.884765625:2.7734375] [-3.658203125:4.16796875] [-3.673828125:3.0625] [-2.91796875:2.732421875] [-4.01171875:3.279296875] [-2.64453125:3.201171875] [-4.140625:2.873046875] [-2.470703125:3.21484375] [-2.384765625:4.890625] [-3.228515625:2.51171875] [-3.572265625:3.65625] [-8.1484375:2.642578125] [-3.509765625:3.37890625] [-2.3828125:2.65234375] [-2.7109375:3.54296875] [-3.328125:1.93359375] [-2.580078125:3.771484375] [-4.23828125:2.890625] [-3.955078125:2.689453125] [-2.623046875:3.3984375] [-4.265625:3.267578125] [-2.974609375:3.826171875] [-4.94140625:3.54296875] [-2.75:4.1328125] [-2.34765625:2.955078125] [-3.283203125:5.30078125] [-4.609375:3.62109375] [-2.71875:2.94921875] [-2.11328125:3.54296875] [-4.7890625:4.62109375] [-5.7578125:5.7265625] [-2.97265625:4.04296875] [-3.03125:3.572265625] [-3.162109375:3.41015625] [-3.25:3.96875] [-3.5234375:4.40625] [-3.33984375:2.134765625] [-2.94140625:3.529296875] [-2.986328125:3.091796875] [-2.703125:6.35546875] [-2.55078125:2.9296875] [-2.703125:3.369140625] [-2.6171875:2.7109375] [-3.154296875:2.65234375] [-3.0625:3.14453125] [-2.7578125:3.2890625] [-4.78515625:2.490234375] [-3.18359375:2.890625] [-4.28125:4.0234375] [-4.22265625:2.04296875] [-3.970703125:2.69140625] [-2.7109375:3.23046875] [-2.71875:3.4453125] [-3.32421875:3.158203125] [-2.716796875:3.166015625] [-3.21875:3.162109375] [-3.53515625:5.5859375] [-2.33203125:3.80859375] [-2.19921875:4.2890625] [-5.24609375:2.849609375] [-5.06640625:2.5] [-3.578125:4.7265625] [-2.728515625:2.38671875] [-5.8828125:3.275390625] [-3.802734375:3.984375] [-2.63671875:3.783203125] [-4.046875:2.427734375] [-3.8125:2.333984375] [-4.0703125:2.4609375] [-2.306640625:2.025390625] [-2.78125:3.12890625] [-3.53125:2.98046875] [-4.203125:3.447265625] [-2.666015625:3.919921875] [-3.369140625:2.8203125] [-3.392578125:2.681640625] [-3.109375:3.80078125] [-3.875:2.427734375] [-6.609375:2.484375] [-3.923828125:2.470703125] [-3.35546875:2.75] [-2.66796875:8.296875] [-2.921875:2.34375] [-2.65234375:3.134765625] [-2.89453125:3.548828125] [-2.931640625:3.044921875] [-4.6328125:2.638671875] [-2.5390625:3.6640625] [-2.890625:2.59375] [-6.4765625:3.162109375] [-3.1328125:2.5234375] [-2.958984375:4.51953125] [-2.220703125:3.427734375] [-3.744140625:2.39453125] [-2.595703125:2.439453125] [-6.5:2.107421875] [-2.560546875:2.58984375] [-2.458984375:2.337890625] [-3.38671875:3.1640625] [-2.755859375:3.18359375] [-3.46484375:2.744140625] [-2.052734375:2.814453125] [-3.462890625:3.015625] [-3.984375:3.28515625] [-7.16015625:2.291015625] [-3.5234375:3.98828125] [-2.546875:2.626953125] [-2.646484375:3.3671875] [-3.17578125:5.1640625] [-2.841796875:3.8671875] [-3.3515625:2.427734375] [-2.650390625:2.67578125] [-3.37890625:2.896484375] [-2.775390625:3.2421875] [-2.900390625:2.83984375] [-3.5078125:4.09375] [-3.26171875:4.56640625] [-2.935546875:2.3984375] [-3.54296875:3.2734375] [-3.447265625:3.005859375] [-4.8828125:3.490234375] [-2.84765625:2.048828125] [-3.396484375:4.04296875] [-2.619140625:2.6328125] [-3.015625:2.796875] [-2.978515625:4.3671875] [-4.640625:3.6640625] [-2.423828125:3.33203125] [-4.2265625:2.658203125] [-4.29296875:2.83203125] [-4.59765625:2.826171875] [-3.880859375:2.990234375] [-3.951171875:3.1953125] [-2.576171875:2.328125] [-4.86328125:3.0546875] [-3.49609375:3.3515625] [-2.91015625:2.76171875] [-6.00390625:5.46484375] [-2.853515625:5.45703125] [-2.833984375:2.9140625] [-2.95703125:4.19921875] [-2.76953125:3.04296875] [-2.73828125:2.669921875] [-2.72265625:5.12109375] [-3.3984375:3.923828125] [-4.22265625:2.396484375] [-3.138671875:2.947265625] [-2.986328125:2.884765625] [-3.8828125:2.65234375] [-2.7890625:2.658203125] [-3.560546875:2.59375] [-3.1484375:5.578125] [-3.146484375:2.6484375] [-3.861328125:3.154296875] [-3.357421875:2.1171875] [-3.142578125:3.302734375] [-3.439453125:3.40625] [-3.435546875:5.03515625] [-4.25390625:4.04296875] [-3.25:3.373046875] [-4.82421875:2.3828125] [-2.86328125:3.380859375] [-4.08203125:2.96875] [-3.234375:3.55859375] [-2.537109375:3.400390625] [-3.275390625:3.515625] [-5.484375:2.810546875] [-3.115234375:2.865234375] [-2.779296875:4.27734375] [-4.734375:3.146484375] [-2.2734375:4.203125] [-2.92578125:4.47265625] [-2.4921875:2.654296875] [-2.63671875:3.56640625] [-3.416015625:5.04296875] [-2.55078125:3.6875] [-4.703125:3.2734375] [-2.212890625:3.7421875] [-3.681640625:3.220703125] [-2.455078125:2.857421875] [-3.140625:2.845703125] [-2.80859375:3.64453125] [-3.408203125:3.3046875] [-3.693359375:3.435546875] [-4.2890625:3.796875] [-2.59375:3.8984375] [-2.548828125:4.7265625] [-3.01953125:4.25] [-3.46875:6.37109375] [-3.123046875:2.62109375] [-3.5859375:3.3671875] [-3.4453125:3.94921875] [-4.29296875:2.919921875] [-6.3828125:2.6953125] [-4.03515625:3.01171875] [-1.861328125:2.83203125] [-4.58203125:3.091796875] [-3.65234375:3.021484375] [-5.55859375:2.45703125] [-2.87890625:3.576171875] [-3.421875:2.8359375] [-3.087890625:3.115234375] [-3.525390625:3.052734375] [-4.01171875:3.03515625] [-3.36328125:2.931640625] [-2.857421875:2.49609375] [-2.994140625:3.474609375] [-5.33984375:2.00390625] [-3.244140625:3.533203125] [-2.26171875:3.1796875] [-2.501953125:4.75] [-4.96484375:2.4765625] [-2.861328125:5.35546875] [-3.529296875:3.951171875] [-3.26953125:2.509765625] [-2.76953125:3.796875] [-5.171875:2.908203125] [-3.17578125:3.689453125] [-3.0625:3.365234375] [-2.44921875:3.255859375] [-3.435546875:2.4765625] [-3.8828125:3.234375] [-3.97265625:2.8203125] [-3.5625:3.462890625] [-2.443359375:3.255859375] [-3.169921875:3.9609375] [-3.2890625:5.5] [-3.091796875:2.73828125] [-3.12109375:2.359375] [-3.513671875:2.6796875] [-3.796875:2.55078125] [-2.955078125:3.068359375] [-3.107421875:3.53125] [-3.041015625:3.939453125] [-3.24609375:3.158203125] [-2.677734375:3.451171875] [-4.72265625:1.9921875] [-2.55078125:2.71875] [-6.45703125:3.150390625] [-3.259765625:3.7734375] [-3.05859375:3.75390625] [-2.54296875:2.65234375] [-2.314453125:3.525390625] [-3.908203125:2.611328125] [-2.9765625:4.2578125] [-2.474609375:2.8671875] [-3.3125:3.443359375] [-2.521484375:3.4140625] [-3.0234375:4.05078125] [-3.75390625:2.162109375] [-2.90234375:3.25] [-2.611328125:4.0859375] [-4.38671875:2.630859375] [-2.83984375:2.8984375] [-2.404296875:4.609375] [-4.609375:3.583984375] [0:1] [0:1] [0:1] [0:1] [0:1] [0:1] [0:1] [0:1] [0:1] [0:1] [0:1] [0:1] [0:1] [0:1] [0:1] [0:1] [0:1] [0:1] [0:1] [0:1] [0:1] [0:1] [0:1] [0:1] [0:1] [0:1] [0:1] [0:1] [0:1] [0:1] [0:1] [0:1] [0:1] [0:1] [0:1] [0:1] [0:1] [0:1] [0:1] [0:1] [0:1] [0:1] [0:1] [0:1] [0:1] [0:1] [0:1] [0:1] [0:1] [0:1] [0:1] [0:1] [0:1] [0:1] [0:1] [0:1] [0:1] [0:1] [0:1] [0:1] [0:1] [0:1] [0:1] [0:1] [0:1] [0:1] [0:1] [0:1] [0:1] [0:1] [0:1] [0:1] [0:1] [0:1] [0:1] [0:1] [0:1] [0:1] [0:1] [0:1] [0:1] [0:1] [0:1] [0:1] [0:1] [0:1] [0:1] [0:1] [0:1] [0:1] [0:1] [0:1] [0:1] [0:1] [0:1] [0:1] [0:1] [0:1] [0:1] [0:1] [0:1] [0:1] [0:1] [0:1] [0:1] [0:1] [0:1] [0:1] [0:1] [0:1] [0:1] [0:1] [0:1] [0:1] [0:1] [0:1] [0:1] [0:1] [0:1] [0:1] [0:1] [0:1] [0:1] [0:1] [0:1] [0:1] [0:1] [0:1] [0:1] [0:1] [0:1] [0:1] [0:1] [0:1] [0:1] [0:1] [0:1] [0:1] [0:1] [0:1] [0:1] [0:1] [0:1] [0:1] [0:1] [0:1] [0:1] [0:1] [0:1] [0:1] [0:1] [0:1] [0:1] [0:1] [0:1] [0:1] [0:1] [0:1] [0:1] [0:1] [0:1] [0:1] [0:1] [0:1] [0:1] [0:1] [0:1] [0:1] [0:1] [0:1] [0:1] [0:1] [0:1] [0:1] [0:1] [0:1] [0:1] [0:1] [0:1] [0:1] [0:1] [0:1] [0:1] [0:1] [0:1] [0:1] [0:1] [0:1] [0:1] [0:1] [0:1] [0:1] [0:1] [0:1] [0:1] [0:1] [0:1] [0:1] [0:1] [0:1] [0:1] [0:1] [0:1] [0:1] [0:1] [0:1] [0:1] [0:1] [0:1] [0:1] [0:1] [0:1] [0:1] [0:1] [0:1] [0:1] [0:1] [0:1] [0:1] [0:1] [0:1] [0:1] [0:1] [0:1] [0:1] [0:1] [0:1] [0:1] [0:1] [0:1] [0:1] [0:1] [0:1] [0:1] [0:1] [0:1] [0:1] [0:1] [0:1] [0:1] [0:1] [0:1] [0:1] [0:1] [0:1] [0:1] [0:1] [0:1] [0:1] [0:1] [0:1] [0:1] [0:1] [0:1] [0:1] [0:1] [0:1] [0:1] [0:1] [0:1] [0:1] [0:1] [0:1] [0:1] [0:1] [0:1] [0:1] [0:1] [0:1] [0:1] [0:1] [0:1] [0:1] [0:1] [0:1] [0:1] [0:1] [0:1] [0:1] [0:1] [0:1] [0:1] [0:1] [0:1] [0:1] [0:1] [0:1] [0:1] [0:1] [0:1] [0:1] [0:1] [0:1] [0:1] [0:1] [0:1] [0:1] [0:1] [0:1] [0:1] [0:1] [0:1] [0:1] [0:1] [0:1] [0:1] [0:1] [0:1] [0:1] [0:1] [0:1] [0:1] [0:1] [0:1] [0:1] [0:1] [0:1] [0:1] [0:1] [0:1] [0:1] [0:1] [0:1] [0:1] [0:1] [0:1] [0:1] [0:1] [0:1] [0:1] [0:1] [0:1] [0:1] [0:1] [0:1] [0:1] [0:1] [0:1] [0:1] [0:1] [0:1] [0:1] [0:1] [0:1] [0:1] [0:1] [0:1] [0:1] [0:1] [0:1] [0:1] [0:1] [0:1] [0:1] [0:1] [0:1] [0:1] [0:1] [0:1] [0:1] [0:1] [0:1] [0:1] [0:1] [0:1] [0:1] [0:1] [0:1] [0:1] [0:1] [0:1] [0:1] [0:1] [0:1] [0:1] [0:1] [0:1] [0:1] [0:1] [0:1] [0:1] [0:1] [0:1] [0:1] [0:1] [0:1] [0:1] [0:1] [0:1] [0:1] [0:1] [0:1] [0:1] [0:1] [0:1] [0:1] [0:1] [0:1] [0:1] [0:1] [0:1] [0:1] [0:1] [0:1] [0:1] [0:1] [0:1] [0:1] [0:1] [0:1] [0:1] [0:1] [0:1] [0:1] [0:1] [0:1] [0:1] [0:1] [0:1] [0:1] [0:1] [0:1] [0:1] [0:1] [0:1] [0:1] [0:1] [0:1] [0:1] [0:1] [0:1] [0:1] [0:1] [0:1] [0:1] [0:1] [0:1] [0:1] [0:1] [0:1] [0:1] [0:1] [0:1] [0:1] [0:1] [0:1] [0:1] [0:1] [0:1] [0:1] [0:1] [0:1] [0:1] [0:1] [0:1] [0:1] [0:1] [0:1] [0:1] [0:1] [0:1] [0:1] [0:1] [0:1] [0:1] [0:1] [0:1] [0:1] [0:1] [0:1] [0:1] [0:1] [0:1] [0:1] [0:1] [0:1] [0:1] [0:1] [0:1] [0:1] [0:1] [0:1] [0:1] [0:1] [0:1] [0:1] [0:1] [0:1] [0:1] [0:1] [0:1] [0:1] [0:1] [0:1] [0:1] [0:1] [0:1] [0:1] [0:1] [0:1] [0:1] [0:1] [0:1] [0:1] [0:1] [0:1] [0:1] [0:1] [0:1] [0:1] [0:1] [0:1] [0:1] [0:1] [0:1] [0:1] [0:1] [0:1] [0:1] [0:1] [0:1] [0:1] [0:1] [0:1] [0:1] [0:1] [0:1] [0:1] [0:1] [0:1] [0:1] [0:1] [0:1] [0:1] [0:1] [0:1] [0:1] [0:1] [0:1] [0:1] [0:1] [0:1] [0:1] [0:1] [0:1] [0:1] [0:1] [0:1] [0:1] [0:1] [0:1] [0:1] [0:1] [0:1] [0:1] [0:1] [0:1] [0:1] [0:1] [0:1] [0:1] [0:1] [0:1] [0:1] [0:1] [0:1] [0:1] [0:1] [0:1] [0:1] [0:1] [0:1] [0:1] [0:1] [0:1] [0:1] [0:1] [0:1] [0:1] [0:1] [0:1] [0:1] [0:1] [0:1] [0:1] [0:1] [0:1] [0:1] [0:1] [0:1] [0:1] [0:1] [0:1] [0:1] [0:1] [0:1] [0:1] [0:1] [0:1] [0:1] [0:1] [0:1] [0:1] [0:1] [0:1] [0:1] [0:1] [0:1] [0:1] [0:1] [0:1] [0:1] [0:1] [0:1] [0:1] [0:1] [0:1] [0:1] [0:1] [0:1] [0:1] [0:1] [0:1] [0:1] [0:1] [0:1] [0:1] [0:1] [0:1] [0:1] [0:1] [0:1] [0:1] [0:1] [0:1] [0:1] [0:1] [0:1] [0:1] [0:1] [0:1] [0:1] [0:1] [0:1] [0:1] [0:1] [0:1] [0:1] [0:1] [0:1] [0:1] [0:1] [0:1] [0:1] [0:1] [0:1] [0:1] [0:1] [0:1] [0:1] [0:1] [0:1] [0:1] [0:1] [0:1] [0:1] [0:1] [0:1] [0:1] [0:1] [0:1] [0:1] [0:1] [0:1] [0:1] [0:1] [0:1] [0:1] [0:1] [0:1] [0:1] [0:1] [0:1] [0:1] [0:1] [0:1] [0:1] [0:1] [0:1] [0:1] [0:1] [0:1] [0:1] [0:1] [0:1] [0:1] [0:1] [0:1] [0:1] [0:1] [0:1] [0:1] [0:1] [0:1] [0:1] [0:1] [0:1] [0:1] [0:1] [0:1] [0:1] [0:1] [0:1] [0:1] [0:1] [0:1] [0:1] [0:1] [0:1] [0:1] [0:1] [0:1] [0:1] [0:1] [0:1] [0:1] [0:1] [0:1] [0:1] [0:1] [0:1] [0:1] [0:1] [0:1] [0:1] [0:1] [0:1] [0:1] [0:1] [0:1] [0:1] [0:1] [0:1] [0:1] [0:1] [0:1] [0:1] [0:1] [0:1] [0:1] [0:1] [0:1] [0:1] [0:1] [0:1] [0:1] [0:1] [0:1] [0:1] [0:1] [0:1] [0:1] [0:1] [0:1] [0:1] [0:1] [0:1] [0:1] [0:1] [0:1] [0:1] [0:1] [0:1] [0:1] [0:1] [0:1] [0:1] [0:1] [0:1] [0:1] [0:1] [0:1] [0:1] [0:1] [0:1] [0:1] [0:1] [0:1] [0:1] [0:1] [0:1] [0:1] [0:1] [0:1] [0:1] [0:1] [0:1] [0:1] [0:1] [0:1] [0:1] [0:1] [0:1] [0:1] [0:1] [0:1] [0:1] [0:1] [0:1] [0:1] [0:1] [0:1] [0:1] [0:1] [0:1] [0:1] [0:1] [0:1] [0:1] [0:1] [0:1] [0:1] [0:1] [0:1] [0:1] [0:1] [0:1] [0:1] [0:1] [0:1] [0:1] [0:1] [0:1] [0:1] [0:1] [0:1] [0:1] [0:1] [0:1] [0:1] [0:1] [0:1] [0:1] [0:1] [0:1] [0:1] [0:1] [0:1] [0:1] [0:1] [0:1] [0:1] [0:1] [0:1] [0:1] [0:1] [0:1] [0:1] [0:1] [0:1] [0:1] [0:1] [0:1] [0:1] [0:1] [0:1] [0:1] [0:1] [0:1] [0:1] [0:1] [0:1] [0:1] [0:1] [0:1] [0:1] [0:1] [0:1] [0:1] [0:1] [0:1] [0:1] [0:1] [0:1] [0:1] [0:1] [0:1] [0:1] [0:1] [0:1] [0:1] [0:1] [0:1] [0:1] [0:1] [0:1] [0:1] [0:1] [0:1] [0:1] [0:1] [0:1] [0:1] [0:1] [0:1] [0:1] [0:1] [0:1] [0:1] [0:1] [0:1] [0:1] [0:1] [0:1] [0:1] [0:1] [0:1] [0:1] [0:1] [0:1] [0:1] [0:1] [0:1] [0:1] [0:1] [0:1] [0:1] [0:1] [0:1] [0:1] [0:1] [0:1] [0:1] [0:1] [0:1] [0:1] [0:1] [0:1] [0:1] [0:1] [0:1] [0:1] [0:1] [0:1] [0:1] [0:1] [0:1] [0:1] [0:1] [0:1] [0:1] [0:1] [0:1] [0:1] [0:1] [0:1] [0:1] [0:1] [0:1] [0:1] [0:1] [0:1] [0:1] [0:1] [0:1] [0:1] [0:1] [0:1] [0:1] [0:1] [0:1] [0:1] [0:1] [0:1] [0:1] [0:1] [0:1] [0:1] [0:1] [0:1] [0:1] [0:1] [0:1] [0:1] [0:1] [0:1] [0:1] [0:1] [0:1] [0:1] [0:1] [0:1] [0:1] [0:1] [0:1] [0:1] [0:1] [0:1] [0:1] [0:1] [0:1] [0:1] [0:1] [0:1] [0:1] [0:1] [0:1] [0:1] [0:1] [0:1] [0:1] [0:1] [0:1] [0:1] [0:1] [0:1] [0:1] [0:1] [0:1] [0:1] [0:1] [0:1] [0:1] [0:1]
tree_sizes=2913 2934 2922 2925 2933 2916 2937 2925 2922 2947 2905 2961 2957 2913 2936 2931 2939 2953 2939 2935 2949 2943 2945 2935 2943 2949 2939 2930 2935 2949 2930 2951 2927 2938 2915 2921 2904 2938 2938 2930 2925 2951 2932 2937 2942 2928 2917 2907 2927 2932 2926 2926 2927 2924 2925 2921 2920 2934 2939 2938 2929 2919 2949 2953 2953 2949 2915 2930 2915 2921 2934 2942 2934 2939 2947 2921 2926 2923 2937 2934 2943 2943 2937 2910 2932 2919 2933 2909 2900 2941 2907 2932 2933 2935 2937 2935 2957 2940 2924 2941 2949 2949 2931 2927 2935 2934 2941 2937 2928 2918 2940 2946 2940 2930 2905 2939 2917 2931 2947 2941 2907 2926 2934 2932 2937 2927 2941 2936 2922 2919 2942 2940 2952 2926 2938 2910 2943 2930 2950 2947 2912 2940 2914 2932 2928 2931 2936 2912 2933 2945 2911 2932 2929 2947 2934 2935 2926 2926 2928 2909 2928 2938 2949 2943 2968 2929 2928 2921 2915 2961 2927 2947 2954 2949 2946 2935 2920 2949 2936 2932 2948 2968 2947 2975 2950 2938 2950 2936 2913 2943 2939 2963 2933 2959 2948 2947 2961 2942 2966 2942 2940 2984 2933 2920 2930 2954 2950 2936 2939 2945 2949 2949 2941 2939 2933 2941 2951 2914 2921 2963 2949 2943 2936 2955 2958 2918 2940 2946 2940 2963 2964 2941 2967 2934 2966 2942 2934 2951 2951 2953 2953 2938 2962 2938 2912 2965 2943 2960 2939 2938 2972 2930 2939 2937 2962 2946 2955 2937 2960 2967 2958 2948 2963 2924 2927 2936 2925 2942 2944 2952 2958 2977 2940 2909 2963 2932 2962 2965 2952 2955 2940 2946 2935 2945 2928 2960 2913 2941 2939 2947 2955 2933 2936 2939 2926 2977 2961 2947 2947 2897 2930 2940 2955 2953 2941 2960 2949 2939 2951 2921 2968 2928 2968 2911 2971 2931 2949 2907 2948 2958 2920 2959 2907 2948 2924 2939 2937 2949 2968 2941 2943 2911 2941 2934 2947 2960 2920 2948 2942 2926 2955 2968 2943 2918 2966 2932 2952 2946 2959 2938 2944 2898 2955 2930 2953 2945 2975 2956 2929 2932 2935 2953 2950 2956 2940 2949 2918 2946 2952 2963 2941 2924 2928 2923 2925 2939 2961 2923 2958 2932 2938 2959 2934 2970 2926 2953 2909

Tree=0
num_leaves=31
num_cat=0
split_feature=673 1751 406 1018 2040 216 1951 802 227 2030 1866 1201 1719 799 1832 1 760 847 1645 64 1354 1381 1776 1403 1861 341 2044 1059 3 1844
split_gain=1.46473e+14 6.85922e+13 6.27608e+13 5.01583e+13 1.19904e+15 1.13492e+13 5.17433e+12 2.97371e+12 2.4594e+12 1.12868e+13 3.54133e+13 7.70206e+12 2.73044e+13 2.72657e+12 5.0267e+12 1.3729e+13 1.97365e+12 1.10682e+12 2.0591e+12 1.08787e+12 9.35357e+11 8.03833e+11 7.76111e+11 6.94098e+11 6.78438e+11 5.43279e+11 9.3246e+11 1.41009e+12 2.05489e+12 5.37386e+11
threshold=2.1416015625000004 1.0000000180025095e-35 1.5083007812500002 2.1406250000000004 1.0000000180025095e-35 2.5019531250000004 1.0000000180025095e-35 1.9116210937500002 0.97363281250000011 1.0000000180025095e-35 1.0000000180025095e-35 1.0000000180025095e-35 1.0000000180025095e-35 0.17590332031250003 1.0000000180025095e-35 0.43713378906250006 2.2099609375000004 1.5668945312500002 1.0000000180025095e-35 -0.92041015624999989 1.0000000180025095e-35 1.0000000180025095e-35 1.0000000180025095e-35 1.0000000180025095e-35 1.0000000180025095e-35 -1.3823242187499998 1.0000000180025095e-35 1.0000000180025095e-35 -1.0883789062499998 1.0000000180025095e-35
decision_type=2 2 2 2 2 2 2 2 2 2 2 2 2 2 2 2 2 2 2 2 2 2 2 2 2 2 2 2 2 2
left_child=2 -2 3 5 -5 7 -3 8 16 11 -11 13 -13 -10 15 -15 17 19 24 -1 22 25 29 -17 -19 26 27 28 -21 -16
right_child=1 6 -4 4 -6 -7 -8 -9 9 10 -12 12 -14 14 20 23 -18 18 -20 21 -22 -23 -24 -25 -26 -27 -28 -29 -30 -31
leaf_value=12775.461958561424 135335.20423022058 55626.854942470804 79766.77959640295 11753.998294208783 397403.60768623726 39786.122594897621 21191.636227845753 27188.869925276762 11765.017003955498 86999.678046402769 12314.166260053535 76805.648040938671 11906.079107415651 60945.483681400903 12708.944284322317 21144.79923097889 25943.132890023793 12473.087787889059 24567.153510881835 30773.864110057799 21906.536245683768 11529.44263163842 22851.695120973192 12039.518914125048 18317.908990109121 11982.107893008722 11766.725436451483 11337.183002503954 15093.638465680682 19392.337935373158
leaf_weight=1843 33 24 34 501 21 36 20 31 6533 21 65 21 71 21 1010 36 24 1098 38 37 31 67818 20 50 52 274 108 50 48 31
leaf_count=1843 33 24 34 501 21 36 20 31 6533 21 65 21 71 21 1010 36 24 1098 38 37 31 67818 20 50 52 274 108 50 48 31
internal_value=11915.6 80843.4 11849.2 11820.3 27268.6 11718.7 39974.5 11705.9 11699.9 12536.4 30551.3 12338.4 26720.1 12167.3 14358.9 24701.3 11607.2 11602.4 13115.8 11576.7 13345.5 11544.4 13095.4 15851 12737.4 13508.5 15229.6 17999.9 21919.1 12908
internal_weight=0 77 79923 79889 522 79367 44 79331 79300 7910 86 7824 92 7732 1199 107 71390 71366 1188 70178 1092 68335 1061 86 1150 517 243 135 85 1041
internal_count=80000 77 79923 79889 522 79367 44 79331 79300 7910 86 7824 92 7732 1199 107 71390 71366 1188 70178 1092 68335 1061 86 1150 517 243 135 85 1041
is_linear=0
shrinkage=1


Tree=1
num_leaves=31
num_cat=0
split_feature=673 1751 406 1018 1735 216 1951 866 1153 243 2030 1458 1201 1900 360 55 337 1061 1893 1137 1874 443 1951 1059 1172 1247 858 1561 1792 384
split_gain=1.32192e+14 6.19045e+13 5.66416e+13 4.52679e+13 1.16204e+15 1.02427e+13 4.66983e+12 2.73771e+12 3.87521e+13 2.16399e+12 6.07514e+12 3.48015e+13 6.32029e+12 1.93775e+13 4.43582e+12 1.27011e+12 1.17527e+12 2.18748e+12 7.27227e+11 7.00405e+11 6.85023e+11 6.64563e+11 7.60152e+11 7.32168e+11 1.4488e+12 6.22354e+11 5.19666e+11 7.85395e+11 1.58085e+12 4.48787e+11
threshold=2.1416015625000004 1.0000000180025095e-35 1.5083007812500002 2.1406250000000004 1.0000000180025095e-35 2.5019531250000004 1.0000000180025095e-35 2.2080078125000004 1.0000000180025095e-35 0.56762695312500011 1.0000000180025095e-35 1.0000000180025095e-35 1.0000000180025095e-35 1.0000000180025095e-35 0.94531250000000011 1.1508789062500002 -2.1367187499999996 1.0000000180025095e-35 1.0000000180025095e-35 1.0000000180025095e-35 1.0000000180025095e-35 -1.6611328124999998 1.0000000180025095e-35 1.0000000180025095e-35 1.0000000180025095e-35 1.0000000180025095e-35 -1.3310546874999998 1.0000000180025095e-35 1.0000000180025095e-35 1.6040039062500002
decision_type=2 2 2 2 2 2 2 2 2 2 2 2 2 2 2 2 2 2 2 2 2 2 2 2 2 2 2 2 2 2
left_child=2 -2 3 5 -5 7 -3 9 -9 16 12 -12 14 -14 15 -11 17 -1 19 25 21 22 23 24 -18 -17 27 -22 -29 -28
right_child=1 6 -4 4 -6 -7 -8 8 -10 10 11 -13 13 -15 -16 18 20 -19 -20 -21 26 -23 -24 -25 -26 -27 29 28 -30 -31
leaf_value=765.26536511507902 117248.64145359849 41525.713203938802 64458.639208984379 -688.03667053138906 378966.12149948848 26477.017312282987 8812.2553479003909 62945.939687875602 -469.56855843939434 -60.638313996750107 173.16297171456475 67055.762230383829 49031.185427065247 -114.43630073742989 19070.982499054939 933.96957945473514 19422.686758422853 16599.399748282598 10696.400951086958 8517.208326721191 97.052099687254525 227.1531850963209 867.21186543782551 -522.18526611328127 4323.6568658057686 5448.5901872343175 -379.29065924073251 1529.574705655313 14144.032146342048 1400.8106545212565
leaf_weight=88 33 24 34 501 21 36 20 26 328 8570 126 23 27 78 31 749 24 29 23 36 2454 527 120 25 47 85 65357 173 29 356
leaf_count=88 33 24 34 501 21 36 20 26 328 8570 126 23 27 78 31 749 24 29 23 36 2454 527 120 25 47 85 65357 173 29 356
internal_value=0 65481.4 -63.0866 -90.5464 14585.4 -187.071 26656 -199.171 4188.07 -218.836 478.648 10497.3 323.133 12523 188.207 126.349 -317.047 4689.97 1920.84 1688.84 -325.523 1184.49 3520.22 6836.48 9427.55 1394.09 -341.934 343.735 3340.56 -369.647
internal_weight=0 77 79923 79889 522 79367 44 79331 354 78977 9748 149 9599 105 9494 9463 69229 117 893 870 69112 743 216 96 71 834 68369 2656 202 65713
internal_count=80000 77 79923 79889 522 79367 44 79331 354 78977 9748 149 9599 105 9494 9463 69229 117 893 870 69112 743 216 96 71 834 68369 2656 202 65713
is_linear=0
shrinkage=0.05


Tree=2
num_leaves=31
num_cat=0
split_feature=673 1751 406 1018 1735 531 128 1951 227 2030 1866 1201 1900 799 1832 1 760 847 2008 64 1354 1222 2 1776 1874 234 1403 1951 1144 1059
split_gain=1.19303e+14 5.58688e+13 5.11191e+13 4.08543e+13 1.04875e+15 7.8827e+12 2.16944e+13 4.21453e+12 2.02467e+12 9.48162e+12 3.09968e+13 6.52348e+12 2.45556e+13 2.23642e+12 4.44087e+12 1.20566e+13 1.93398e+12 9.19534e+11 1.84396e+12 9.27088e+11 8.47254e+11 7.4047e+11 1.42081e+12 6.86263e+11 6.37035e+11 6.50276e+11 6.12933e+11 6.01223e+11 6.24193e+11 7.30875e+11
threshold=2.1416015625000004 1.0000000180025095e-35 1.5083007812500002 2.1406250000000004 1.0000000180025095e-35 1.7587890625000002 -0.077087402343749986 1.0000000180025095e-35 0.97363281250000011 1.0000000180025095e-35 1.0000000180025095e-35 1.0000000180025095e-35 1.0000000180025095e-35 0.17590332031250003 1.0000000180025095e-35 0.43713378906250006 2.1025390625000004 1.5668945312500002 1.0000000180025095e-35 -0.94848632812499989 1.0000000180025095e-35 1.0000000180025095e-35 0.49450683593750006 1.0000000180025095e-35 1.0000000180025095e-35 -1.3320312499999998 1.0000000180025095e-35 1.0000000180025095e-35 1.0000000180025095e-35 1.0000000180025095e-35
decision_type=2 2 2 2 2 2 2 2 2 2 2 2 2 2 2 2 2 2 2 2 2 2 2 2 2 2 2 2 2 2
left_child=2 -2 3 5 -5 8 -7 -3 16 11 -11 13 -13 -10 15 -15 17 19 21 -1 23 -19 -23 -16 25 27 -17 28 29 -21
right_child=1 7 -4 4 -6 6 -8 -9 9 10 -12 12 -14 14 20 26 -18 18 -20 24 -22 22 -24 -25 -26 -27 -28 -29 -30 -31
leaf_value=827.66451156099981 111386.21195549244 39449.427083333336 61235.707433363976 -653.63483975043084 360017.81688988098 60463.880179443368 2015.956896338525 8371.6425733184824 -139.07655968048866 69888.220877511165 14.954581580528847 61116.374767485126 -429.72104818854535 45901.655757068453 839.69488583240695 8617.6535312228734 14217.402641230045 409.41392160285386 13334.295367838542 9852.195515522204 9404.960963489164 1686.0976163155692 16514.709172712053 10191.091538085937 -352.14022602741159 81.654061706205255 61.282647033691411 638.41318421975166 -713.52297932942713 -496.52084184126426
leaf_weight=1755 33 24 34 501 21 20 77 20 6505 21 65 21 71 21 1030 36 23 1067 30 76 31 70 21 20 67691 497 50 117 30 22
leaf_count=1755 33 24 34 501 21 20 77 20 6505 21 65 21 71 21 1030 36 23 1067 30 76 31 70 21 20 67691 497 50 117 30 22
internal_value=0 62207.3 -59.9322 -86.0191 13856.1 -177.717 14067.1 25323.2 -195.148 565.921 17077 383.524 13618.8 225.244 2220.11 11936.8 -279.048 -283.719 1095.71 -307.068 1258.34 778.653 5108.08 1017.82 -336.168 1120.91 3643.02 3229.11 5597.17 7529.01
internal_weight=0 77 79923 79889 522 79367 97 44 79270 7871 86 7785 92 7693 1188 107 71399 71376 1188 70188 1081 1158 91 1050 68433 742 86 245 128 98
internal_count=80000 77 79923 79889 522 79367 97 44 79270 7871 86 7785 92 7693 1188 107 71399 71376 1188 70188 1081 1158 91 1050 68433 742 86 245 128 98
is_linear=0
shrinkage=0.05


Tree=3
num_leaves=31
num_cat=0
split_feature=673 1598 406 1514 1018 2040 216 802 227 2030 1866 1201 1719 799 1286 399 41 1153 1 1738 337 1061 2000 1158 1600 91 1381 1827 755 1561
split_gain=1.07671e+14 5.18513e+13 4.6135e+13 4.10265e+13 3.6871e+13 1.01638e+15 8.76752e+12 2.52441e+12 1.7916e+12 8.56679e+12 2.79746e+13 5.89504e+12 2.28694e+13 1.93187e+12 2.30428e+12 1.81845e+12 2.09584e+12 1.34108e+12 1.00058e+13 1.24765e+12 8.8668e+11 2.27807e+12 7.56239e+11 7.73641e+11 7.08271e+11 6.79636e+11 6.98078e+11 5.70612e+11 5.12914e+11 5.02247e+11
threshold=2.1416015625000004 1.0000000180025095e-35 1.5083007812500002 1.0000000180025095e-35 2.1406250000000004 1.0000000180025095e-35 2.5019531250000004 1.9116210937500002 0.97363281250000011 1.0000000180025095e-35 1.0000000180025095e-35 1.0000000180025095e-35 1.0000000180025095e-35 0.17590332031250003 1.0000000180025095e-35 1.8120117187500002 0.21527099609375003 1.0000000180025095e-35 0.40722656250000006 1.0000000180025095e-35 -2.1367187499999996 1.0000000180025095e-35 1.0000000180025095e-35 1.0000000180025095e-35 1.0000000180025095e-35 0.46813964843750006 1.0000000180025095e-35 1.0000000180025095e-35 0.64379882812500011 1.0000000180025095e-35
decision_type=2 2 2 2 2 2 2 2 2 2 2 2 2 2 2 2 2 2 2 2 2 2 2 2 2 2 2 2 2 2
left_child=2 3 4 -2 6 19 7 8 15 11 -11 13 -13 -10 17 20 -17 18 -15 -6 21 -1 23 24 -20 26 27 -22 29 -27
right_child=1 -3 -4 -5 5 -7 -8 -9 9 10 -12 12 -14 14 -16 16 -18 -19 22 -21 25 -23 -24 -25 -26 28 -28 -29 -30 -31
leaf_value=504.84308090929721 503.26039620535715 123971.50547096947 58173.923529411761 90273.933927917489 -548.97927833364793 353941.95089285716 24500.569570244683 14085.388309601814 -132.43159367234205 66393.808407738092 14.206853402944711 58775.600167410717 -619.72638412260676 33213.712789351855 17724.57409986413 633.897109930856 21826.095449523928 140.04228005517263 642.98864117940275 -12008.357657714845 1228.0864164799384 16773.231456163194 9722.6026743570965 10943.463585844494 8577.559729817709 294.67419285918555 -363.46795751062564 9867.3196356010449 -265.80400339424369 2610.2520305946227
leaf_weight=106 35 22 34 20 476 21 36 31 6533 21 65 21 71 27 23 28 20 618 450 25 431 27 30 21 30 5815 58755 20 5944 244
leaf_count=106 35 22 34 20 476 21 36 31 6533 21 65 21 71 27 23 28 20 618 450 25 431 27 30 21 30 5815 58755 20 5944 244
internal_value=0 59097 -56.9356 33147.1 -81.7181 13163.3 -168.831 -180.026 -185.603 528.375 16223.2 355.861 12937.9 206.152 2051 -264.711 9463.98 1744.45 3521.38 -1120.8 -271.257 3807.45 2011.61 1549.87 1138.9 -278.875 -348.426 1611.2 64.1917 387.924
internal_weight=0 77 79923 55 79889 522 79367 79331 79300 7910 86 7824 92 7732 1199 71390 48 1176 558 501 71342 133 531 501 480 71209 59206 451 12003 6059
internal_count=80000 77 79923 55 79889 522 79367 79331 79300 7910 86 7824 92 7732 1199 71390 48 1176 558 501 71342 133 531 501 480 71209 59206 451 12003 6059
is_linear=0
shrinkage=0.05


Tree=4
num_leaves=31
num_cat=0
split_feature=673 1598 406 1514 1018 1735 216 866 1153 243 1201 1918 2030 1 360 1775 55 337 1658 552 1600 1137 581 1561 1792 1758 1381 2044 1105 1136
split_gain=9.71732e+13 4.67958e+13 4.16368e+13 3.70264e+13 3.3276e+13 9.17906e+14 7.91269e+12 2.20384e+12 3.25728e+13 1.62147e+12 4.55292e+12 1.8367e+13 4.70688e+12 1.88856e+13 3.22911e+12 1.4347e+12 9.52268e+11 9.03282e+11 2.12867e+12 5.69444e+11 5.08101e+11 5.97561e+11 4.65543e+11 6.07912e+11 1.44791e+12 6.21866e+11 4.91367e+11 7.44864e+11 1.45808e+12 4.71899e+11
threshold=2.1416015625000004 1.0000000180025095e-35 1.5083007812500002 1.0000000180025095e-35 2.1406250000000004 1.0000000180025095e-35 2.5019531250000004 2.2080078125000004 1.0000000180025095e-35 0.56762695312500011 1.0000000180025095e-35 1.0000000180025095e-35 1.0000000180025095e-35 0.90332031250000011 0.94531250000000011 1.0000000180025095e-35 1.1508789062500002 -2.1367187499999996 1.0000000180025095e-35 2.0322265625000004 1.0000000180025095e-35 1.0000000180025095e-35 1.0605468750000002 1.0000000180025095e-35 1.0000000180025095e-35 1.0000000180025095e-35 1.0000000180025095e-35 1.0000000180025095e-35 1.0000000180025095e-35 1.0000000180025095e-35
decision_type=2 2 2 2 2 2 2 2 2 2 2 2 2 2 2 2 2 2 2 2 2 2 2 2 2 2 2 2 2 2
left_child=2 3 4 -2 6 15 7 9 -9 17 12 -12 14 -14 16 -6 -11 18 -1 22 21 -18 -19 25 -25 26 27 28 -24 -28
right_child=1 -3 -4 -5 5 -7 -8 8 -10 10 11 -13 13 -15 -16 -17 20 19 -20 -21 -22 -23 23 24 -26 -27 29 -29 -30 -31
leaf_value=421.92887668185767 478.09739676339291 117772.92874644886 55265.22752757353 85760.236933593755 -495.93613357384669 336354.4641369048 23275.541073438857 57635.178816105778 -504.91126396830487 -50.985924311012482 47242.370203575723 -986.56598231618 -126.5751459536345 43845.979975054346 16274.623264238911 -13554.333787952772 1125.8761256021612 -328.75193672275947 16429.061587072301 1532.7565838889188 6967.4069803991988 7891.1598119399132 17107.601060267858 1158.2594310760499 13161.344841056036 6263.8723377990727 -156.08867619889546 -721.73630543718446 2394.8247933421417 5168.8094107491634
leaf_weight=90 35 22 34 20 479 21 36 26 328 8570 26 82 115 31 31 22 816 63731 27 430 43 34 21 188 29 40 4447 99 85 42
leaf_count=90 35 22 34 20 479 21 36 26 328 8570 26 82 115 31 31 22 816 63731 27 430 43 34 21 188 29 40 4447 99 85 42
internal_value=0 56142.1 -54.0888 31489.8 -77.6322 12505.2 -160.39 -171.025 3765.26 -188.669 415.085 10624.1 300.71 9210.06 163.701 -1069.36 110.923 -273.682 4115.88 -281.113 1664.74 1396.49 -292.469 174.574 2762.36 55.954 3.05315 2396.92 5309.62 -106.268
internal_weight=0 77 79923 55 79889 522 79367 79331 354 78977 9748 108 9640 146 9494 501 9463 69229 117 69112 893 850 68682 4951 217 4734 4694 205 106 4489
internal_count=80000 77 79923 55 79889 522 79367 79331 354 78977 9748 108 9640 146 9494 501 9463 69229 117 69112 893 850 68682 4951 217 4734 4694 205 106 4489
is_linear=0
shrinkage=0.05


Tree=5
num_leaves=31
num_cat=0
split_feature=38 94 406 1092 1018 2040 216 1738 866 1153 961 2030 1918 1201 1720 775 399 36 896 1354 1158 1089 1307 676 1645 29 15 2029 581 1561
split_gain=5.0189e+13 4.09395e+13 3.75788e+13 3.63296e+13 3.00372e+13 8.90758e+14 6.54131e+12 2.45753e+12 1.98998e+12 2.9397e+13 1.48689e+12 7.39148e+12 2.50371e+13 6.10552e+12 2.05307e+13 1.5303e+12 1.37785e+12 2.08644e+12 9.61063e+11 1.13097e+12 8.00356e+11 9.52753e+11 7.81527e+11 7.66927e+11 2.22782e+12 3.98876e+12 5.74589e+11 5.13437e+11 4.86436e+11 5.39102e+11
threshold=3.1103515625000004 2.0966796875000004 1.5083007812500002 1.0000000180025095e-35 2.1406250000000004 1.0000000180025095e-35 2.5019531250000004 1.0000000180025095e-35 2.2080078125000004 1.0000000180025095e-35 -1.0664062499999998 1.0000000180025095e-35 1.0000000180025095e-35 1.0000000180025095e-35 1.0000000180025095e-35 -2.0258789062499996 1.8120117187500002 -0.14428710937499997 0.34228515625000006 1.0000000180025095e-35 1.0000000180025095e-35 1.0000000180025095e-35 1.0000000180025095e-35 -1.0537109374999998 1.0000000180025095e-35 -0.69067382812499989 2.2080078125000004 1.0000000180025095e-35 1.0605468750000002 1.0000000180025095e-35
decision_type=2 2 2 2 2 2 2 2 2 2 2 2 2 2 2 2 2 2 2 2 2 2 2 2 2 2 2 2 2 2
left_child=1 2 4 -2 6 7 8 -6 10 -10 11 13 -13 18 -15 -12 23 -18 -1 20 22 -22 27 24 -17 -26 -14 -20 -25 -30
right_child=3 -3 -4 -5 5 -7 -8 -9 9 -11 15 12 26 14 -16 16 17 -19 19 -21 21 -23 -24 28 25 -27 -28 -29 29 -31
leaf_value=-65.200246993992423 17377.487038574222 71492.726095352176 52501.964079733465 98590.470163690479 -689.83061730929285 330904.21398809529 20586.403386005604 -16772.748928222656 54753.419230769228 -479.66568026193755 13244.516099330358 53865.12163456509 565.17145738601687 55220.70806440874 -1000.9822356177915 393.9214585534346 19546.152912486683 -1375.4720366844765 392.31463102023531 10272.199296739367 659.44908243815109 14900.415456224524 10265.525289639561 -329.73582974930468 28365.944149169922 -274.38791528517203 -9551.5797968750012 4676.1613725160305 62.425786366362836 2595.315382737112
leaf_weight=6347 40 20 34 21 476 21 38 25 26 328 21 28 32 22 62 2346 22 26 878 36 24 23 22 63555 20 31 25 76 5156 219
leaf_count=6347 40 20 34 21 476 21 38 25 26 328 21 28 32 22 62 2346 22 26 878 36 24 23 22 63555 20 31 25 76 5156 219
internal_value=0 -34.5951 -52.4951 45336.1 -74.8629 11879.9 -153.494 -1492.37 -163.429 3577 -180.196 485.875 15147.3 319.491 13723.7 -250.865 -254.836 8213.61 167.458 1561.87 1255.35 7628.43 948.445 -260.535 618.67 10957.1 -3872 733.585 -291.109 165.626
internal_weight=0 79939 79919 61 79885 522 79363 501 79325 354 78971 7575 85 7490 84 71396 71375 48 7406 1059 1023 47 976 71327 2397 51 57 954 68930 5375
internal_count=80000 79939 79919 61 79885 522 79363 501 79325 354 78971 7575 85 7490 84 71396 71375 48 7406 1059 1023 47 976 71327 2397 51 57 954 68930 5375
is_linear=0
shrinkage=0.05


Tree=6
num_leaves=31
num_cat=0
split_feature=673 1751 406 1279 520 216 1861 802 1018 1775 1981 760 775 961 2030 1458 1201 1720 896 1354 325 1832 1770 847 1306 1158 1307 64 2029 1105
split_gain=8.06398e+13 4.52711e+13 3.39141e+13 2.86213e+13 1.08257e+15 6.50246e+12 3.39433e+12 2.14896e+12 1.71372e+12 3.53797e+12 2.93987e+12 1.42481e+12 1.36477e+12 1.3181e+12 6.89497e+12 2.30212e+13 5.51045e+12 1.85289e+13 8.31407e+11 1.02569e+12 7.82985e+11 8.60238e+12 8.86222e+11 7.25989e+11 1.5902e+12 7.2073e+11 7.51607e+11 5.69315e+11 4.7993e+11 4.50918e+11
threshold=2.1416015625000004 1.0000000180025095e-35 1.5083007812500002 1.0000000180025095e-35 1.3740234375000002 2.5019531250000004 1.0000000180025095e-35 1.9116210937500002 2.1406250000000004 1.0000000180025095e-35 1.0000000180025095e-35 2.2099609375000004 -2.0258789062499996 -1.0664062499999998 1.0000000180025095e-35 1.0000000180025095e-35 1.0000000180025095e-35 1.0000000180025095e-35 0.34228515625000006 1.0000000180025095e-35 1.6567382812500002 1.0000000180025095e-35 1.0000000180025095e-35 1.6826171875000002 1.0000000180025095e-35 1.0000000180025095e-35 1.0000000180025095e-35 -0.92041015624999989 1.0000000180025095e-35 1.0000000180025095e-35
decision_type=2 2 2 2 2 2 2 2 2 2 2 2 2 2 2 2 2 2 2 2 2 2 2 2 2 2 2 2 2 2
left_child=2 -2 3 5 -5 7 -3 8 11 10 -10 12 -1 14 16 -16 18 -18 -14 25 23 -22 -23 27 -25 26 28 -15 -20 -27
right_child=1 6 -4 4 -6 -7 -8 -9 9 -11 -12 -13 13 20 15 -17 17 -19 19 -21 21 22 -24 24 -26 29 -28 -29 -30 -31
leaf_value=12582.290345982145 95412.993400804931 4671.5016612177305 49876.868820369942 -292.02809488583915 372573.13005546574 21082.443977864586 32475.014671688987 12989.566223538306 -1334.7149408155874 -21808.647528076173 -20912.501463623048 12022.084839630128 -58.220036212773834 586.97134714862466 -2492.9831288304827 54904.007460937501 52459.671413352276 -950.93314450171692 338.96155455635551 9758.5892876519101 28669.499844305858 -347.08790013930377 10165.532472156345 872.06756725483126 11798.372750515409 11830.811189453125 10235.465171595983 -283.6444437036609 4508.2714979654947 1758.2457885742188
leaf_weight=21 33 23 34 730 20 36 21 31 465 24 20 24 6301 1931 58 25 22 62 866 36 28 442 21 444 36 25 21 68105 75 20
leaf_count=21 33 23 34 730 20 36 21 31 465 24 20 24 6301 1931 58 25 22 62 866 36 28 442 21 444 36 25 21 68105 75 20
internal_value=0 51143.5 -49.273 -70.5211 9651.04 -162.652 17941.4 -172.321 -177.481 -3069.35 -2142.05 -158.745 -162.467 -165.876 464.009 14795.3 303.872 13037.6 158.225 1465.82 -232.504 1757.25 129.726 -246.359 1691.54 1169.36 880.048 -259.64 671.266 7354.12
internal_weight=0 77 79923 79889 750 79139 44 79103 79072 509 485 78563 78539 78518 7511 83 7428 84 7344 1043 71007 491 463 70516 480 1007 962 70036 941 45
internal_count=80000 77 79923 79889 750 79139 44 79103 79072 509 485 78563 78539 78518 7511 83 7428 84 7344 1043 71007 491 463 70516 480 1007 962 70036 941 45
is_linear=0
shrinkage=0.05


Tree=7
num_leaves=31
num_cat=0
split_feature=673 1751 406 1279 1704 216 1428 802 556 1775 399 116 227 2030 1453 1892 1210 1358 1336 848 1148 520 1832 1061 17 1832 1200 1634 337 1658
split_gain=7.27774e+13 4.08572e+13 3.06074e+13 2.58308e+13 1.04579e+15 5.86847e+12 3.06338e+12 1.93944e+12 1.544e+12 3.19452e+12 1.30625e+12 1.77517e+12 1.26747e+12 6.18854e+12 2.3899e+13 5.3942e+12 1.83827e+12 5.20165e+12 1.74555e+12 1.42899e+12 1.5344e+12 8.82128e+11 8.73944e+11 3.67727e+12 7.95717e+11 1.74238e+12 1.94152e+12 6.61484e+11 6.54963e+11 2.18098e+12
threshold=2.1416015625000004 1.0000000180025095e-35 1.5083007812500002 1.0000000180025095e-35 1.0000000180025095e-35 2.5019531250000004 1.0000000180025095e-35 1.9116210937500002 2.2734375000000004 1.0000000180025095e-35 1.8120117187500002 -0.0029020309448242183 0.97363281250000011 1.0000000180025095e-35 1.0000000180025095e-35 1.0000000180025095e-35 1.0000000180025095e-35 1.0000000180025095e-35 1.0000000180025095e-35 -1.7749023437499998 1.0000000180025095e-35 0.83178710937500011 1.0000000180025095e-35 1.0000000180025095e-35 1.5385742187500002 1.0000000180025095e-35 1.0000000180025095e-35 1.0000000180025095e-35 -2.1367187499999996 1.0000000180025095e-35
decision_type=2 2 2 2 2 2 2 2 2 2 2 2 2 2 2 2 2 2 2 2 2 2 2 2 2 2 2 2 2 2
left_child=2 -2 3 5 21 7 -3 8 10 22 12 -12 28 15 -15 16 18 -18 19 20 -14 -5 23 -10 -21 26 -26 -27 29 -1
right_child=1 6 -4 4 -6 -7 -8 -9 9 -11 11 -13 13 14 -16 -17 17 -19 -20 24 -22 -23 -24 -25 25 27 -28 -29 -30 -31
leaf_value=201.87809261745878 90642.342116477274 4437.9266155740488 47383.02467830883 -276.89963190606301 365871.77693939209 20028.321354166666 30851.264169456845 12340.087922127017 -672.40376651951533 -20718.21560872396 355.87143889396424 19462.272587890628 19314.218410644531 -6003.0468159623588 48893.734025918289 21459.578817545575 -95.402380186935957 28458.143218439276 12828.845401163455 -172.90109211269646 -36.93316824776786 -9834.1433949584971 -1083.2380402590611 -25377.998934326173 2263.6299772505331 521.35827222090506 17604.273829604641 9701.5319873046883 -229.63078912535417 16590.396753662109
leaf_weight=108 33 23 34 705 20 36 21 31 61 24 31 20 20 55 31 30 58 22 27 6450 21 25 405 20 55 1040 33 20 70516 25
leaf_count=108 33 23 34 705 20 36 21 31 61 24 31 20 20 55 31 30 58 22 27 6450 21 25 405 20 55 1040 33 20 70516 25
internal_value=0 48586.3 -46.8094 -66.9951 9168.49 -154.52 17044.3 -163.705 -168.607 -2910.83 -150.805 7848.58 -156.002 446.226 13785.3 298.7 216.745 7756.82 138.059 93.2034 9402.65 -604.203 -2031.46 -6772.55 42.9681 1255.82 8016.37 694.569 -223.019 3282.43
internal_weight=0 77 79923 79889 750 79139 44 79103 79072 510 78562 51 78511 7862 86 7776 7746 80 7666 7639 41 730 486 81 7598 1148 88 1060 70649 133
internal_count=80000 77 79923 79889 750 79139 44 79103 79072 510 78562 51 78511 7862 86 7776 7746 80 7666 7639 41 730 486 81 7598 1148 88 1060 70649 133
is_linear=0
shrinkage=0.05


Tree=8
num_leaves=31
num_cat=0
split_feature=673 1598 1324 406 1018 2040 216 1738 679 1339 760 227 2030 1866 1892 1210 1089 1336 848 1148 17 1832 1200 1960 1466 676 1645 87 1381 1827
split_gain=6.56816e+13 3.75829e+13 3.28721e+13 2.76232e+13 2.51439e+13 7.5647e+14 5.29009e+12 1.89801e+12 1.79654e+12 2.49641e+12 1.22529e+12 1.15441e+12 5.58903e+12 2.3982e+13 4.87009e+12 1.66057e+12 5.10413e+12 1.57613e+12 1.29044e+12 1.3848e+12 7.10969e+11 1.57746e+12 1.75222e+12 6.79638e+11 8.16487e+11 6.01862e+11 2.20624e+12 3.3323e+12 4.90646e+11 5.20217e+11
threshold=2.1416015625000004 1.0000000180025095e-35 1.0000000180025095e-35 1.5083007812500002 2.1406250000000004 1.0000000180025095e-35 2.5019531250000004 1.0000000180025095e-35 -1.6127929687499998 1.0000000180025095e-35 2.2099609375000004 0.97363281250000011 1.0000000180025095e-35 1.0000000180025095e-35 1.0000000180025095e-35 1.0000000180025095e-35 1.0000000180025095e-35 1.0000000180025095e-35 -1.7749023437499998 1.0000000180025095e-35 1.5385742187500002 1.0000000180025095e-35 1.0000000180025095e-35 1.0000000180025095e-35 1.0000000180025095e-35 -1.1567382812499998 1.0000000180025095e-35 0.74609375000000011 1.0000000180025095e-35 1.0000000180025095e-35
decision_type=2 2 2 2 2 2 2 2 2 2 2 2 2 2 2 2 2 2 2 2 2 2 2 2 2 2 2 2 2 2
left_child=3 2 -2 4 6 7 8 -6 9 -1 11 25 14 -14 15 17 -17 18 19 -13 -20 22 -22 24 -23 26 -10 -28 29 -27
right_child=1 -3 -4 -5 5 -7 -8 -9 10 -11 -12 12 13 -15 -16 16 -18 -19 20 -21 21 23 -24 -25 -26 28 27 -29 -30 -31
leaf_value=21454.08189007303 -11222.535009765626 101388.89359019887 66408.370960937507 45013.873460477946 -743.76326025514049 304869.02961309528 19026.905164930558 -14877.740039062501 378.21043761636253 -141.75410618782044 11145.289270019532 18348.50734375 59548.722284226191 -1911.7211243614784 20386.600747070315 27250.94544836957 -653.56523007844635 12187.403747332537 -165.06844321479051 -35.086521112351193 2150.448497425426 1300.6443066875995 16724.060669685132 -876.32974497594682 9889.0515119881475 928.3673955356943 26797.065280151368 -349.79201032198398 -254.54185965331672 8948.9732817150307
leaf_weight=23 30 22 25 34 476 21 36 25 2005 32 24 20 21 65 30 23 57 27 6492 21 55 605 33 433 29 542 20 26 68727 21
leaf_count=23 30 22 25 34 476 21 36 25 2005 32 24 20 21 65 30 23 57 27 6492 21 55 605 33 433 29 542 20 26 68727 21
internal_value=0 46157 24064.2 -44.4689 -63.6453 10874.1 -135.583 -1449.05 -144.279 8889.23 -150.546 -153.967 419.092 13096.1 279.767 202.383 7368.98 128.07 85.7179 8932.52 38.2851 1181.29 7615.55 650.629 1693.49 -217.514 626.601 11453.2 -242.5 1227.54
internal_weight=0 77 55 79923 79889 522 79367 501 79331 55 79276 79252 7911 86 7825 7795 80 7715 7688 41 7647 1155 88 1067 634 71341 2051 46 69290 563
internal_count=80000 77 55 79923 79889 522 79367 501 79331 55 79276 79252 7911 86 7825 7795 80 7715 7688 41 7647 1155 88 1067 634 71341 2051 46 69290 563
is_linear=0
shrinkage=0.05


Tree=9
num_leaves=31
num_cat=0
split_feature=673 1951 406 1279 1018 1720 216 865 1775 1738 45 135 1832 760 245 1751 1728 1262 1234 1209 347 1056 1588 828 1556 2000 1600 1339 14 820
split_gain=5.92777e+13 3.48888e+13 2.49299e+13 2.27093e+13 9.56006e+14 5.46356e+12 4.78152e+12 1.85294e+12 4.17228e+12 2.07611e+12 1.82074e+12 7.47132e+12 1.69294e+12 1.36987e+12 1.01353e+12 1.89561e+12 2.24572e+13 6.48794e+12 9.92149e+11 1.37244e+13 2.24914e+12 9.39263e+11 7.83587e+11 7.20382e+11 1.29159e+12 8.35268e+11 6.70317e+11 7.50587e+11 1.77168e+12 6.06632e+11
threshold=2.1416015625000004 1.0000000180025095e-35 1.5083007812500002 1.0000000180025095e-35 1.4345703125000002 1.0000000180025095e-35 2.5019531250000004 1.8725585937500002 1.0000000180025095e-35 1.0000000180025095e-35 -1.5205078124999998 0.69750976562500011 1.0000000180025095e-35 2.1025390625000004 -0.47082519531249994 1.0000000180025095e-35 1.0000000180025095e-35 1.0000000180025095e-35 1.0000000180025095e-35 1.0000000180025095e-35 1.2993164062500002 1.0000000180025095e-35 1.0000000180025095e-35 1.1176757812500002 1.0000000180025095e-35 1.0000000180025095e-35 1.0000000180025095e-35 1.0000000180025095e-35 2.0634765625000004 1.9125976562500002
decision_type=2 2 2 2 2 2 2 2 2 2 2 2 2 2 2 2 2 2 2 2 2 2 2 2 2 2 2 2 2 2
left_child=2 5 3 6 29 -2 7 10 9 21 11 -1 -13 14 15 16 17 22 23 20 -20 -9 -12 -17 25 26 27 -25 -29 -5
right_child=1 -3 -4 4 -6 -7 -8 8 -10 -11 13 12 -14 -15 -16 18 -18 -19 19 -21 -22 -23 -24 24 -26 -27 -28 28 -30 -31
leaf_value=33680.529408569339 57739.871542968758 8854.876760451858 42763.179331341911 -473.32592366834064 349647.47023559571 94697.828798828123 18075.560243055555 -801.80159822877181 -22236.105910011574 -15556.736378761574 529.75778517983508 13922.314650303386 -693.15047112311515 12058.053995414404 -244.9516088021976 -153.85050637742719 45368.050850072403 27389.123179029382 -303.22928921971101 40820.790958751335 16830.226651611327 -10949.613467407227 9446.1996816406245 -72.249828984964765 12355.050219238283 8717.8137292110569 8590.4361014732949 702.63321707426621 12580.474917825839 -8398.8777904052749
leaf_weight=20 20 37 34 705 20 20 36 457 27 27 1712 23 143 23 60191 14655 29 23 453 22 20 24 25 970 25 33 26 134 41 25
leaf_count=20 20 37 34 705 20 20 36 457 27 27 1712 23 143 23 60191 14655 29 23 453 22 20 24 25 970 25 33 26 134 41 25
internal_value=0 43849.1 -42.2455 -60.4631 8599.04 76218.9 -142.529 -150.82 -3083.4 -2065.44 -130.851 4810.23 1331.88 -142.576 -146.157 181.15 1726.51 1007.41 12.3576 2216.77 421.23 -1308.14 658.089 -56.3393 1106.42 872.848 651.769 471.502 3485.44 -744.749
internal_weight=0 77 79923 79889 750 40 79139 79103 535 508 78568 186 166 78382 78359 18168 1789 1760 16379 495 473 481 1737 15884 1229 1204 1171 1145 175 730
internal_count=80000 77 79923 79889 750 40 79139 79103 535 508 78568 186 166 78382 78359 18168 1789 1760 16379 495 473 481 1737 15884 1229 1204 1171 1145 175 730
is_linear=0
shrinkage=0.05


Tree=10
num_leaves=31
num_cat=0
split_feature=673 1751 1018 1735 971 5 531 540 1775 1428 764 855 2030 1918 1892 8 1210 1358 1 14 1153 676 1645 1306 813 1832 1 1403 1844 1874
split_gain=5.34981e+13 3.53806e+13 2.13494e+13 7.13065e+14 1.57577e+13 1.6731e+13 4.37661e+12 1.85688e+13 3.40243e+12 3.24125e+12 1.09615e+12 1.01725e+12 4.10469e+12 2.62324e+13 3.20435e+12 3.96307e+12 1.26367e+12 4.763e+12 1.06183e+12 7.89895e+11 1.06348e+13 5.64751e+11 1.99646e+12 3.22374e+12 4.82085e+11 4.73943e+11 1.02198e+12 5.69398e+11 4.8172e+11 3.65501e+11
threshold=2.1416015625000004 1.0000000180025095e-35 2.1406250000000004 1.0000000180025095e-35 -2.0068359374999996 -0.19818115234374997 1.7587890625000002 -0.42199707031249994 1.0000000180025095e-35 1.0000000180025095e-35 1.8798828125000002 1.4589843750000002 1.0000000180025095e-35 1.0000000180025095e-35 1.0000000180025095e-35 0.41186523437500006 1.0000000180025095e-35 1.0000000180025095e-35 0.90332031250000011 2.0634765625000004 1.0000000180025095e-35 -1.1567382812499998 1.0000000180025095e-35 1.0000000180025095e-35 -1.3017578124999998 1.0000000180025095e-35 -0.12680053710937497 1.0000000180025095e-35 1.0000000180025095e-35 1.0000000180025095e-35
decision_type=2 2 2 2 2 2 2 2 2 2 2 2 2 2 2 2 2 2 2 2 2 2 2 2 2 2 2 2 2 2
left_child=2 -2 4 8 5 -1 10 -8 -4 -3 11 19 14 -14 16 -16 24 -18 -15 21 -21 22 -6 -24 25 26 -13 -28 -27 -26
right_child=1 9 3 -5 6 -7 7 -9 -10 -11 -12 12 13 18 15 -17 17 -19 -20 20 -22 -23 23 -25 29 28 27 -29 -30 -31
leaf_value=46103.696571751643 80792.712689393957 -662.50748131793489 -1042.7377659396489 295474.41413690476 355.13432007406715 811.82547870982785 -664.0982770647322 53409.840449218755 -21152.368963068184 26506.828273809529 8704.5330383300789 13895.108608176493 53874.299097618699 144.26634866037679 30110.316395263671 -642.4445090553977 -575.69368233058765 25697.682188349187 -12062.261093749999 32304.924198857061 -208.8159609178756 -250.87371646417421 -718.67106651893027 25982.308854980471 1696.6670720198622 523.80662096546735 6680.3177598741313 -1499.9252000075121 6598.5011174819056 -77.171766443002809
leaf_weight=38 33 23 479 21 2005 44 77 20 22 21 35 22 26 62 20 22 69 23 25 27 367 66989 26 20 301 813 36 52 34 8248
leaf_count=38 33 23 479 21 2005 44 77 20 22 21 35 22 26 62 20 22 69 23 25 27 367 66989 26 20 301 813 36 52 34 8248
internal_value=0 41656.7 -40.1332 10038.6 -106.393 21800.7 -129.041 10485.2 -1925.8 12304.7 -142.037 -145.947 332.215 9806.37 221.159 14001.7 160.856 5992.65 -3363.36 -213.111 2019.28 -225.851 591.421 10890.5 104.416 1168.64 4256.25 1846.54 767.655 -14.717
internal_weight=0 77 79923 522 79401 82 79319 97 501 44 79222 79187 9753 113 9640 42 9598 92 87 69434 394 69040 2051 46 9506 957 110 88 847 8549
internal_count=80000 77 79923 522 79401 82 79319 97 501 44 79222 79187 9753 113 9640 42 9598 92 87 69434 394 69040 2051 46 9506 957 110 88 847 8549
is_linear=0
shrinkage=0.05


Tree=11
num_leaves=31
num_cat=0
split_feature=673 1751 1145 1735 406 216 1018 1775 1738 1861 802 317 1201 1951 2030 8 804 174 1286 1339 1403 1613 611 1561 1792 1036 340 525 1381 2044
split_gain=4.8282e+13 3.1931e+13 2.03233e+13 8.18342e+14 2.12705e+13 4.07402e+12 2.95205e+12 3.98745e+12 3.13612e+12 2.92523e+12 1.64868e+12 1.03657e+12 4.06275e+12 1.4875e+13 3.26325e+12 1.46111e+13 1.48783e+12 1.23568e+12 5.83013e+12 1.64844e+12 3.4837e+12 9.03791e+11 7.12561e+11 6.75405e+11 1.02913e+12 6.64603e+11 4.60534e+11 4.39877e+11 4.55227e+11 7.49565e+11
threshold=2.1416015625000004 1.0000000180025095e-35 1.0000000180025095e-35 1.0000000180025095e-35 1.5083007812500002 2.5019531250000004 2.1406250000000004 1.0000000180025095e-35 1.0000000180025095e-35 1.0000000180025095e-35 1.9116210937500002 0.75830078125000011 1.0000000180025095e-35 1.0000000180025095e-35 1.0000000180025095e-35 -0.58154296874999989 1.4995117187500002 -0.91186523437499989 1.0000000180025095e-35 1.0000000180025095e-35 1.0000000180025095e-35 1.0000000180025095e-35 2.1953125000000004 1.0000000180025095e-35 1.0000000180025095e-35 1.0000000180025095e-35 -1.0097656249999998 -0.36169433593749994 1.0000000180025095e-35 1.0000000180025095e-35
decision_type=2 2 2 2 2 2 2 2 2 2 2 2 2 2 2 2 2 2 2 2 2 2 2 2 2 2 2 2 2 2
left_child=2 -2 4 -4 5 6 10 8 21 -3 11 22 14 -14 16 -16 17 18 19 25 -21 -8 26 -19 -25 -13 27 28 29 -1
right_child=1 9 3 -5 -6 -7 7 -9 -10 -11 -12 12 13 -15 15 -17 -18 23 -20 20 -22 -23 -24 24 -26 -27 -28 -29 -30 -31
leaf_value=5141.2907287021853 76753.075852272726 -629.38215862771744 -292.60772934199468 301842.56585958734 40010.74831912879 16676.398708767363 -1429.5660731303692 -23888.517903645836 -19865.900135216347 25181.487462797621 11405.062292086695 461.89019507271905 39851.731020456951 -1886.9076140945022 38120.108390561996 -487.08723780966216 12309.040853515626 -95.978272849965123 24506.224400111609 20399.24932972301 647.33335473986642 -11039.32793696477 6469.164308319092 1304.4894124795123 11206.00241915795 -8609.1756068638406 -252.14001864066751 748.4060028123497 -187.77559943839964 -893.40287255859369
leaf_weight=106 33 23 876 23 33 36 415 24 26 21 31 525 30 74 31 117 25 10083 28 33 69 26 40 171 31 21 59818 2257 4874 100
leaf_count=106 33 23 876 23 33 36 415 24 26 21 31 525 30 74 31 117 25 10083 28 33 69 26 40 171 31 21 59818 2257 4874 100
internal_value=0 39573.9 -38.1265 7437.21 -123.168 -139.935 -147.602 -4012.49 -2991.02 11689.4 -123.417 -127.974 316.498 10153.1 224.617 7599.56 125.264 97.4747 2168.22 1203 7037.66 -1996.13 -202.309 -38.6286 2824.03 113.003 -206.283 167.585 -90.4688 2211.83
internal_weight=0 77 79923 899 79024 78991 78955 491 467 44 78464 78433 11238 104 11134 148 10986 10961 676 648 102 441 67195 10285 202 546 67155 7337 5080 206
internal_count=80000 77 79923 899 79024 78991 78955 491 467 44 78464 78433 11238 104 11134 148 10986 10961 676 648 102 441 67195 10285 202 546 67155 7337 5080 206
is_linear=0
shrinkage=0.05


Tree=12
num_leaves=31
num_cat=0
split_feature=673 1951 1018 1735 406 1720 531 128 1109 1860 760 764 716 1773 1127 1201 1675 754 1832 1105 1377 1136 1784 1514 1778 1381 2044 1105 1036 1275
split_gain=4.35745e+13 3.22149e+13 1.93244e+13 6.2565e+14 1.83079e+13 5.7426e+12 3.7354e+12 1.66993e+13 1.21075e+12 1.193e+12 1.05316e+12 9.79669e+11 8.61212e+11 1.52509e+12 4.94353e+12 1.13949e+12 1.71751e+13 1.01304e+12 8.22831e+12 7.93069e+12 2.10706e+12 6.73922e+11 2.71572e+12 5.60524e+11 7.74677e+12 5.9447e+11 7.13533e+11 1.22187e+12 5.20727e+11 4.52584e+11
threshold=2.1416015625000004 1.0000000180025095e-35 2.1406250000000004 1.0000000180025095e-35 1.5083007812500002 1.0000000180025095e-35 1.7587890625000002 -0.077087402343749986 1.0000000180025095e-35 1.0000000180025095e-35 2.1025390625000004 1.8798828125000002 0.48889160156250006 1.0000000180025095e-35 1.0000000180025095e-35 1.0000000180025095e-35 1.0000000180025095e-35 -1.1723632812499998 1.0000000180025095e-35 1.0000000180025095e-35 1.0000000180025095e-35 1.0000000180025095e-35 1.0000000180025095e-35 1.0000000180025095e-35 1.0000000180025095e-35 1.0000000180025095e-35 1.0000000180025095e-35 1.0000000180025095e-35 1.0000000180025095e-35 1.0000000180025095e-35
decision_type=2 2 2 2 2 2 2 2 2 2 2 2 2 2 2 2 2 2 2 2 2 2 2 2 2 2 2 2 2 2
left_child=2 5 4 8 6 -2 10 -8 9 29 11 12 -1 15 -15 17 -17 18 19 -14 28 23 -23 25 -25 26 27 -19 -20 -4
right_child=1 -3 3 -5 -6 -7 7 -9 -10 -11 -12 -13 13 14 -16 16 -18 21 20 -21 -22 22 -24 24 -26 -27 -28 -29 -30 -31
leaf_value=-250.80756784815523 49754.734960937501 3968.6160842483109 61.51862671433144 276920.72261904762 36583.073736213235 87644.708964843754 50397.420292968753 -882.1914205179587 -12160.477912099544 -9342.7861568987373 10570.731738281251 8233.2603379603806 41432.705134765623 305.96705176993595 27834.390345982145 38408.321096112653 -760.21367775599174 13176.589839024697 -103.07969551533114 -809.52894287109382 14132.497902855508 849.96266499304011 20427.154111328127 337.72983632357779 22818.011695274941 -131.50262118510969 -236.76873794396721 2266.0916539134596 -7672.1696573893241 -7145.432951873282
leaf_weight=52670 20 37 412 21 34 20 20 77 26 40 23 35 25 73 21 31 288 31 427 20 26 155 20 2207 39 22814 192 149 24 23
leaf_count=52670 20 37 412 21 34 20 20 77 26 40 23 35 25 73 21 31 288 31 427 20 26 155 20 2207 39 22814 192 149 24 23
internal_value=0 37595.2 -36.2202 9552.59 -99.2592 68699.7 -114.974 9690.92 -1654.46 -1079.39 -126.973 -130.077 -133.773 98.4711 6455.93 75.8758 3046.13 39.6129 2220.16 22658.4 292.029 -4.8377 3087.36 -26.1154 728.082 -99.1736 1883.5 4145.12 -505.869 -319.539
internal_weight=0 77 79923 522 79401 40 79367 97 501 475 79270 79247 79212 26542 94 26448 319 26129 522 45 477 25607 175 25432 2246 23186 372 180 451 435
internal_count=80000 77 79923 522 79401 40 79367 97 501 475 79270 79247 79212 26542 94 26448 319 26129 522 45 477 25607 175 25432 2246 23186 372 180 451 435
is_linear=0
shrinkage=0.05


Tree=13
num_leaves=31
num_cat=0
split_feature=673 1598 1978 1279 1011 406 216 1018 1981 1775 866 1153 399 36 855 2030 1453 1347 1892 5 1 1210 1358 463 187 1900 881 1381 1951 1059
split_gain=3.9326e+13 3.17344e+13 2.91789e+13 1.88145e+13 8.29188e+14 1.65369e+13 3.46466e+12 2.30193e+12 4.87273e+12 4.50245e+12 1.52616e+12 2.36652e+13 1.00347e+12 1.36832e+12 8.2757e+11 3.2751e+12 1.60319e+13 2.19845e+13 2.86157e+12 3.55862e+12 1.14759e+12 1.1299e+12 4.24058e+12 7.76097e+11 5.82314e+11 1.19967e+12 4.29339e+11 5.00154e+11 6.84622e+11 7.20986e+11
threshold=2.1416015625000004 1.0000000180025095e-35 1.0000000180025095e-35 1.0000000180025095e-35 1.1782226562500002 1.5083007812500002 2.5019531250000004 2.1406250000000004 1.0000000180025095e-35 1.0000000180025095e-35 2.2080078125000004 1.0000000180025095e-35 1.8120117187500002 -0.14428710937499997 1.4589843750000002 1.0000000180025095e-35 1.0000000180025095e-35 1.0000000180025095e-35 1.0000000180025095e-35 -0.48352050781249994 0.43713378906250006 1.0000000180025095e-35 1.0000000180025095e-35 2.8466796875000004 0.67382812500000011 1.0000000180025095e-35 1.8984375000000002 1.0000000180025095e-35 1.0000000180025095e-35 1.0000000180025095e-35
decision_type=2 2 2 2 2 2 2 2 2 2 2 2 2 2 2 2 2 2 2 2 2 2 2 2 2 2 2 2 2 2
left_child=3 2 -2 5 24 6 7 10 9 -9 12 -12 14 -14 23 18 20 -18 21 -20 -17 26 -23 -1 -5 -26 27 28 29 -16
right_child=1 -3 -4 4 -6 -7 -8 8 -10 -11 11 -13 13 -15 15 16 17 -19 19 -21 -22 22 -24 -25 25 -27 -28 -29 -30 -31
leaf_value=-193.88476799854405 -17831.190644531249 86468.173011363644 55308.888625 -345.14720391902392 325470.94731765753 34753.920967371327 15383.751437717014 -1403.3870271604806 -27672.780415039062 -23611.751643880212 49081.635336538464 -491.90889046067463 16290.07168412642 -246.23033131566541 7095.2838969023333 210.84406622023809 71275.989567871089 -2859.8779418945314 -650.64619418057532 28490.677641601564 -12472.058773311493 -536.90401227646987 24253.745991847827 7049.5482474662167 -14801.590403747559 -1211.1683509957406 1103.8798069763184 -88.144266956152237 -337.8365782521937 -1251.0022623697917
leaf_weight=68449 30 22 25 646 20 34 36 465 20 24 26 325 22 29 92 42 20 20 22 20 31 69 23 37 22 62 945 8249 137 36
leaf_count=68449 30 22 25 646 20 34 36 465 20 24 26 325 22 29 92 42 20 20 22 20 31 69 23 37 22 62 945 8249 137 36
internal_value=0 35715.4 15414.3 -34.4092 7847.64 -109.075 -124.053 -131.111 -3482.74 -2493.37 -109.405 3180.21 -124.162 6887.08 -128.735 303.353 8765.87 34208.1 203.669 13226.2 -5175.05 146.404 5660.76 -189.971 -854.373 -4770.56 92.7699 -19.4569 2118.67 4747.89
internal_weight=0 77 55 79923 750 79173 79139 79103 509 489 78594 351 78243 51 78192 9706 113 40 9593 42 73 9551 92 68486 730 84 9459 8514 265 128
internal_count=80000 77 55 79923 750 79173 79139 79103 509 489 78594 351 78243 51 78192 9706 113 40 9593 42 73 9551 92 68486 730 84 9459 8514 265 128
is_linear=0
shrinkage=0.05


Tree=14
num_leaves=31
num_cat=0
split_feature=673 1951 1279 1704 406 1720 437 531 128 1018 1981 1717 1306 775 399 85 363 2030 1458 1201 1723 387 749 1832 1633 94 1770 19 1307 1938
split_gain=3.54917e+13 2.92084e+13 1.69801e+13 7.95601e+14 1.49246e+13 5.333e+12 3.41132e+12 3.17054e+12 1.49008e+13 2.07179e+12 4.39764e+12 2.35395e+12 1.1245e+12 9.14651e+11 9.03769e+11 1.28784e+12 7.52636e+11 1.76257e+12 1.88862e+13 1.42885e+12 3.06402e+13 5.73253e+11 5.30898e+11 1.66154e+13 7.45976e+11 5.1028e+11 4.72515e+11 4.60459e+11 6.40569e+11 4.45141e+11
threshold=2.1416015625000004 1.0000000180025095e-35 1.0000000180025095e-35 1.0000000180025095e-35 1.5083007812500002 1.0000000180025095e-35 -1.1547851562499998 1.7587890625000002 -0.077087402343749986 2.1406250000000004 1.0000000180025095e-35 1.0000000180025095e-35 1.0000000180025095e-35 -2.0258789062499996 1.8120117187500002 -0.39367675781249994 -0.66992187499999989 1.0000000180025095e-35 1.0000000180025095e-35 1.0000000180025095e-35 1.0000000180025095e-35 1.1396484375000002 -1.5507812499999998 1.0000000180025095e-35 1.0000000180025095e-35 1.0410156250000002 1.0000000180025095e-35 1.7128906250000002 1.0000000180025095e-35 1.0000000180025095e-35
decision_type=2 2 2 2 2 2 2 2 2 2 2 2 2 2 2 2 2 2 2 2 2 2 2 2 2 2 2 2 2 2
left_child=2 5 4 6 7 -2 -4 9 -9 13 11 12 -11 -1 16 -16 17 19 21 22 -21 -19 23 -15 26 -8 -25 -18 29 -29
right_child=1 -3 3 -5 -6 -7 25 8 -10 10 -12 -13 -14 14 15 -17 27 18 -20 20 -22 -23 -24 24 -26 -27 -28 28 -30 -31
leaf_value=10325.168433779763 45290.3235546875 1910.6698070629225 -21433.681147460939 318579.29476562503 33016.22412109375 81804.032441406263 -233.69205223301003 47368.257695312503 -1071.2932810597606 -1023.0598272164303 -26289.141015625002 -17007.916829974838 -13143.641184234621 40581.591763070915 160.82599191973287 16434.662560958863 -209.13971669450359 -173.93380175345285 41523.903027343753 -1336.6210704387818 63230.951227617268 -9109.5928698730477 15.962061826731654 -493.81182310961981 -9490.9312144886371 -7370.2505220853363 6111.9793254983842 501.60425366729987 9719.837819824219 6787.6533398858437
leaf_weight=21 20 37 20 20 34 20 684 20 77 443 20 26 20 26 31 20 62095 175 30 226 20 20 14386 407 22 26 29 976 20 29
leaf_count=21 20 37 20 20 34 20 684 20 77 443 20 26 20 26 31 20 62095 175 30 226 20 20 14386 407 22 26 29 976 20 29
internal_value=0 33929.6 -32.6887 7455.25 -103.621 63547.2 -1068.69 -117.851 8916.24 -128.937 -3308.6 -2368.7 -1546.63 -108.329 -111.119 6542.72 -115.444 198.673 4591.5 133.287 3912.78 -1090.41 70.7611 1699.56 -507.717 -495.031 -54.4358 -191.789 859.321 682.993
internal_weight=0 77 79923 750 79173 40 730 79139 97 79042 509 489 463 78533 78512 51 78461 15341 225 15116 246 195 14870 484 458 710 436 63120 1025 1005
internal_count=80000 77 79923 750 79173 40 730 79139 97 79042 509 489 463 78533 78512 51 78461 15341 225 15116 246 195 14870 484 458 710 436 63120 1025 1005
is_linear=0
shrinkage=0.05


Tree=15
num_leaves=31
num_cat=0
split_feature=673 1751 1145 1735 971 1153 1428 1018 1738 1775 216 1613 679 1058 1105 956 252 1201 2044 2030 1458 1336 536 1148 1807 3 716 1279 68 1588
split_gain=3.20313e+13 2.80625e+13 1.68361e+13 6.78059e+14 1.11867e+13 1.40804e+13 3.37652e+12 3.08257e+12 3.48485e+12 3.64746e+12 2.94344e+12 1.48602e+12 1.44203e+12 2.18771e+12 1.33925e+12 1.02501e+12 7.81506e+11 8.58841e+12 1.79337e+13 4.59373e+12 2.40152e+13 1.51093e+12 8.28314e+11 1.14175e+12 4.663e+11 4.96381e+11 4.59141e+11 6.7984e+11 1.01858e+12 6.42951e+11
threshold=2.1416015625000004 1.0000000180025095e-35 1.0000000180025095e-35 1.0000000180025095e-35 -2.0068359374999996 1.0000000180025095e-35 1.0000000180025095e-35 2.1406250000000004 1.0000000180025095e-35 1.0000000180025095e-35 2.5019531250000004 1.0000000180025095e-35 -1.6127929687499998 1.0000000180025095e-35 1.0000000180025095e-35 2.8408203125000004 1.2832031250000002 1.0000000180025095e-35 1.0000000180025095e-35 1.0000000180025095e-35 1.0000000180025095e-35 1.0000000180025095e-35 1.5668945312500002 1.0000000180025095e-35 1.0000000180025095e-35 -0.54174804687499989 0.77441406250000011 1.0000000180025095e-35 0.76904296875000011 1.0000000180025095e-35
decision_type=2 2 2 2 2 2 2 2 2 2 2 2 2 2 2 2 2 2 2 2 2 2 2 2 2 2 2 2 2 2
left_child=2 -2 4 -4 5 14 -3 10 9 11 12 -9 13 -6 -1 16 26 19 -19 21 -21 22 24 -24 -18 -26 -14 29 -29 -28
right_child=1 6 3 -5 7 -7 -8 8 -10 -11 -12 -13 15 -15 -16 -17 17 18 -20 20 -22 -23 23 -25 25 -27 27 28 -30 -31
leaf_value=-5594.1817457932702 67087.499621212119 -7142.6034216839344 -263.37344107998018 274758.73505434784 19746.504586244668 45674.747032877611 20587.866992187501 -1321.0821695074978 -21890.659465144232 -22063.093554687501 14191.201405164931 -13643.348433743991 -209.98669802317067 -470.05686016082768 10969.15092056938 -10446.290900675456 -33.052693762433869 53490.189165729033 -6591.7256047001592 -2227.2663744642928 58355.536731538319 11895.975988317419 15678.760722656252 -1013.7618396577382 -53.162273225330175 10953.230044250489 164.17510285633836 -833.74591652078834 -14306.056425781251 5079.7098318071512
leaf_weight=26 33 23 876 23 23 30 21 415 26 24 36 26 62022 32 23 24 6572 23 27 74 21 27 20 21 21 20 9357 47 20 67
leaf_count=26 33 23 876 23 23 30 21 415 26 24 36 26 62022 32 23 24 6572 23 27 74 21 27 20 21 21 20 9357 47 20 67
internal_value=0 32233.2 -31.0543 6772.79 -108.457 18697.3 6092.39 -127.276 -4076.68 -3080.62 -102.559 -2047.56 -109.12 7984.14 2180.44 -114.801 -111.636 399.524 21046 247.174 11164.7 91.9329 44.0355 7128.93 0.109767 5315.81 -160.426 163.441 -4855.33 199.122
internal_weight=0 77 79923 899 79024 79 44 78945 491 465 78454 441 78418 55 49 78363 78339 6826 50 6776 95 6681 6654 41 6613 41 71513 9491 67 9424
internal_count=80000 77 79923 899 79024 79 44 78945 491 465 78454 441 78418 55 49 78363 78339 6826 50 6776 95 6681 6654 41 6613 41 71513 9491 67 9424
is_linear=0
shrinkage=0.05


Tree=16
num_leaves=31
num_cat=0
split_feature=673 1951 1018 2040 406 1720 1275 216 866 1153 760 775 369 2030 1458 1075 14 1751 1262 924 2000 1699 572 1515 175 676 1645 479 1307 1247
split_gain=2.89082e+13 2.66842e+13 1.65113e+13 5.56562e+14 1.24226e+13 5.18672e+12 3.34966e+12 2.65772e+12 1.3687e+12 2.10471e+13 8.36216e+11 7.67096e+11 6.44712e+11 2.32308e+12 2.25291e+13 1.84317e+12 6.33115e+12 7.00992e+11 5.90874e+12 4.99696e+11 4.53089e+11 4.37726e+11 4.3391e+11 4.2058e+11 4.18263e+11 4.14587e+11 1.29831e+12 3.26553e+12 3.85195e+11 3.89732e+11
threshold=2.1416015625000004 1.0000000180025095e-35 2.1406250000000004 1.0000000180025095e-35 1.5083007812500002 1.0000000180025095e-35 1.0000000180025095e-35 2.5019531250000004 2.2080078125000004 1.0000000180025095e-35 2.2099609375000004 -2.0258789062499996 0.63085937500000011 1.0000000180025095e-35 1.0000000180025095e-35 1.0000000180025095e-35 -0.90893554687499989 1.0000000180025095e-35 1.0000000180025095e-35 0.54516601562500011 1.0000000180025095e-35 1.0000000180025095e-35 2.0947265625000004 1.0000000180025095e-35 -1.1079101562499998 -1.0537109374999998 1.0000000180025095e-35 -0.33557128906249994 1.0000000180025095e-35 1.0000000180025095e-35
decision_type=2 2 2 2 2 2 2 2 2 2 2 2 2 2 2 2 2 2 2 2 2 2 2 2 2 2 2 2 2 2
left_child=2 5 4 6 7 -2 21 8 10 -10 11 -1 22 15 -15 17 -17 18 23 -19 28 -4 25 24 -14 26 -13 -28 29 -21
right_child=1 -3 3 -5 -6 -7 -8 -9 9 -11 -12 12 13 14 -16 16 -18 19 -20 20 -22 -23 -24 -25 -26 -27 27 -29 -30 -31
leaf_value=9431.3060128348206 40925.655312499999 17.296856524493244 -190.67200828339827 261008.26845238099 30128.742638442098 76935.104841308595 -16888.240033318016 13481.641796875001 46297.835156250003 -437.33692580432427 9210.8499287923169 274.68290646884054 7727.0868151474006 -2522.0610790252686 51807.43085088316 31296.185472470239 -342.69540071487427 -142.89789752306632 25852.50265757243 315.4965644569258 5945.2505360243058 -5929.7161200629344 -7372.5759626116069 6787.4266501290467 420.51785470061162 -208.63977894872261 -889.79683936866559 24186.793173828126 7345.073893044213 3872.1061537978226
leaf_weight=21 20 37 431 21 34 20 34 36 26 328 24 2423 20 112 23 21 64 9729 24 821 45 36 21 28 948 64489 37 20 22 85
leaf_count=21 20 37 431 21 34 20 34 36 26 328 24 2423 20 112 23 21 64 9729 24 821 45 36 21 28 948 64489 37 20 22 85
