tree
version=v4
num_class=1
num_tree_per_iteration=1
label_index=0
max_feature_idx=2048
objective=regression
feature_names=kiba_score_estimated prot_0 prot_1 prot_2 prot_3 prot_4 prot_5 prot_6 prot_7 prot_8 prot_9 prot_10 prot_11 prot_12 prot_13 prot_14 prot_15 prot_16 prot_17 prot_18 prot_19 prot_20 prot_21 prot_22 prot_23 prot_24 prot_25 prot_26 prot_27 prot_28 prot_29 prot_30 prot_31 prot_32 prot_33 prot_34 prot_35 prot_36 prot_37 prot_38 prot_39 prot_40 prot_41 prot_42 prot_43 prot_44 prot_45 prot_46 prot_47 prot_48 prot_49 prot_50 prot_51 prot_52 prot_53 prot_54 prot_55 prot_56 prot_57 prot_58 prot_59 prot_60 prot_61 prot_62 prot_63 prot_64 prot_65 prot_66 prot_67 prot_68 prot_69 prot_70 prot_71 prot_72 prot_73 prot_74 prot_75 prot_76 prot_77 prot_78 prot_79 prot_80 prot_81 prot_82 prot_83 prot_84 prot_85 prot_86 prot_87 prot_88 prot_89 prot_90 prot_91 prot_92 prot_93 prot_94 prot_95 prot_96 prot_97 prot_98 prot_99 prot_100 prot_101 prot_102 prot_103 prot_104 prot_105 prot_106 prot_107 prot_108 prot_109 prot_110 prot_111 prot_112 prot_113 prot_114 prot_115 prot_116 prot_117 prot_118 prot_119 prot_120 prot_121 prot_122 prot_123 prot_124 prot_125 prot_126 prot_127 prot_128 prot_129 prot_130 prot_131 prot_132 prot_133 prot_134 prot_135 prot_136 prot_137 prot_138 prot_139 prot_140 prot_141 prot_142 prot_143 prot_144 prot_145 prot_146 prot_147 prot_148 prot_149 prot_150 prot_151 prot_152 prot_153 prot_154 prot_155 prot_156 prot_157 prot_158 prot_159 prot_160 prot_161 prot_162 prot_163 prot_164 prot_165 prot_166 prot_167 prot_168 prot_169 prot_170 prot_171 prot_172 prot_173 prot_174 prot_175 prot_176 prot_177 prot_178 prot_179 prot_180 prot_181 prot_182 prot_183 prot_184 prot_185 prot_186 prot_187 prot_188 prot_189 prot_190 prot_191 prot_192 prot_193 prot_194 prot_195 prot_196 prot_197 prot_198 prot_199 prot_200 prot_201 prot_202 prot_203 prot_204 prot_205 prot_206 prot_207 prot_208 prot_209 prot_210 prot_211 prot_212 prot_213 prot_214 prot_215 prot_216 prot_217 prot_218 prot_219 prot_220 prot_221 prot_222 prot_223 prot_224 prot_225 prot_226 prot_227 prot_228 prot_229 prot_230 prot_231 prot_232 prot_233 prot_234 prot_235 prot_236 prot_237 prot_238 prot_239 prot_240 prot_241 prot_242 prot_243 prot_244 prot_245 prot_246 prot_247 prot_248 prot_249 prot_250 prot_251 prot_252 prot_253 prot_254 prot_255 prot_256 prot_257 prot_258 prot_259 prot_260 prot_261 prot_262 prot_263 prot_264 prot_265 prot_266 prot_267 prot_268 prot_269 prot_270 prot_271 prot_272 prot_273 prot_274 prot_275 prot_276 prot_277 prot_278 prot_279 prot_280 prot_281 prot_282 prot_283 prot_284 prot_285 prot_286 prot_287 prot_288 prot_289 prot_290 prot_291 prot_292 prot_293 prot_294 prot_295 prot_296 prot_297 prot_298 prot_299 prot_300 prot_301 prot_302 prot_303 prot_304 prot_305 prot_306 prot_307 prot_308 prot_309 prot_310 prot_311 prot_312 prot_313 prot_314 prot_315 prot_316 prot_317 prot_318 prot_319 prot_320 prot_321 prot_322 prot_323 prot_324 prot_325 prot_326 prot_327 prot_328 prot_329 prot_330 prot_331 prot_332 prot_333 prot_334 prot_335 prot_336 prot_337 prot_338 prot_339 prot_340 prot_341 prot_342 prot_343 prot_344 prot_345 prot_346 prot_347 prot_348 prot_349 prot_350 prot_351 prot_352 prot_353 prot_354 prot_355 prot_356 prot_357 prot_358 prot_359 prot_360 prot_361 prot_362 prot_363 prot_364 prot_365 prot_366 prot_367 prot_368 prot_369 prot_370 prot_371 prot_372 prot_373 prot_374 prot_375 prot_376 prot_377 prot_378 prot_379 prot_380 prot_381 prot_382 prot_383 prot_384 prot_385 prot_386 prot_387 prot_388 prot_389 prot_390 prot_391 prot_392 prot_393 prot_394 prot_395 prot_396 prot_397 prot_398 prot_399 prot_400 prot_401 prot_402 prot_403 prot_404 prot_405 prot_406 prot_407 prot_408 prot_409 prot_410 prot_411 prot_412 prot_413 prot_414 prot_415 prot_416 prot_417 prot_418 prot_419 prot_420 prot_421 prot_422 prot_423 prot_424 prot_425 prot_426 prot_427 prot_428 prot_429 prot_430 prot_431 prot_432 prot_433 prot_434 prot_435 prot_436 prot_437 prot_438 prot_439 prot_440 prot_441 prot_442 prot_443 prot_444 prot_445 prot_446 prot_447 prot_448 prot_449 prot_450 prot_451 prot_452 prot_453 prot_454 prot_455 prot_456 prot_457 prot_458 prot_459 prot_460 prot_461 prot_462 prot_463 prot_464 prot_465 prot_466 prot_467 prot_468 prot_469 prot_470 prot_471 prot_472 prot_473 prot_474 prot_475 prot_476 prot_477 prot_478 prot_479 prot_480 prot_481 prot_482 prot_483 prot_484 prot_485 prot_486 prot_487 prot_488 prot_489 prot_490 prot_491 prot_492 prot_493 prot_494 prot_495 prot_496 prot_497 prot_498 prot_499 prot_500 prot_501 prot_502 prot_503 prot_504 prot_505 prot_506 prot_507 prot_508 prot_509 prot_510 prot_511 prot_512 prot_513 prot_514 prot_515 prot_516 prot_517 prot_518 prot_519 prot_520 prot_521 prot_522 prot_523 prot_524 prot_525 prot_526 prot_527 prot_528 prot_529 prot_530 prot_531 prot_532 prot_533 prot_534 prot_535 prot_536 prot_537 prot_538 prot_539 prot_540 prot_541 prot_542 prot_543 prot_544 prot_545 prot_546 prot_547 prot_548 prot_549 prot_550 prot_551 prot_552 prot_553 prot_554 prot_555 prot_556 prot_557 prot_558 prot_559 prot_560 prot_561 prot_562 prot_563 prot_564 prot_565 prot_566 prot_567 prot_568 prot_569 prot_570 prot_571 prot_572 prot_573 prot_574 prot_575 prot_576 prot_577 prot_578 prot_579 prot_580 prot_581 prot_582 prot_583 prot_584 prot_585 prot_586 prot_587 prot_588 prot_589 prot_590 prot_591 prot_592 prot_593 prot_594 prot_595 prot_596 prot_597 prot_598 prot_599 prot_600 prot_601 prot_602 prot_603 prot_604 prot_605 prot_606 prot_607 prot_608 prot_609 prot_610 prot_611 prot_612 prot_613 prot_614 prot_615 prot_616 prot_617 prot_618 prot_619 prot_620 prot_621 prot_622 prot_623 prot_624 prot_625 prot_626 prot_627 prot_628 prot_629 prot_630 prot_631 prot_632 prot_633 prot_634 prot_635 prot_636 prot_637 prot_638 prot_639 prot_640 prot_641 prot_642 prot_643 prot_644 prot_645 prot_646 prot_647 prot_648 prot_649 prot_650 prot_651 prot_652 prot_653 prot_654 prot_655 prot_656 prot_657 prot_658 prot_659 prot_660 prot_661 prot_662 prot_663 prot_664 prot_665 prot_666 prot_667 prot_668 prot_669 prot_670 prot_671 prot_672 prot_673 prot_674 prot_675 prot_676 prot_677 prot_678 prot_679 prot_680 prot_681 prot_682 prot_683 prot_684 prot_685 prot_686 prot_687 prot_688 prot_689 prot_690 prot_691 prot_692 prot_693 prot_694 prot_695 prot_696 prot_697 prot_698 prot_699 prot_700 prot_701 prot_702 prot_703 prot_704 prot_705 prot_706 prot_707 prot_708 prot_709 prot_710 prot_711 prot_712 prot_713 prot_714 prot_715 prot_716 prot_717 prot_718 prot_719 prot_720 prot_721 prot_722 prot_723 prot_724 prot_725 prot_726 prot_727 prot_728 prot_729 prot_730 prot_731 prot_732 prot_733 prot_734 prot_735 prot_736 prot_737 prot_738 prot_739 prot_740 prot_741 prot_742 prot_743 prot_744 prot_745 prot_746 prot_747 prot_748 prot_749 prot_750 prot_751 prot_752 prot_753 prot_754 prot_755 prot_756 prot_757 prot_758 prot_759 prot_760 prot_761 prot_762 prot_763 prot_764 prot_765 prot_766 prot_767 prot_768 prot_769 prot_770 prot_771 prot_772 prot_773 prot_774 prot_775 prot_776 prot_777 prot_778 prot_779 prot_780 prot_781 prot_782 prot_783 prot_784 prot_785 prot_786 prot_787 prot_788 prot_789 prot_790 prot_791 prot_792 prot_793 prot_794 prot_795 prot_796 prot_797 prot_798 prot_799 prot_800 prot_801 prot_802 prot_803 prot_804 prot_805 prot_806 prot_807 prot_808 prot_809 prot_810 prot_811 prot_812 prot_813 prot_814 prot_815 prot_816 prot_817 prot_818 prot_819 prot_820 prot_821 prot_822 prot_823 prot_824 prot_825 prot_826 prot_827 prot_828 prot_829 prot_830 prot_831 prot_832 prot_833 prot_834 prot_835 prot_836 prot_837 prot_838 prot_839 prot_840 prot_841 prot_842 prot_843 prot_844 prot_845 prot_846 prot_847 prot_848 prot_849 prot_850 prot_851 prot_852 prot_853 prot_854 prot_855 prot_856 prot_857 prot_858 prot_859 prot_860 prot_861 prot_862 prot_863 prot_864 prot_865 prot_866 prot_867 prot_868 prot_869 prot_870 prot_871 prot_872 prot_873 prot_874 prot_875 prot_876 prot_877 prot_878 prot_879 prot_880 prot_881 prot_882 prot_883 prot_884 prot_885 prot_886 prot_887 prot_888 prot_889 prot_890 prot_891 prot_892 prot_893 prot_894 prot_895 prot_896 prot_897 prot_898 prot_899 prot_900 prot_901 prot_902 prot_903 prot_904 prot_905 prot_906 prot_907 prot_908 prot_909 prot_910 prot_911 prot_912 prot_913 prot_914 prot_915 prot_916 prot_917 prot_918 prot_919 prot_920 prot_921 prot_922 prot_923 prot_924 prot_925 prot_926 prot_927 prot_928 prot_929 prot_930 prot_931 prot_932 prot_933 prot_934 prot_935 prot_936 prot_937 prot_938 prot_939 prot_940 prot_941 prot_942 prot_943 prot_944 prot_945 prot_946 prot_947 prot_948 prot_949 prot_950 prot_951 prot_952 prot_953 prot_954 prot_955 prot_956 prot_957 prot_958 prot_959 prot_960 prot_961 prot_962 prot_963 prot_964 prot_965 prot_966 prot_967 prot_968 prot_969 prot_970 prot_971 prot_972 prot_973 prot_974 prot_975 prot_976 prot_977 prot_978 prot_979 prot_980 prot_981 prot_982 prot_983 prot_984 prot_985 prot_986 prot_987 prot_988 prot_989 prot_990 prot_991 prot_992 prot_993 prot_994 prot_995 prot_996 prot_997 prot_998 prot_999 prot_1000 prot_1001 prot_1002 prot_1003 prot_1004 prot_1005 prot_1006 prot_1007 prot_1008 prot_1009 prot_1010 prot_1011 prot_1012 prot_1013 prot_1014 prot_1015 prot_1016 prot_1017 prot_1018 prot_1019 prot_1020 prot_1021 prot_1022 prot_1023 mol_0 mol_1 mol_2 mol_3 mol_4 mol_5 mol_6 mol_7 mol_8 mol_9 mol_10 mol_11 mol_12 mol_13 mol_14 mol_15 mol_16 mol_17 mol_18 mol_19 mol_20 mol_21 mol_22 mol_23 mol_24 mol_25 mol_26 mol_27 mol_28 mol_29 mol_30 mol_31 mol_32 mol_33 mol_34 mol_35 mol_36 mol_37 mol_38 mol_39 mol_40 mol_41 mol_42 mol_43 mol_44 mol_45 mol_46 mol_47 mol_48 mol_49 mol_50 mol_51 mol_52 mol_53 mol_54 mol_55 mol_56 mol_57 mol_58 mol_59 mol_60 mol_61 mol_62 mol_63 mol_64 mol_65 mol_66 mol_67 mol_68 mol_69 mol_70 mol_71 mol_72 mol_73 mol_74 mol_75 mol_76 mol_77 mol_78 mol_79 mol_80 mol_81 mol_82 mol_83 mol_84 mol_85 mol_86 mol_87 mol_88 mol_89 mol_90 mol_91 mol_92 mol_93 mol_94 mol_95 mol_96 mol_97 mol_98 mol_99 mol_100 mol_101 mol_102 mol_103 mol_104 mol_105 mol_106 mol_107 mol_108 mol_109 mol_110 mol_111 mol_112 mol_113 mol_114 mol_115 mol_116 mol_117 mol_118 mol_119 mol_120 mol_121 mol_122 mol_123 mol_124 mol_125 mol_126 mol_127 mol_128 mol_129 mol_130 mol_131 mol_132 mol_133 mol_134 mol_135 mol_136 mol_137 mol_138 mol_139 mol_140 mol_141 mol_142 mol_143 mol_144 mol_145 mol_146 mol_147 mol_148 mol_149 mol_150 mol_151 mol_152 mol_153 mol_154 mol_155 mol_156 mol_157 mol_158 mol_159 mol_160 mol_161 mol_162 mol_163 mol_164 mol_165 mol_166 mol_167 mol_168 mol_169 mol_170 mol_171 mol_172 mol_173 mol_174 mol_175 mol_176 mol_177 mol_178 mol_179 mol_180 mol_181 mol_182 mol_183 mol_184 mol_185 mol_186 mol_187 mol_188 mol_189 mol_190 mol_191 mol_192 mol_193 mol_194 mol_195 mol_196 mol_197 mol_198 mol_199 mol_200 mol_201 mol_202 mol_203 mol_204 mol_205 mol_206 mol_207 mol_208 mol_209 mol_210 mol_211 mol_212 mol_213 mol_214 mol_215 mol_216 mol_217 mol_218 mol_219 mol_220 mol_221 mol_222 mol_223 mol_224 mol_225 mol_226 mol_227 mol_228 mol_229 mol_230 mol_231 mol_232 mol_233 mol_234 mol_235 mol_236 mol_237 mol_238 mol_239 mol_240 mol_241 mol_242 mol_243 mol_244 mol_245 mol_246 mol_247 mol_248 mol_249 mol_250 mol_251 mol_252 mol_253 mol_254 mol_255 mol_256 mol_257 mol_258 mol_259 mol_260 mol_261 mol_262 mol_263 mol_264 mol_265 mol_266 mol_267 mol_268 mol_269 mol_270 mol_271 mol_272 mol_273 mol_274 mol_275 mol_276 mol_277 mol_278 mol_279 mol_280 mol_281 mol_282 mol_283 mol_284 mol_285 mol_286 mol_287 mol_288 mol_289 mol_290 mol_291 mol_292 mol_293 mol_294 mol_295 mol_296 mol_297 mol_298 mol_299 mol_300 mol_301 mol_302 mol_303 mol_304 mol_305 mol_306 mol_307 mol_308 mol_309 mol_310 mol_311 mol_312 mol_313 mol_314 mol_315 mol_316 mol_317 mol_318 mol_319 mol_320 mol_321 mol_322 mol_323 mol_324 mol_325 mol_326 mol_327 mol_328 mol_329 mol_330 mol_331 mol_332 mol_333 mol_334 mol_335 mol_336 mol_337 mol_338 mol_339 mol_340 mol_341 mol_342 mol_343 mol_344 mol_345 mol_346 mol_347 mol_348 mol_349 mol_350 mol_351 mol_352 mol_353 mol_354 mol_355 mol_356 mol_357 mol_358 mol_359 mol_360 mol_361 mol_362 mol_363 mol_364 mol_365 mol_366 mol_367 mol_368 mol_369 mol_370 mol_371 mol_372 mol_373 mol_374 mol_375 mol_376 mol_377 mol_378 mol_379 mol_380 mol_381 mol_382 mol_383 mol_384 mol_385 mol_386 mol_387 mol_388 mol_389 mol_390 mol_391 mol_392 mol_393 mol_394 mol_395 mol_396 mol_397 mol_398 mol_399 mol_400 mol_401 mol_402 mol_403 mol_404 mol_405 mol_406 mol_407 mol_408 mol_409 mol_410 mol_411 mol_412 mol_413 mol_414 mol_415 mol_416 mol_417 mol_418 mol_419 mol_420 mol_421 mol_422 mol_423 mol_424 mol_425 mol_426 mol_427 mol_428 mol_429 mol_430 mol_431 mol_432 mol_433 mol_434 mol_435 mol_436 mol_437 mol_438 mol_439 mol_440 mol_441 mol_442 mol_443 mol_444 mol_445 mol_446 mol_447 mol_448 mol_449 mol_450 mol_451 mol_452 mol_453 mol_454 mol_455 mol_456 mol_457 mol_458 mol_459 mol_460 mol_461 mol_462 mol_463 mol_464 mol_465 mol_466 mol_467 mol_468 mol_469 mol_470 mol_471 mol_472 mol_473 mol_474 mol_475 mol_476 mol_477 mol_478 mol_479 mol_480 mol_481 mol_482 mol_483 mol_484 mol_485 mol_486 mol_487 mol_488 mol_489 mol_490 mol_491 mol_492 mol_493 mol_494 mol_495 mol_496 mol_497 mol_498 mol_499 mol_500 mol_501 mol_502 mol_503 mol_504 mol_505 mol_506 mol_507 mol_508 mol_509 mol_510 mol_511 mol_512 mol_513 mol_514 mol_515 mol_516 mol_517 mol_518 mol_519 mol_520 mol_521 mol_522 mol_523 mol_524 mol_525 mol_526 mol_527 mol_528 mol_529 mol_530 mol_531 mol_532 mol_533 mol_534 mol_535 mol_536 mol_537 mol_538 mol_539 mol_540 mol_541 mol_542 mol_543 mol_544 mol_545 mol_546 mol_547 mol_548 mol_549 mol_550 mol_551 mol_552 mol_553 mol_554 mol_555 mol_556 mol_557 mol_558 mol_559 mol_560 mol_561 mol_562 mol_563 mol_564 mol_565 mol_566 mol_567 mol_568 mol_569 mol_570 mol_571 mol_572 mol_573 mol_574 mol_575 mol_576 mol_577 mol_578 mol_579 mol_580 mol_581 mol_582 mol_583 mol_584 mol_585 mol_586 mol_587 mol_588 mol_589 mol_590 mol_591 mol_592 mol_593 mol_594 mol_595 mol_596 mol_597 mol_598 mol_599 mol_600 mol_601 mol_602 mol_603 mol_604 mol_605 mol_606 mol_607 mol_608 mol_609 mol_610 mol_611 mol_612 mol_613 mol_614 mol_615 mol_616 mol_617 mol_618 mol_619 mol_620 mol_621 mol_622 mol_623 mol_624 mol_625 mol_626 mol_627 mol_628 mol_629 mol_630 mol_631 mol_632 mol_633 mol_634 mol_635 mol_636 mol_637 mol_638 mol_639 mol_640 mol_641 mol_642 mol_643 mol_644 mol_645 mol_646 mol_647 mol_648 mol_649 mol_650 mol_651 mol_652 mol_653 mol_654 mol_655 mol_656 mol_657 mol_658 mol_659 mol_660 mol_661 mol_662 mol_663 mol_664 mol_665 mol_666 mol_667 mol_668 mol_669 mol_670 mol_671 mol_672 mol_673 mol_674 mol_675 mol_676 mol_677 mol_678 mol_679 mol_680 mol_681 mol_682 mol_683 mol_684 mol_685 mol_686 mol_687 mol_688 mol_689 mol_690 mol_691 mol_692 mol_693 mol_694 mol_695 mol_696 mol_697 mol_698 mol_699 mol_700 mol_701 mol_702 mol_703 mol_704 mol_705 mol_706 mol_707 mol_708 mol_709 mol_710 mol_711 mol_712 mol_713 mol_714 mol_715 mol_716 mol_717 mol_718 mol_719 mol_720 mol_721 mol_722 mol_723 mol_724 mol_725 mol_726 mol_727 mol_728 mol_729 mol_730 mol_731 mol_732 mol_733 mol_734 mol_735 mol_736 mol_737 mol_738 mol_739 mol_740 mol_741 mol_742 mol_743 mol_744 mol_745 mol_746 mol_747 mol_748 mol_749 mol_750 mol_751 mol_752 mol_753 mol_754 mol_755 mol_756 mol_757 mol_758 mol_759 mol_760 mol_761 mol_762 mol_763 mol_764 mol_765 mol_766 mol_767 mol_768 mol_769 mol_770 mol_771 mol_772 mol_773 mol_774 mol_775 mol_776 mol_777 mol_778 mol_779 mol_780 mol_781 mol_782 mol_783 mol_784 mol_785 mol_786 mol_787 mol_788 mol_789 mol_790 mol_791 mol_792 mol_793 mol_794 mol_795 mol_796 mol_797 mol_798 mol_799 mol_800 mol_801 mol_802 mol_803 mol_804 mol_805 mol_806 mol_807 mol_808 mol_809 mol_810 mol_811 mol_812 mol_813 mol_814 mol_815 mol_816 mol_817 mol_818 mol_819 mol_820 mol_821 mol_822 mol_823 mol_824 mol_825 mol_826 mol_827 mol_828 mol_829 mol_830 mol_831 mol_832 mol_833 mol_834 mol_835 mol_836 mol_837 mol_838 mol_839 mol_840 mol_841 mol_842 mol_843 mol_844 mol_845 mol_846 mol_847 mol_848 mol_849 mol_850 mol_851 mol_852 mol_853 mol_854 mol_855 mol_856 mol_857 mol_858 mol_859 mol_860 mol_861 mol_862 mol_863 mol_864 mol_865 mol_866 mol_867 mol_868 mol_869 mol_870 mol_871 mol_872 mol_873 mol_874 mol_875 mol_876 mol_877 mol_878 mol_879 mol_880 mol_881 mol_882 mol_883 mol_884 mol_885 mol_886 mol_887 mol_888 mol_889 mol_890 mol_891 mol_892 mol_893 mol_894 mol_895 mol_896 mol_897 mol_898 mol_899 mol_900 mol_901 mol_902 mol_903 mol_904 mol_905 mol_906 mol_907 mol_908 mol_909 mol_910 mol_911 mol_912 mol_913 mol_914 mol_915 mol_916 mol_917 mol_918 mol_919 mol_920 mol_921 mol_922 mol_923 mol_924 mol_925 mol_926 mol_927 mol_928 mol_929 mol_930 mol_931 mol_932 mol_933 mol_934 mol_935 mol_936 mol_937 mol_938 mol_939 mol_940 mol_941 mol_942 mol_943 mol_944 mol_945 mol_946 mol_947 mol_948 mol_949 mol_950 mol_951 mol_952 mol_953 mol_954 mol_955 mol_956 mol_957 mol_958 mol_959 mol_960 mol_961 mol_962 mol_963 mol_964 mol_965 mol_966 mol_967 mol_968 mol_969 mol_970 mol_971 mol_972 mol_973 mol_974 mol_975 mol_976 mol_977 mol_978 mol_979 mol_980 mol_981 mol_982 mol_983 mol_984 mol_985 mol_986 mol_987 mol_988 mol_989 mol_990 mol_991 mol_992 mol_993 mol_994 mol_995 mol_996 mol_997 mol_998 mol_999 mol_1000 mol_1001 mol_1002 mol_1003 mol_1004 mol_1005 mol_1006 mol_1007 mol_1008 mol_1009 mol_1010 mol_1011 mol_1012 mol_1013 mol_1014 mol_1015 mol_1016 mol_1017 mol_1018 mol_1019 mol_1020 mol_1021 mol_1022 mol_1023
feature_infos=[0:1] [-5.47265625:4.91796875] [-3.85546875:3.369140625] [-4.3984375:4.078125] [-7.46484375:5.58203125] [-4.79296875:4.69140625] [-7.28125:4.53125] [-3.4140625:6.3984375] [-4.7265625:4.23046875] [-5.23828125:5.47265625] [-5.23046875:4.421875] [-4.33203125:3.365234375] [-5.16015625:5.2890625] [-4.86328125:4.4921875] [-5.15625:3.853515625] [-5.19140625:3.5078125] [-5.35546875:5.30859375] [-4.78125:4.05078125] [-4.8125:4.39453125] [-4.03515625:3.998046875] [-4.76953125:5.29296875] [-3.619140625:3.8515625] [-4.11328125:4.09765625] [-3.5703125:4.62109375] [-4.2734375:6.56640625] [-4.12109375:4.65625] [-4.078125:4.30859375] [-6.421875:3.783203125] [-5.765625:4.05859375] [-3.162109375:4.1796875] [-4.703125:5.703125] [-3.0078125:6.9375] [-3.818359375:4.265625] [-5.61328125:5.296875] [-4.59765625:4.8203125] [-3.82421875:4.53515625] [-6.13671875:4.4453125] [-4.58203125:4.71484375] [-8.515625:4.609375] [-3.73046875:4.73828125] [-4.92578125:4.6640625] [-4.9609375:3.435546875] [-5.75390625:3.265625] [-5.5390625:4.3046875] [-4.4453125:4.21875] [-5.11328125:5.65234375] [-6.078125:5.9765625] [-4.83984375:3.36328125] [-2.869140625:5.421875] [-4.86328125:5.0859375] [-5.76953125:5.7578125] [-4.7421875:3.810546875] [-4.8125:3.140625] [-5.2578125:5.4375] [-3.576171875:3.9921875] [-3.916015625:3.421875] [-3.853515625:7.05859375] [-4.1640625:3.619140625] [-2.53125:4.28125] [-6.55859375:4.90234375] [-5.5625:4.4609375] [-6.37890625:4.57421875] [-4.30859375:3.486328125] [-4.30078125:3.904296875] [-2.3359375:7.4140625] [-5.64453125:6.7421875] [-5.7421875:5.45703125] [-4.5546875:4.203125] [-3.95703125:5.91796875] [-3.84765625:4.35546875] [-6.24609375:3.9296875] [-4.12109375:4.12109375] [-5.04296875:4.828125] [-4.88671875:2.875] [-4.046875:4.12109375] [-4.99609375:4.18359375] [-5.09375:3.5390625] [-4.296875:3.703125] [-3.68359375:3.517578125] [-4.67578125:4.4765625] [-4.375:3.951171875] [-4.0546875:4.4921875] [-6.76953125:4.1640625] [-4.55859375:3.78515625] [-4.33984375:3.650390625] [-4.30078125:4.05859375] [-3.326171875:6.04296875] [-6.45703125:3.962890625] [-5.05078125:5.359375] [-3.990234375:4.515625] [-4.38671875:5.48828125] [-4.875:3.810546875] [-5.60546875:6.3828125] [-3.623046875:4.8984375] [-4.46875:4.26171875] [-6.05859375:4.33203125] [-4.90625:4.2109375] [-5.1484375:3.107421875] [-4.03515625:6.5546875] [-5.5546875:3.669921875] [-3.443359375:5.4609375] [-5.29296875:3.974609375] [-5.03515625:4.34765625] [-8.5:3.78125] [-4.1953125:4.015625] [-3.8046875:7.1640625] [-4.3046875:7.26953125] [-3.1640625:4.1171875] [-4.140625:5.015625] [-6.640625:4.9140625] [-4.1875:3.06640625] [-4.73046875:4.0703125] [-6.37890625:5.49609375] [-4.64453125:4.12890625] [-4.69140625:4.05078125] [-6.90625:4.453125] [-4.640625:4.2265625] [-5.0234375:3.7109375] [-4:4.74609375] [-3.48046875:4.25390625] [-4.8515625:4.35546875] [-4.578125:4.37890625] [-4.828125:4.1171875] [-3.775390625:4.21875] [-5.44140625:3.4453125] [-4.59375:4.296875] [-3.8671875:3.787109375] [-3.80078125:4.265625] [-5.46484375:4.578125] [-4.34765625:5.890625] [-4.8125:4.4140625] [-3.791015625:4.83984375] [-7.32421875:3.490234375] [-5.75:5.4921875] [-3.84765625:4.3046875] [-4.23046875:4.8671875] [-4.3359375:4.5625] [-5.98828125:3.7109375] [-4.0390625:5.125] [-5.32421875:4.3828125] [-3.88671875:4.9609375] [-4.29296875:4.3671875] [-3.8828125:5.2109375] [-4.26171875:4.49609375] [-4.56640625:5.484375] [-5.359375:3.376953125] [-3.791015625:6.234375] [-5.08984375:4.22265625] [-4.0625:5.4453125] [-3.31640625:7.21875] [-4.62109375:4.57421875] [-3.966796875:4.10546875] [-4.3125:4.5859375] [-4.390625:3.880859375] [-4.6484375:3.380859375] [-3.517578125:3.5390625] [-3.908203125:5.24609375] [-5.21875:4.5859375] [-4.91015625:4.0625] [-3.064453125:4.5078125] [-6.4140625:4.65625] [-3.732421875:7.3515625] [-4.3984375:6.20703125] [-5.828125:3.228515625] [-4.21875:5.3046875] [-4.9765625:6.40234375] [-4.7734375:3.08984375] [-4.1640625:4.6171875] [-3.259765625:5.0546875] [-3.3359375:5.8359375] [-6.89453125:4.453125] [-3.689453125:5.2890625] [-5.56640625:4.73828125] [-8.78125:4.78125] [-4.703125:4.046875] [-5.30078125:4.44140625] [-3.15234375:4.75] [-3.890625:5.1875] [-4.9609375:6.24609375] [-4.046875:4.75] [-5.25390625:10.2578125] [-3.5859375:4.71875] [-4.625:4.72265625] [-3.693359375:8.515625] [-4.4765625:7.1328125] [-4.75:6.82421875] [-6.38671875:4.03515625] [-3.7265625:4.45703125] [-4.796875:4.31640625] [-2.990234375:5.46875] [-2.748046875:4.04296875] [-4.0546875:3.798828125] [-8.296875:3.384765625] [-4.15234375:5.65625] [-5.85546875:5.17578125] [-4.3828125:4.48046875] [-4.6953125:4.07421875] [-4.80859375:7.45703125] [-4.56640625:4.96484375] [-6.31640625:3.828125] [-4.66796875:4.46875] [-3.224609375:4.875] [-6.00390625:4.76953125] [-4.24609375:3.822265625] [-2.630859375:4.56640625] [-3.49609375:6.4140625] [-4.80078125:4.11328125] [-3.5625:5.3515625] [-4.4921875:4.0234375] [-4.88671875:5.30078125] [-5.7578125:4.88671875] [-5.23046875:4.1015625] [-3.447265625:3.2265625] [-4.26953125:4.578125] [-4.96484375:4.68359375] [-7.43359375:3.86328125] [-5.23046875:5.125] [-5.671875:7.45703125] [-5.296875:5.578125] [-6.5625:4.1171875] [-4.3125:3.75390625] [-3.869140625:5.64453125] [-4.546875:5.109375] [-5.671875:4.4609375] [-3.22265625:5.796875] [-5.015625:4.25] [-6.07421875:5.38671875] [-4.56640625:4.6640625] [-5:4.40234375] [-5.5703125:4.046875] [-3.431640625:4.25] [-4.92578125:5.04296875] [-4.6796875:3.107421875] [-6.75:3.9609375] [-9.1953125:3.533203125] [-3.943359375:5.296875] [-7.9296875:3.9609375] [-4.015625:6.6796875] [-7.76171875:4.6328125] [-3.716796875:4.1796875] [-5.4765625:6.7734375] [-4.59765625:5.62890625] [-6.9140625:3.412109375] [-4.06640625:4.671875] [-5.0625:4.51171875] [-3.62109375:3.71875] [-4.38671875:4.9453125] [-6.08984375:3.89453125] [-3.29296875:3.474609375] [-6.7265625:5.3359375] [-4.6875:4.78125] [-3.966796875:3.8828125] [-4.33203125:5.32421875] [-3.94140625:5.77734375] [-5.3359375:3.4140625] [-5.2890625:5.1484375] [-3.35546875:5.44921875] [-5.1484375:4.6796875] [-4.01953125:5.42578125] [-4.03515625:4.5546875] [-4.9140625:5.26171875] [-4.1328125:3.47265625] [-4.515625:5.6953125] [-4.3203125:6.03125] [-4.23828125:5.21484375] [-3.65234375:4.35546875] [-5.22265625:5.48828125] [-5.4453125:4.22265625] [-7.14453125:4.76953125] [-5.36328125:4.0859375] [-3.48828125:4.796875] [-6.08203125:4.0859375] [-6.22265625:5.29296875] [-4.890625:3.681640625] [-3.19921875:4.42578125] [-3.36328125:5.0625] [-6.421875:4.5390625] [-3.748046875:5.12109375] [-5.88671875:3.9453125] [-4.42578125:3.89453125] [-6.48828125:4.4609375] [-5.1015625:4.64453125] [-5.60546875:3.763671875] [-3.849609375:3.232421875] [-7.203125:4.00390625] [-4.55859375:5.69921875] [-3.423828125:4.4296875] [-4.21875:4.33984375] [-4.8984375:5.140625] [-4.55859375:3.966796875] [-3.541015625:5.75390625] [-4.22265625:5.11328125] [-4.69921875:3.859375] [-5.06640625:5.2578125] [-5.4375:3.6796875] [-4.33984375:1.96484375] [-5.515625:3.716796875] [-3.90625:6.15234375] [-5.328125:3.2734375] [-4.08203125:6.90234375] [-5.71484375:3.51171875] [-4.265625:4.01171875] [-4.15234375:5.82421875] [-4.0078125:6.55078125] [-5.19921875:4.58203125] [-4.32421875:4.30859375] [-6.3515625:4.2109375] [-3.66015625:5.828125] [-3.685546875:3.6953125] [-4.828125:6.0234375] [-5.69921875:2.78515625] [-3.416015625:3.958984375] [-3.9375:5.16015625] [-3.50390625:5.66796875] [-7.02734375:4.40625] [-4.2734375:4.95703125] [-5.328125:4.546875] [-5.16796875:5.83203125] [-5.02734375:6.17578125] [-3.658203125:3.638671875] [-3.626953125:4.7109375] [-4.9921875:4.38671875] [-4.45703125:3.6484375] [-3.53515625:4.5390625] [-4.62890625:3.6015625] [-2.947265625:6.91796875] [-3.400390625:5.6015625] [-5.3828125:3.0234375] [-5.93359375:4.1640625] [-5.9296875:4.53515625] [-4.6640625:5.09765625] [-4.09765625:5.015625] [-3.390625:9.3671875] [-9.84375:4.9453125] [-3.373046875:4.1640625] [-3.97265625:4.51171875] [-3.833984375:4.24609375] [-7.859375:6.09375] [-4.24609375:5.125] [-3.75:5.30078125] [-7.65234375:3.4921875] [-4.13671875:5.93359375] [-4.07421875:5.58984375] [-4.87109375:4.9453125] [-4.08203125:4.7578125] [-5.58984375:4.12890625] [-6.58984375:4.5859375] [-5.51171875:4.67578125] [-4.171875:3.837890625] [-3.84375:5.0078125] [-3.71875:4.53125] [-3.939453125:6.62890625] [-4.19140625:4.0390625] [-4.13671875:4.6796875] [-6.14453125:4.109375] [-3.63671875:3.84375] [-3.64453125:4.34375] [-3.810546875:4.51171875] [-5.64453125:4.09375] [-4.87890625:5.19140625] [-3.775390625:8.1953125] [-6.4375:4.79296875] [-4.390625:5.35546875] [-5.61328125:5.7578125] [-5.87890625:7.6953125] [-5.1953125:3.357421875] [-4.5546875:3.85546875] [-3.587890625:3.72265625] [-4.171875:5.1796875] [-8.890625:4.28515625] [-4.08984375:7.63671875] [-5.08984375:3.26171875] [-3.240234375:4.625] [-4.078125:4.390625] [-4.890625:4.78515625] [-5.67578125:4.62890625] [-3.88671875:5.0078125] [-3.9921875:5.16015625] [-4.421875:5.55859375] [-7.87890625:3.869140625] [-4.328125:5.62109375] [-6.015625:3.615234375] [-4.1796875:5.65234375] [-3.8515625:4.20703125] [-4.765625:6.21875] [-3.6484375:4.99609375] [-5.0859375:5.55859375] [-5:5.3984375] [-2.927734375:6.7109375] [-8.9296875:3.826171875] [-7.0859375:4.83984375] [-3.677734375:4.0859375] [-3.357421875:2.673828125] [-4.921875:3.982421875] [-4.2578125:4.109375] [-5.78515625:3.767578125] [-3.68359375:5.55078125] [-4.3046875:3.658203125] [-5.43359375:4.03125] [-4.78515625:4.12109375] [-4.36328125:5.51953125] [-3.8671875:4.0234375] [-4.79296875:3.5] [-4.44140625:3.978515625] [-3.84765625:3.720703125] [-3.546875:6.1171875] [-7.79296875:1.896484375] [-3.841796875:3.541015625] [-4.23046875:8.4921875] [-6.11328125:3.796875] [-4.06640625:4.97265625] [-6.47265625:3.552734375] [-6.421875:5.1875] [-3.970703125:5.99609375] [-4.39453125:5.53125] [-3.712890625:3.994140625] [-3.80859375:5.64453125] [-8.03125:5.734375] [-4.14453125:4.36328125] [-3.564453125:4.4921875] [-3.5390625:4.18359375] [-6.12109375:3.833984375] [-3.853515625:3.609375] [-4.71875:5.91015625] [-3.79296875:5.890625] [-4.26171875:3.2890625] [-5.03125:4.30078125] [-4.0859375:4.2734375] [-3.96875:3.486328125] [-4.0859375:4.01953125] [-5.8203125:4.53515625] [-6.74609375:3.841796875] [-4.06640625:5.72265625] [-4.74609375:3.7109375] [-5.78125:3.951171875] [-4.671875:5.828125] [-4.44921875:4.75390625] [-3.037109375:6.92578125] [-3.53515625:6.9609375] [-5.37109375:5.95703125] [-4.359375:3.80859375] [-4.01171875:3.45703125] [-5.97265625:5.12109375] [-4.01953125:5.08984375] [-7.4609375:3.775390625] [-3.42578125:3.74609375] [-4.59375:3.0546875] [-4.26953125:4.80859375] [-4.8203125:4.1796875] [-4.30859375:4.234375] [-3.392578125:5.46484375] [-4.1875:3.1875] [-4.1640625:4.4453125] [-4.68359375:4.0703125] [-4.859375:4.87890625] [-4.12109375:3.640625] [-4.3671875:5.12109375] [-4.36328125:4.16015625] [-4.046875:3.970703125] [-3.046875:4.0546875] [-4.90625:4.0390625] [-4.640625:4.35546875] [-4.50390625:3.5] [-3.2421875:5.48828125] [-5.63671875:4.2890625] [-3.986328125:4.0234375] [-4.29296875:6.18359375] [-4.34375:3.02734375] [-4.00390625:5.3046875] [-4.359375:3.224609375] [-7.1875:4.55078125] [-2.94140625:4.2890625] [-5.41015625:4.6875] [-3.71484375:4.89453125] [-5.16796875:5.49609375] [-5.9765625:4.96484375] [-3.451171875:3.708984375] [-4.12890625:3.83984375] [-4.37890625:6.9375] [-4.46484375:4.83984375] [-3.79296875:3.044921875] [-4.03125:6.2421875] [-6.515625:4.30078125] [-3.943359375:7.67578125] [-5.00390625:6.296875] [-3.2578125:4.5859375] [-4.42578125:2.638671875] [-4.1484375:4.9609375] [-4.34765625:5.328125] [-6.0390625:5.7578125] [-4.7421875:4.77734375] [-5.24609375:3.921875] [-4.05859375:4.62890625] [-3.923828125:5.96484375] [-6.890625:4.0546875] [-4.0390625:4.29296875] [-4.765625:4.66796875] [-5.0703125:5.07421875] [-4.12109375:4.71484375] [-6.65625:3.705078125] [-5.09765625:3.404296875] [-6.9609375:3.529296875] [-4.33203125:4.57421875] [-3.771484375:3.66015625] [-3.517578125:3.51171875] [-3.939453125:3.0625] [-7.4296875:7.03125] [-3.37890625:4.4609375] [-4.22265625:3.896484375] [-6.3046875:3.58203125] [-4.12109375:4.80859375] [-4.94921875:4.203125] [-3.7265625:3.732421875] [-3.552734375:5.65234375] [-6.296875:4.23828125] [-4.0703125:4.6484375] [-5.51171875:6.0234375] [-4.265625:3.8828125] [-5.6171875:3.912109375] [-3.685546875:5.25390625] [-8.4765625:6.63671875] [-4.69921875:5.0546875] [-3.76171875:4.08984375] [-4.9609375:4.015625] [-5.48046875:4.47265625] [-3.416015625:4.9921875] [-4.375:4.62890625] [-5.734375:5.54296875] [-4.15625:4.7578125] [-3.8828125:4.59375] [-8.390625:3.384765625] [-4.7265625:4.21484375] [-4.57421875:8.03125] [-4.46484375:2.9609375] [-3.326171875:5.046875] [-5.02734375:3.478515625] [-4.96484375:3.794921875] [-5:6.6875] [-2.466796875:4.0703125] [-3.3125:4.71875] [-4.3984375:4.2734375] [-3.28515625:5.6171875] [-3.658203125:6.171875] [-4.6015625:6.31640625] [-3.884765625:5.515625] [-4.75:4.07421875] [-3.751953125:4.546875] [-4.8046875:5.41796875] [-3.9375:7.98828125] [-3.521484375:4.57421875] [-4.046875:3.72265625] [-3.95703125:5.5] [-4.171875:4.1640625] [-3.283203125:7.375] [-5.66796875:3.892578125] [-4.82421875:3.75] [-5.890625:4.921875] [-4.01953125:4.59765625] [-3.5625:3.703125] [-3.5078125:5.02734375] [-4.6171875:7.2265625] [-4.18359375:3.880859375] [-5.1328125:4.36328125] [-7.00390625:4.3203125] [-5.67578125:4.54296875] [-6.171875:3.88671875] [-4.46484375:3.986328125] [-5.55859375:4.015625] [-5.41796875:4.91796875] [-2.908203125:3.859375] [-5.3828125:5.5078125] [-4.2421875:8.4609375] [-6.3046875:5.3515625] [-5.90625:4.58203125] [-3.125:5.7734375] [-3.609375:5.4453125] [-5.34375:6.3125] [-3.65625:5.20703125] [-4.328125:4.35546875] [-4.3046875:3.173828125] [-7.71484375:4.078125] [-5.15625:3.697265625] [-4.21484375:4.37109375] [-4.3125:3.515625] [-5.30859375:3.388671875] [-3.07421875:5.05859375] [-4.5859375:3.626953125] [-3.34375:6.28515625] [-4.14453125:3.189453125] [-3.7421875:3.865234375] [-5.03125:3.76171875] [-4.69921875:4.65625] [-2.806640625:7.859375] [-4.70703125:3.853515625] [-4.94921875:4.43359375] [-6.4453125:3.27734375] [-4.640625:5.35546875] [-4.44140625:5.0625] [-6.44140625:3.181640625] [-4.62109375:6.9375] [-4.4609375:5.49609375] [-4.3203125:3.876953125] [-4.296875:4.15625] [-4.125:4.21875] [-3.962890625:6.046875] [-4.921875:3.71484375] [-5.16796875:4.64453125] [-5.64453125:3.5625] [-3.08203125:6.02734375] [-4.765625:6.46875] [-5.05859375:5.2734375] [-4.88671875:4.30859375] [-6.5:3.802734375] [-5.734375:3.630859375] [-3.390625:5.4140625] [-4.7578125:3.017578125] [-7.16015625:3.541015625] [-3.298828125:3.64453125] [-3.66015625:4.90234375] [-3.251953125:4.36328125] [-5.203125:4.62890625] [-4.07421875:3.60546875] [-3.947265625:4.55859375] [-3.421875:3.40234375] [-4.765625:5.43359375] [-4.53125:6.0859375] [-3.580078125:5.3828125] [-6.32421875:3.9296875] [-4.7421875:3.03515625] [-6.28515625:4.4453125] [-6.921875:4.13671875] [-4.3671875:4.65625] [-4.44140625:3.2265625] [-4.1875:5.26953125] [-5.171875:4.6015625] [-3.4375:5.70703125] [-4.86328125:2.716796875] [-5.60546875:3.755859375] [-4.58984375:4.51953125] [-4.28515625:4.62890625] [-4.625:5.17578125] [-3.49609375:6.2734375] [-6.66796875:4.98046875] [-3.74609375:6.84375] [-6.24609375:4.33203125] [-3.384765625:5.28125] [-4.625:4.44921875] [-4.796875:5.6875] [-4.91796875:3.1328125] [-4.171875:3.630859375] [-7.46875:3.748046875] [-5.11328125:3.896484375] [-4.07421875:4.70703125] [-3.955078125:4.38671875] [-2.658203125:4.43359375] [-3.65625:3.90625] [-4.48046875:5.87109375] [-4.24609375:4.6171875] [-4.22265625:5.53125] [-4.40625:4.140625] [-4.7109375:4.44921875] [-3.732421875:4.203125] [-4.28125:5.42578125] [-4.30859375:7.12109375] [-3.8359375:4.05859375] [-3.3046875:7.53515625] [-4.21484375:5.63671875] [-4.4375:4.34765625] [-4.71484375:4.49609375] [-4.0546875:4.078125] [-4.12109375:5.359375] [-6.61328125:3.392578125] [-4.34375:3.7578125] [-7.42578125:3.99609375] [-4.95703125:6.98046875] [-4.3203125:3.072265625] [-3.517578125:5.1484375] [-6.09375:4.31640625] [-3.6015625:4.33984375] [-2.708984375:4.5703125] [-4.37890625:4.7421875] [-5.59375:5.16015625] [-3.939453125:4.62890625] [-4.27734375:3.787109375] [-4.1484375:4.625] [-3.236328125:4.7578125] [-3.369140625:4.421875] [-5.20703125:3.5859375] [-4.77734375:3.77734375] [-4.234375:5.60546875] [-6.01953125:4.3671875] [-4.50390625:5.40234375] [-4.74609375:4.05078125] [-4.66015625:4.265625] [-3.935546875:4.87109375] [-3.9609375:5.0703125] [-3.990234375:6.43359375] [-5.81640625:4.7890625] [-3.384765625:4.76171875] [-5.2109375:4.62109375] [-7.0625:4.23828125] [-5.38671875:3.4140625] [-3.73046875:3.671875] [-5.19140625:3.3125] [-3.677734375:4.73828125] [-5.5390625:3.40234375] [-4.0234375:4.48828125] [-5.4609375:4.6484375] [-5.69140625:4.4609375] [-3.546875:5.3203125] [-3.625:5.015625] [-6.88671875:3.791015625] [-6.26171875:2.638671875] [-5.4765625:2.921875] [-4.93359375:8.578125] [-3.880859375:4.8046875] [-5.00390625:3.87109375] [-6.984375:4.41015625] [-3.958984375:5.61328125] [-4.22265625:6.1328125] [-4.734375:5.5625] [-4.05859375:5.625] [-3.873046875:4.140625] [-4.42578125:7.578125] [-4.24609375:4.91015625] [-4.7578125:5.2109375] [-3.4453125:4.42578125] [-3.515625:5.453125] [-5.37109375:3.53125] [-4.32421875:4.375] [-4.26953125:4.83984375] [-3.908203125:4.25] [-4.84375:3.876953125] [-5.65625:4.08984375] [-3.353515625:3.029296875] [-3.087890625:5.12109375] [-4.67578125:4.6171875] [-4.74609375:4.15234375] [-4.6875:4.6015625] [-7.21875:6.06640625] [-4.19921875:3.78515625] [-3.90234375:4.19140625] [-5.6484375:4.234375] [-3.375:5.421875] [-4.921875:4.23828125] [-3.330078125:7.05859375] [-6.78515625:3.935546875] [-5.51953125:3.759765625] [-3.8359375:3.94921875] [-4.8515625:3.9375] [-3.58203125:5.9453125] [-4.71875:3.552734375] [-4.234375:4.40234375] [-5.33203125:5.49609375] [-4.2265625:4.078125] [-4.5546875:4.3671875] [-4.046875:9.875] [-3.982421875:4.3203125] [-5.41796875:4.59375] [-4.80859375:3.59765625] [-3.25390625:6] [-4.1015625:4.78515625] [-6.44921875:5.22265625] [-3.6796875:6.04296875] [-3.724609375:8.515625] [-4.03125:4.26171875] [-5.19140625:4.02734375] [-9.203125:4.328125] [-4.0859375:4.89453125] [-4.65234375:8.1796875] [-3.658203125:4.4765625] [-6.09765625:4.80078125] [-8.5:3.3984375] [-4.76953125:4.2578125] [-4.03125:5.90234375] [-4.23828125:3.298828125] [-7.25390625:5.69921875] [-4.8046875:5.05078125] [-4.30859375:4.08203125] [-7.27734375:4.14453125] [-9.671875:3.1796875] [-4.11328125:4.15234375] [-3.875:4.3671875] [-5.59765625:4.13671875] [-4.87890625:4.12890625] [-6.19140625:5.94921875] [-4.91015625:3.21484375] [-4.3984375:5.29296875] [-4.8515625:4.03125] [-4.4765625:5.1015625] [-5.11328125:5.484375] [-5.61328125:3.54296875] [-3.591796875:4.1328125] [-3.3046875:3.306640625] [-6.29296875:5.95703125] [-4.609375:5.35546875] [-5.1171875:4.82421875] [-5.2421875:4.7890625] [-4.7890625:5.7421875] [-5.7578125:6.03125] [-3.21875:5.73046875] [-5.46484375:4.171875] [-4.64453125:8.734375] [-5.73828125:3.96875] [-4.296875:4.8671875] [-4.30078125:4.08203125] [-4.08203125:3.7265625] [-4.625:4.7734375] [-5.19921875:6.47265625] [-4.03515625:3.83203125] [-3.73828125:4.37890625] [-3.70703125:5.0078125] [-4.47265625:3.8359375] [-4.94921875:4.390625] [-3.791015625:4.25] [-7.41796875:3.3671875] [-4.08984375:5.03515625] [-4.703125:4.0234375] [-4.9609375:2.5625] [-3.970703125:3.095703125] [-3.41015625:3.8359375] [-3.458984375:4.62890625] [-4.90234375:4.92578125] [-4.0546875:4.18359375] [-4.75390625:5.1015625] [-3.822265625:5.8515625] [-3.681640625:3.98046875] [-6.06640625:5.21875] [-5.24609375:3.96484375] [-5.25:5.5078125] [-4.2421875:4.7265625] [-3.873046875:2.765625] [-5.8828125:5.56640625] [-5.71484375:5.58203125] [-3:4.29296875] [-7.69140625:4.05078125] [-4.13671875:5.38671875] [-6.07421875:4.07421875] [-3.59765625:2.92578125] [-4.36328125:4.41796875] [-8.03125:4.63671875] [-6.15234375:4.140625] [-4.25:5.6796875] [-4.52734375:3.904296875] [-4.86328125:5.23046875] [-3.9609375:6.30078125] [-5.328125:3.154296875] [-6.609375:4.3671875] [-6.4375:6.03125] [-4.703125:5.375] [-3.220703125:8.328125] [-4.27734375:4.24609375] [-5.375:4] [-3.666015625:6.5703125] [-4.4921875:5.6484375] [-4.6328125:4.99609375] [-6.60546875:4.83984375] [-3.759765625:4.171875] [-6.4765625:4.37109375] [-4.69140625:4.45703125] [-3.078125:5.01953125] [-4.6484375:4.046875] [-7.625:3.04296875] [-5.453125:2.736328125] [-6.73046875:5.30859375] [-3.09375:6.3046875] [-3.900390625:5.8515625] [-4.24609375:3.3984375] [-3.39453125:4.42578125] [-4.8046875:3.76953125] [-6.078125:4.21875] [-5.1640625:3.68359375] [-4.390625:4.42578125] [-7.16015625:2.990234375] [-3.771484375:3.994140625] [-5.5625:3.498046875] [-3.64453125:4.87890625] [-3.86328125:4.5703125] [-3.447265625:5.0078125] [-3.79296875:3.830078125] [-4.38671875:3.908203125] [-3.6484375:5.56640625] [-3.908203125:4.4453125] [-3.841796875:5.390625] [-5:5.11328125] [-3.904296875:5.1328125] [-7.76171875:3.91796875] [-3.716796875:4.55859375] [-4.69140625:5.57421875] [-4.8828125:4.19921875] [-4.01171875:3.634765625] [-3.873046875:6.3515625] [-5.140625:5.26171875] [-10.1171875:5.69140625] [-4.796875:4.45703125] [-6.1015625:4.0625] [-3.345703125:6.484375] [-5.6015625:3.392578125] [-7.4375:6.09765625] [-5.11328125:4.30078125] [-7.046875:4.7109375] [-4.8203125:4.1796875] [-4.140625:4.8046875] [-5.76953125:3.0546875] [-3.7421875:3.9453125] [-3.03515625:5.7265625] [-6.87109375:5.46484375] [-6.77734375:5.45703125] [-6.75390625:4.69140625] [-3.787109375:4.63671875] [-4.10546875:3.294921875] [-3.751953125:3.30859375] [-5.4140625:5.12109375] [-4.25:3.98046875] [-6.3515625:3.107421875] [-4.4296875:3.984375] [-4.8046875:5.22265625] [-4.37109375:3.798828125] [-5.75:3.0078125] [-6.984375:3.47265625] [-4.4375:5.625] [-5.56640625:4.796875] [-4.89453125:4.93359375] [-7.0859375:3.1875] [-5.09375:3.4375] [-3.439453125:4.5390625] [-4.7734375:5.328125] [-6.86328125:4.3671875] [-3.693359375:4.08203125] [-6.515625:3.146484375] [-4.47265625:4.36328125] [-5.640625:3.578125] [-4.40234375:4.71875] [-4.296875:4.7734375] [-7.80859375:4.734375] [-10.671875:3.63671875] [-5.38671875:6.546875] [-3.544921875:4.4296875] [-4.734375:7.01953125] [-3.80078125:5.95703125] [-3.5859375:7.51171875] [-4.015625:5.18359375] [-4.28515625:3.65625] [-5.58203125:5.47265625] [-5.109375:3.83203125] [-4.703125:4.92578125] [-5.19140625:4.109375] [-3.681640625:3.42578125] [-3.2890625:3.19140625] [-4.0390625:4.3984375] [-3.28125:4.51953125] [-4.09375:4.44921875] [-4.015625:5.171875] [-4.39453125:3.796875] [-6.40234375:5.15234375] [-3.15625:5.921875] [-3.650390625:5.80078125] [-5.44921875:7.20703125] [-4.38671875:3.74609375] [-3.57421875:4.75390625] [-5.08203125:4.77734375] [-4.71875:3.77734375] [-6.3828125:3.6640625] [-4.70703125:3.6953125] [-4.125:4.7109375] [-6.51171875:3.9765625] [-3.88671875:4.8671875] [-6.15625:2.93359375] [-8.953125:3.681640625] [-3.921875:5.04296875] [-4.23828125:4.63671875] [-3.5390625:6.12109375] [-6.34765625:4.0078125] [-3.681640625:4.2578125] [-4.33203125:4.44921875] [-6.5859375:5.703125] [-5.75:2.498046875] [-6.3046875:3.654296875] [-4.296875:4.859375] [-2.84765625:3.607421875] [-5.33984375:3.767578125] [-4.578125:5.7109375] [-4.4140625:3.951171875] [-4.1796875:6.0703125] [-5.58984375:7.203125] [-5.2109375:3.3828125] [-4.41796875:4.96875] [-4.12890625:4.1015625] [-4.234375:4.30859375] [-7.13671875:5.37890625] [-5.140625:4.98828125] [-5.40234375:3.65625] [-4.6015625:5.8671875] [-3.845703125:8.875] [-4.82421875:3.513671875] [-3.75:6.28515625] [-4.3203125:3.185546875] [-5.16015625:4.59765625] [-3.9921875:3.86328125] [-7.43359375:3.6796875] [-4.61328125:4.0703125] [-5.7734375:3.53125] [-4.88671875:5.23046875] [-6.01953125:3.818359375] [-4.7421875:9.0546875] [-5.28515625:3.439453125] [-4.0625:4.52734375] [-6.45703125:4.97265625] [-4.00390625:4.55859375] [-4.25390625:4.51171875] [-4.95703125:3.83984375] [-4.15234375:4.53125] [-4.41015625:3.505859375] [-4.2421875:5.359375] [-4.92578125:5.5] [-4.32421875:4.5078125] [-3.865234375:4.9921875] [-3.755859375:4.41796875] [-4.12890625:2.7421875] [-4.45703125:4.42578125] [-3.703125:5.26171875] [-4.98046875:4.39453125] [-3.357421875:4.30078125] [-3.14453125:5.34765625] [-6.0078125:4.09765625] [0:1] [0:1] [0:1] [0:1] [0:1] [0:1] [0:1] [0:1] [0:1] [0:1] [0:1] [0:1] [0:1] [0:1] [0:1] [0:1] [0:1] [0:1] [0:1] [0:1] [0:1] [0:1] [0:1] [0:1] [0:1] [0:1] [0:1] [0:1] [0:1] [0:1] [0:1] [0:1] [0:1] [0:1] [0:1] [0:1] [0:1] [0:1] [0:1] [0:1] [0:1] [0:1] [0:1] [0:1] [0:1] [0:1] [0:1] [0:1] [0:1] [0:1] [0:1] [0:1] [0:1] [0:1] [0:1] [0:1] [0:1] [0:1] [0:1] [0:1] [0:1] [0:1] [0:1] [0:1] [0:1] [0:1] [0:1] [0:1] [0:1] [0:1] [0:1] [0:1] [0:1] [0:1] [0:1] [0:1] [0:1] [0:1] [0:1] [0:1] [0:1] [0:1] [0:1] [0:1] [0:1] [0:1] [0:1] [0:1] [0:1] [0:1] [0:1] [0:1] [0:1] [0:1] [0:1] [0:1] [0:1] [0:1] [0:1] [0:1] [0:1] [0:1] [0:1] [0:1] [0:1] [0:1] [0:1] [0:1] [0:1] [0:1] [0:1] [0:1] [0:1] [0:1] [0:1] [0:1] [0:1] [0:1] [0:1] [0:1] [0:1] [0:1] [0:1] [0:1] [0:1] [0:1] [0:1] [0:1] [0:1] [0:1] [0:1] [0:1] [0:1] [0:1] [0:1] [0:1] [0:1] [0:1] [0:1] [0:1] [0:1] [0:1] [0:1] [0:1] [0:1] [0:1] [0:1] [0:1] [0:1] [0:1] [0:1] [0:1] [0:1] [0:1] [0:1] [0:1] [0:1] [0:1] [0:1] [0:1] [0:1] [0:1] [0:1] [0:1] [0:1] [0:1] [0:1] [0:1] [0:1] [0:1] [0:1] [0:1] [0:1] [0:1] [0:1] [0:1] [0:1] [0:1] [0:1] [0:1] [0:1] [0:1] [0:1] [0:1] [0:1] [0:1] [0:1] [0:1] [0:1] [0:1] [0:1] [0:1] [0:1] [0:1] [0:1] [0:1] [0:1] [0:1] [0:1] [0:1] [0:1] [0:1] [0:1] [0:1] [0:1] [0:1] [0:1] [0:1] [0:1] [0:1] [0:1] [0:1] [0:1] [0:1] [0:1] [0:1] [0:1] [0:1] [0:1] [0:1] [0:1] [0:1] [0:1] [0:1] [0:1] [0:1] [0:1] [0:1] [0:1] [0:1] [0:1] [0:1] [0:1] [0:1] [0:1] [0:1] [0:1] [0:1] [0:1] [0:1] [0:1] [0:1] [0:1] [0:1] [0:1] [0:1] [0:1] [0:1] [0:1] [0:1] [0:1] [0:1] [0:1] [0:1] [0:1] [0:1] [0:1] [0:1] [0:1] [0:1] [0:1] [0:1] [0:1] [0:1] [0:1] [0:1] [0:1] [0:1] [0:1] [0:1] [0:1] [0:1] [0:1] [0:1] [0:1] [0:1] [0:1] [0:1] [0:1] [0:1] [0:1] [0:1] [0:1] [0:1] [0:1] [0:1] [0:1] [0:1] [0:1] [0:1] [0:1] [0:1] [0:1] [0:1] [0:1] [0:1] [0:1] [0:1] [0:1] [0:1] [0:1] [0:1] [0:1] [0:1] [0:1] [0:1] [0:1] [0:1] [0:1] [0:1] [0:1] [0:1] [0:1] [0:1] [0:1] [0:1] [0:1] [0:1] [0:1] [0:1] [0:1] [0:1] [0:1] [0:1] [0:1] [0:1] [0:1] [0:1] [0:1] [0:1] [0:1] [0:1] [0:1] [0:1] [0:1] [0:1] [0:1] [0:1] [0:1] [0:1] [0:1] [0:1] [0:1] [0:1] [0:1] [0:1] [0:1] [0:1] [0:1] [0:1] [0:1] [0:1] [0:1] [0:1] [0:1] [0:1] [0:1] [0:1] [0:1] [0:1] [0:1] [0:1] [0:1] [0:1] [0:1] [0:1] [0:1] [0:1] [0:1] [0:1] [0:1] [0:1] [0:1] [0:1] [0:1] [0:1] [0:1] [0:1] [0:1] [0:1] [0:1] [0:1] [0:1] [0:1] [0:1] [0:1] [0:1] [0:1] [0:1] [0:1] [0:1] [0:1] [0:1] [0:1] [0:1] [0:1] [0:1] [0:1] [0:1] [0:1] [0:1] [0:1] [0:1] [0:1] [0:1] [0:1] [0:1] [0:1] [0:1] [0:1] [0:1] [0:1] [0:1] [0:1] [0:1] [0:1] [0:1] [0:1] [0:1] [0:1] [0:1] [0:1] [0:1] [0:1] [0:1] [0:1] [0:1] [0:1] [0:1] [0:1] [0:1] [0:1] [0:1] [0:1] [0:1] [0:1] [0:1] [0:1] [0:1] [0:1] [0:1] [0:1] [0:1] [0:1] [0:1] [0:1] [0:1] [0:1] [0:1] [0:1] [0:1] [0:1] [0:1] [0:1] [0:1] [0:1] [0:1] [0:1] [0:1] [0:1] [0:1] [0:1] [0:1] [0:1] [0:1] [0:1] [0:1] [0:1] [0:1] [0:1] [0:1] [0:1] [0:1] [0:1] [0:1] [0:1] [0:1] [0:1] [0:1] [0:1] [0:1] [0:1] [0:1] [0:1] [0:1] [0:1] [0:1] [0:1] [0:1] [0:1] [0:1] [0:1] [0:1] [0:1] [0:1] [0:1] [0:1] [0:1] [0:1] [0:1] [0:1] [0:1] [0:1] [0:1] [0:1] [0:1] [0:1] [0:1] [0:1] [0:1] [0:1] [0:1] [0:1] [0:1] [0:1] [0:1] [0:1] [0:1] [0:1] [0:1] [0:1] [0:1] [0:1] [0:1] [0:1] [0:1] [0:1] [0:1] [0:1] [0:1] [0:1] [0:1] [0:1] [0:1] [0:1] [0:1] [0:1] [0:1] [0:1] [0:1] [0:1] [0:1] [0:1] [0:1] [0:1] [0:1] [0:1] [0:1] [0:1] [0:1] [0:1] [0:1] [0:1] [0:1] [0:1] [0:1] [0:1] [0:1] [0:1] [0:1] [0:1] [0:1] [0:1] [0:1] [0:1] [0:1] [0:1] [0:1] [0:1] [0:1] [0:1] [0:1] [0:1] [0:1] [0:1] [0:1] [0:1] [0:1] [0:1] [0:1] [0:1] [0:1] [0:1] [0:1] [0:1] [0:1] [0:1] [0:1] [0:1] [0:1] [0:1] [0:1] [0:1] [0:1] [0:1] [0:1] [0:1] [0:1] [0:1] [0:1] [0:1] [0:1] [0:1] [0:1] [0:1] [0:1] [0:1] [0:1] [0:1] [0:1] [0:1] [0:1] [0:1] [0:1] [0:1] [0:1] [0:1] [0:1] [0:1] [0:1] [0:1] [0:1] [0:1] [0:1] [0:1] [0:1] [0:1] [0:1] [0:1] [0:1] [0:1] [0:1] [0:1] [0:1] [0:1] [0:1] [0:1] [0:1] [0:1] [0:1] [0:1] [0:1] [0:1] [0:1] [0:1] [0:1] [0:1] [0:1] [0:1] [0:1] [0:1] [0:1] [0:1] [0:1] [0:1] [0:1] [0:1] [0:1] [0:1] [0:1] [0:1] [0:1] [0:1] [0:1] [0:1] [0:1] [0:1] [0:1] [0:1] [0:1] [0:1] [0:1] [0:1] [0:1] [0:1] [0:1] [0:1] [0:1] [0:1] [0:1] [0:1] [0:1] [0:1] [0:1] [0:1] [0:1] [0:1] [0:1] [0:1] [0:1] [0:1] [0:1] [0:1] [0:1] [0:1] [0:1] [0:1] [0:1] [0:1] [0:1] [0:1] [0:1] [0:1] [0:1] [0:1] [0:1] [0:1] [0:1] [0:1] [0:1] [0:1] [0:1] [0:1] [0:1] [0:1] [0:1] [0:1] [0:1] [0:1] [0:1] [0:1] [0:1] [0:1] [0:1] [0:1] [0:1] [0:1] [0:1] [0:1] [0:1] [0:1] [0:1] [0:1] [0:1] [0:1] [0:1] [0:1] [0:1] [0:1] [0:1] [0:1] [0:1] [0:1] [0:1] [0:1] [0:1] [0:1] [0:1] [0:1] [0:1] [0:1] [0:1] [0:1] [0:1] [0:1] [0:1] [0:1] [0:1] [0:1] [0:1] [0:1] [0:1] [0:1] [0:1] [0:1] [0:1] [0:1] [0:1] [0:1] [0:1] [0:1] [0:1] [0:1] [0:1] [0:1] [0:1] [0:1] [0:1] [0:1] [0:1] [0:1] [0:1] [0:1] [0:1] [0:1] [0:1] [0:1] [0:1] [0:1] [0:1] [0:1] [0:1] [0:1] [0:1] [0:1] [0:1] [0:1] [0:1] [0:1] [0:1] [0:1] [0:1] [0:1] [0:1] [0:1] [0:1] [0:1] [0:1] [0:1] [0:1] [0:1] [0:1] [0:1] [0:1] [0:1] [0:1] [0:1] [0:1] [0:1] [0:1] [0:1] [0:1] [0:1] [0:1] [0:1] [0:1] [0:1] [0:1] [0:1] [0:1] [0:1] [0:1] [0:1] [0:1] [0:1] [0:1] [0:1] [0:1] [0:1] [0:1] [0:1] [0:1] [0:1] [0:1] [0:1] [0:1] [0:1] [0:1] [0:1] [0:1] [0:1] [0:1] [0:1] [0:1] [0:1] [0:1] [0:1] [0:1] [0:1] [0:1] [0:1] [0:1] [0:1] [0:1] [0:1] [0:1] [0:1] [0:1] [0:1] [0:1] [0:1] [0:1] [0:1] [0:1] [0:1] [0:1] [0:1] [0:1] [0:1] [0:1] [0:1] [0:1] [0:1] [0:1] [0:1] [0:1] [0:1] [0:1] [0:1] [0:1] [0:1] [0:1] [0:1] [0:1] [0:1] [0:1] [0:1] [0:1] [0:1] [0:1] [0:1] [0:1] [0:1] [0:1] [0:1] [0:1] [0:1] [0:1] [0:1] [0:1] [0:1] [0:1] [0:1] [0:1] [0:1] [0:1] [0:1] [0:1] [0:1] [0:1] [0:1] [0:1] [0:1] [0:1] [0:1] [0:1] [0:1] [0:1] [0:1] [0:1] [0:1] [0:1] [0:1] [0:1] [0:1] [0:1] [0:1] [0:1] [0:1] [0:1] [0:1] [0:1] [0:1] [0:1] [0:1] [0:1] [0:1] [0:1] [0:1] [0:1] [0:1] [0:1] [0:1] [0:1] [0:1] [0:1] [0:1] [0:1] [0:1] [0:1] [0:1] [0:1] [0:1] [0:1] [0:1] [0:1] [0:1] [0:1] [0:1] [0:1] [0:1] [0:1] [0:1] [0:1] [0:1] [0:1] [0:1] [0:1] [0:1] [0:1] [0:1] [0:1] [0:1] [0:1] [0:1] [0:1] [0:1] [0:1] [0:1] [0:1] [0:1] [0:1] [0:1] [0:1] [0:1] [0:1] [0:1] [0:1] [0:1] [0:1] [0:1] [0:1] [0:1] [0:1] [0:1] [0:1] [0:1] [0:1] [0:1] [0:1] [0:1] [0:1] [0:1] [0:1] [0:1] [0:1] [0:1] [0:1] [0:1] [0:1] [0:1] [0:1] [0:1] [0:1]
tree_sizes=2889 2887 2855 2883 2879 2917 2870 2872 2901 2902 2891 2902 2904 2899 2923 2944 2908 2913 2916 2933 2921 2938 2910 2940 2924 2931 2950 2938 2903 2950 2923 2917 2937 2914 2921 2950 2925 2924 2937 2919 2965 2987 2920 2948 2941 2927 2933 2938 2911 2980 2921 2914 2931 2929 2951 2929 2929 2961 2912 2922 2962 2929 2946 2920 2941 2948 2929 2926 2923 2969 2957 2935 2955 2909 2942 2939 2957 2924 2914 2948 2941 2930 2938 2913 2943 2927 2946 2929 2961 2948 2932 2925 2918 2932 2934 2955 2952 2939 2956 2940 2929 2924 2939 2921 2940 2945 2941 2933 2930 2944 2943 2941 2948 2949 2957 2956 2933 2936 2888 2932 2924 2946 2895 2939 2938 2927 2914 2955 2983 2939 2929 2960 2933 2927 2946 2912 2989 2958 2938 2919 2956 2940 2941 2922 2933 2976 2909 2922 2942 2951 3001 2910 2931 2943 2945 2929 2943 2935 2957 2948 2950 2941 2958 2964 2952 2930 2934 2945 2915 2956 2947 2981 2921 2960 2946 2947 2965 2942 2930 2913 2955 2909 2946 2949 2935 2961 2948 2940 2956 2951 2963 2977 2974 2918 2925 2989 2929 2923 2938 2951 2934 2994 2929 2905 2924 2962 2942 2947 2969 2941 2971 2942 2954 2946 2965

Tree=0
num_leaves=31
num_cat=0
split_feature=1381 316 1975 95 1105 1105 1951 1375 2 1832 819 237 276 775 541 191 1412 764 1675 1105 78 414 64 1308 1115 297 1499 1105 1808 259
split_gain=2.97754e+15 1.31908e+16 1.28824e+17 8.72296e+15 8.34216e+15 1.25563e+15 1.71567e+15 2.04952e+15 2.03372e+15 1.56016e+15 1.16196e+15 8.75634e+14 7.50237e+14 9.66075e+14 6.43534e+14 6.04353e+14 5.84481e+14 4.93013e+14 3.74002e+14 3.24726e+14 3.12564e+14 2.96745e+14 3.2004e+14 2.48899e+14 2.30675e+14 2.10968e+14 1.47744e+15 2.61449e+14 9.44846e+14 1.95324e+14
threshold=1.0000000180025095e-35 -2.0615234374999996 1.0000000180025095e-35 -0.91308593749999989 1.0000000180025095e-35 1.0000000180025095e-35 1.0000000180025095e-35 1.0000000180025095e-35 0.63940429687500011 1.0000000180025095e-35 2.0605468750000004 2.5859375000000004 -1.2124023437499998 1.9531250000000002 -0.97412109374999989 1.2666015625000002 1.0000000180025095e-35 -1.8261718749999998 1.0000000180025095e-35 1.0000000180025095e-35 2.5498046875000004 -1.8911132812499998 -1.0512695312499998 1.0000000180025095e-35 1.0000000180025095e-35 3.1376953125000004 1.0000000180025095e-35 1.0000000180025095e-35 1.0000000180025095e-35 1.2177734375000002
decision_type=2 2 2 2 2 2 2 2 2 2 2 2 2 2 2 2 2 2 2 2 2 2 2 2 2 2 2 2 2 2
left_child=1 2 3 4 -1 6 7 8 18 -10 11 12 13 14 23 19 -17 -14 -5 -12 21 22 -19 -3 -25 -2 27 28 -27 -16
right_child=25 10 -4 5 -6 -7 -8 -9 9 -11 15 -13 17 -15 29 16 -18 20 -20 -21 -22 -23 -24 24 -26 26 -28 -29 -30 -31
leaf_value=3124987.2301490251 24646.473542301166 146451.1631954395 7843114.0266979383 110186.8022770697 303113.87491465017 44043.749383566625 33462.313939789216 67866.743186983687 740538.63553348242 1757706.7750826192 404282.08615596959 583216.35559254722 428622.11030588549 791156.01492707909 40070.186601846886 705146.7711095626 70574.509712827217 551758.54490021395 625778.54181935394 101228.29326366764 329862.53128756816 33814.319728541479 52252.553487942831 527066.20614389819 154588.75016091374 78716.979162168034 756216.49997975433 33428.252669380425 810435.8300416033 165148.73809666539
leaf_weight=20 859732 53 23 34 22 393 132 69 38 25 45 30 32 22 442 47 21 23 24 165 36 12716 29 60 23 150 30 1391 20 174
leaf_count=20 859732 53 23 34 22 393 132 69 38 25 45 30 32 22 442 47 21 23 24 165 36 12716 29 60 23 150 30 1391 20 174
internal_value=25475.4 70105.2 470278 246269 1.64686e+06 163996 310398 502795 750811 1.14418e+06 47678.5 43553.5 42364 137976 118867 250070 509176 36598.6 323535 166168 35618.8 34789.2 273188 315746 423850 24713.8 61094.6 47735.4 164802 75400.8
internal_weight=0 14698 780 757 42 715 322 190 121 63 13918 13640 13610 774 752 278 68 12836 58 210 12804 12768 52 136 83 861323 1591 1561 170 616
internal_count=876021 14698 780 757 42 715 322 190 121 63 13918 13640 13610 774 752 278 68 12836 58 210 12804 12768 52 136 83 861323 1591 1561 170 616
is_linear=0
shrinkage=1


Tree=1
num_leaves=31
num_cat=0
split_feature=1381 316 1975 95 1105 1105 1951 1375 2 1832 819 237 276 775 755 420 818 1172 497 188 1675 1105 213 556 28 1280 1104 1153 297 1499
split_gain=2.4118e+15 1.06846e+16 1.04347e+17 7.0656e+15 6.75715e+15 1.01706e+15 1.38969e+15 1.66011e+15 1.64731e+15 1.26373e+15 9.50105e+14 7.07881e+14 5.92617e+14 7.85568e+14 5.30155e+14 4.25834e+14 4.25429e+14 3.60784e+14 3.2907e+14 8.76473e+14 3.02942e+14 2.55232e+14 2.03611e+14 1.71199e+14 1.65316e+15 2.16648e+15 2.48728e+14 2.07553e+14 1.72418e+14 1.1963e+15
threshold=1.0000000180025095e-35 -2.0615234374999996 1.0000000180025095e-35 -0.91308593749999989 1.0000000180025095e-35 1.0000000180025095e-35 1.0000000180025095e-35 1.0000000180025095e-35 0.63940429687500011 1.0000000180025095e-35 2.1523437500000004 2.5859375000000004 -1.2124023437499998 1.9531250000000002 0.95947265625000011 2.2880859375000004 0.31774902343750006 1.0000000180025095e-35 1.7021484375000002 1.7363281250000002 1.0000000180025095e-35 1.0000000180025095e-35 -1.4526367187499998 2.4082031250000004 0.96166992187500011 1.0000000180025095e-35 1.0000000180025095e-35 1.0000000180025095e-35 3.1376953125000004 1.0000000180025095e-35
decision_type=2 2 2 2 2 2 2 2 2 2 2 2 2 2 2 2 2 2 2 2 2 2 2 2 2 2 2 2 2 2
left_child=1 2 3 4 -1 6 7 8 20 -10 11 12 13 14 22 18 -12 -18 -14 -20 -5 -16 -3 28 -25 26 27 -26 -2 -30
right_child=23 10 -4 5 -6 -7 -8 -9 9 -11 16 -13 15 -15 21 -17 17 -19 19 -21 -22 -23 -24 24 25 -27 -28 -29 29 -31
leaf_value=2789560.5800000001 -821.21100506749758 222963.42886652541 7035874.5672756033 76240.274409754129 249874.64772727271 16711.530939295335 7188.2388324159565 38152.224673063865 643556.9082236843 1559008.1858750002 72151.021584109039 501966.88885416673 6631.9505552575429 689112.58167613635 519610.16436491936 349299.3864891259 470233.77608259278 83476.725666360289 55145.167811400177 599813.2415527344 540272.845703125 189157.09299946032 27958.575917822753 6428.9272721380767 168035.85450195312 1332395.8783398438 80697.545553178934 623615.36015625007 20124.189124814737 657667.03541666677
leaf_weight=20 857316 59 23 34 22 393 132 69 38 25 94 30 12437 22 31 37 83 34 385 32 24 95 579 2295 20 20 67 20 1555 30
leaf_count=20 857316 59 23 34 22 393 132 69 38 25 94 30 12437 22 31 37 83 34 385 32 24 95 579 2295 20 20 67 20 1555 30
internal_value=0 40166.8 400323 198714 1.45925e+06 124669 256430 429587 652802 1.00683e+06 19982.8 16741.1 15676.8 99976 83011.4 10536.9 230568 357843 9561.73 96942.2 268254 270459 45991.9 -685.425 25863.8 377068 198502 395826 -760.29 32191.2
internal_weight=0 14698 780 757 42 715 322 190 121 63 13918 13707 13677 786 764 12891 211 117 12854 417 58 126 638 861323 2422 127 107 40 858901 1585
internal_count=876021 14698 780 757 42 715 322 190 121 63 13918 13707 13677 786 764 12891 211 117 12854 417 58 126 638 861323 2422 127 107 40 858901 1585
is_linear=0
shrinkage=0.1


Tree=2
num_leaves=31
num_cat=0
split_feature=1381 157 1975 2 237 111 1105 1951 1375 1 1832 1235 1412 276 168 264 27 155 510 1157 764 1675 414 64 980 94 578 1105 1951 1375
split_gain=1.95356e+15 8.69509e+15 9.6887e+16 5.11758e+15 1.05878e+15 1.5504e+15 7.87329e+14 1.14232e+15 1.33115e+15 1.33303e+15 1.02362e+15 6.47393e+14 8.80789e+14 4.57465e+14 5.87358e+14 5.37136e+14 4.40478e+14 3.86503e+14 4.54571e+14 3.59817e+14 3.53202e+14 2.22687e+14 1.85948e+14 2.06501e+14 1.8351e+14 1.67814e+14 1.65054e+14 1.40585e+14 3.09883e+14 2.45049e+14
threshold=1.0000000180025095e-35 2.4394531250000004 1.0000000180025095e-35 0.89282226562500011 2.1542968750000004 0.038391113281250007 1.0000000180025095e-35 1.0000000180025095e-35 1.0000000180025095e-35 1.2744140625000002 1.0000000180025095e-35 1.0000000180025095e-35 1.0000000180025095e-35 -1.2124023437499998 -0.50317382812499989 0.72412109375000011 1.0297851562500002 2.5781250000000004 -0.95092773437499989 1.0000000180025095e-35 -1.8261718749999998 1.0000000180025095e-35 -1.8911132812499998 -1.0512695312499998 0.28503417968750006 2.1533203125000004 -2.7968749999999996 1.0000000180025095e-35 1.0000000180025095e-35 1.0000000180025095e-35
decision_type=2 2 2 2 2 2 2 2 2 2 2 2 2 2 2 2 2 2 2 2 2 2 2 2 2 2 2 2 2 2
left_child=1 4 3 6 13 11 7 8 9 10 -3 -6 -13 14 15 16 19 20 -19 24 -15 -11 23 -22 -1 26 -24 28 29 -20
right_child=-2 2 -4 -5 5 -7 -8 -9 -10 21 -12 12 -14 17 -16 -17 -18 18 27 -21 22 -23 25 -25 -26 -27 -28 -29 -30 -31
leaf_value=123940.93142791977 -616.88234249032075 579201.23131167772 7235304.0225 1309136.985546875 12353.754039277806 1032444.5513494319 15921.07666015625 6197.1677690319557 34711.103863166361 71202.883670691284 1403107.36675 727025.4461148649 21967.633253389249 334072.51680871216 15207.546867845098 -1247.6367565307619 691861.16805366846 398779.00762965431 421728.72318522143 622053.22232142859 418831.60991847829 466873.75982031255 131639.12528219784 20564.718802083335 350323.11014827807 188525.08256347658 3905.8346013954997 19928.447734677477 -6009.5499348958338 12165.410174851191
leaf_weight=133 861323 38 20 38 127 22 363 133 68 33 25 37 34 33 447 100 23 47 48 21 23 25 102 30 49 50 12316 226 66 21
leaf_count=133 861323 38 20 38 127 22 363 133 68 33 25 37 34 33 447 100 23 47 48 21 23 25 102 30 49 50 12316 226 66 21
internal_value=0 36150.2 369483 179557 18402.6 236043 116895 230725 388726 587677 906148 147554 389392 14916.6 89649.3 191721 277106 10459.8 106246 230114 7346.83 241751 6485.73 193398 184890 5691.19 4955.02 68159.7 148902 297079
internal_weight=0 14698 743 723 13955 220 685 322 189 121 63 198 71 13735 773 326 226 12962 408 203 12554 58 12521 53 182 12468 12418 361 135 69
internal_count=876021 14698 743 723 13955 220 685 322 189 121 63 198 71 13735 773 326 226 12962 408 203 12554 58 12521 53 182 12468 12418 361 135 69
is_linear=0
shrinkage=0.1


Tree=3
num_leaves=31
num_cat=0
split_feature=1381 157 1975 2 237 111 1058 2044 1153 1832 5 1235 1412 276 168 264 1018 155 510 420 1157 1675 1385 414 1912 55 51 556 28 1280
split_gain=1.58238e+15 7.04302e+15 7.84784e+16 4.14524e+15 8.57609e+14 1.25582e+15 6.66586e+14 8.13965e+14 9.97961e+14 1.4036e+15 1.03161e+15 5.24388e+14 7.13439e+14 3.70546e+14 4.7576e+14 4.3508e+14 3.61089e+14 3.13068e+14 3.68202e+14 3.16607e+14 3.10021e+14 2.8199e+14 5.85021e+14 1.50776e+14 1.80792e+14 1.38691e+14 1.62738e+14 1.38671e+14 1.33906e+15 1.75485e+15
threshold=1.0000000180025095e-35 2.4394531250000004 1.0000000180025095e-35 0.89282226562500011 2.1542968750000004 0.038391113281250007 1.0000000180025095e-35 1.0000000180025095e-35 1.0000000180025095e-35 1.0000000180025095e-35 -0.46325683593749994 1.0000000180025095e-35 1.0000000180025095e-35 -1.2124023437499998 -0.50317382812499989 0.72412109375000011 0.16296386718750003 2.5781250000000004 -0.95092773437499989 2.2880859375000004 1.0000000180025095e-35 1.0000000180025095e-35 1.0000000180025095e-35 -1.8911132812499998 1.0000000180025095e-35 1.6357421875000002 -0.65698242187499989 2.4082031250000004 0.96166992187500011 1.0000000180025095e-35
decision_type=2 2 2 2 2 2 2 2 2 2 2 2 2 2 2 2 2 2 2 2 2 2 2 2 2 2 2 2 2 2
left_child=1 4 3 6 13 11 7 8 9 21 -11 -6 -13 14 15 16 20 19 -19 23 -1 22 -3 24 -15 -25 -27 -2 -29 -30
right_child=27 2 -4 -5 5 -7 -8 -9 -10 10 -12 12 -14 17 -16 -17 -18 18 -20 -21 -22 -23 -24 25 -26 26 -28 28 29 -31
leaf_value=152842.11964735875 -622.57321164747668 624618.77551731421 6511773.4050000003 1178223.2695723686 11118.378573680488 929200.0887073864 -1081.1247738233501 5868.856442633979 -8585.4492934283098 1253555.8900000001 383778.55552343751 654322.89709934546 19770.869292853862 329648.01412550407 13686.792625355562 -1122.873018157959 555080.60260416672 358901.11632313835 61343.729433417917 298703.4446579392 559847.89523809531 49336.967106827447 -17619.964639945651 3655.4804142830649 -45183.01793323864 349830.34866536461 56316.540829987222 5847.722644057596 178713.87375511101 1199217.9324999999
leaf_weight=172 858901 37 20 38 127 22 317 139 68 30 25 37 34 31 447 100 33 47 361 37 21 46 23 12255 22 21 188 2295 107 20
leaf_count=172 858901 37 20 38 127 22 317 139 68 30 25 37 34 31 447 100 33 47 361 37 21 46 23 12255 22 21 188 2295 107 20
internal_value=0 32535.1 332535 161602 16562.4 212439 105205 196762 312631 448300 858203 132799 350453 13424.9 80684.4 172549 249395 9413.85 95621.2 6612.15 197128 235614 378427 5748.74 174058 5033.04 85808.4 -555.194 23339.1 339423
internal_weight=0 14698 743 723 13955 220 685 368 229 161 55 198 71 13735 773 326 226 12962 408 12554 193 106 60 12517 53 12464 209 861323 2422 127
internal_count=876021 14698 743 723 13955 220 685 368 229 161 55 198 71 13735 773 326 226 12962 408 12554 193 106 60 12517 53 12464 209 861323 2422 127
is_linear=0
shrinkage=0.1


Tree=4
num_leaves=31
num_cat=0
split_feature=1381 157 1975 2 237 687 1105 1951 1375 1740 1675 1385 1235 1412 276 168 264 1819 1018 244 155 1740 1951 312 1850 164 154 1912 358 1951
split_gain=1.28173e+15 5.70485e+15 6.35676e+16 3.35765e+15 6.94663e+14 1.03017e+15 5.44056e+14 8.31456e+14 9.78194e+14 1.20348e+15 3.17043e+15 5.26258e+14 4.2673e+14 5.77886e+14 3.00143e+14 3.85365e+14 3.52415e+14 3.62015e+14 5.43073e+14 2.72712e+14 2.57432e+14 3.47119e+14 4.44621e+14 2.65169e+14 1.79731e+14 1.40648e+14 3.35847e+14 3.59012e+14 2.36809e+14 2.31289e+14
threshold=1.0000000180025095e-35 2.4394531250000004 1.0000000180025095e-35 0.89282226562500011 2.1542968750000004 0.75512695312500011 1.0000000180025095e-35 1.0000000180025095e-35 1.0000000180025095e-35 1.0000000180025095e-35 1.0000000180025095e-35 1.0000000180025095e-35 1.0000000180025095e-35 1.0000000180025095e-35 -1.2124023437499998 -0.50317382812499989 0.72412109375000011 1.0000000180025095e-35 0.16296386718750003 2.7099609375000004 2.5781250000000004 1.0000000180025095e-35 1.0000000180025095e-35 -0.77612304687499989 1.0000000180025095e-35 1.3203125000000002 -1.0737304687499998 1.0000000180025095e-35 -1.5292968749999998 1.0000000180025095e-35
decision_type=2 2 2 2 2 2 2 2 2 2 2 2 2 2 2 2 2 2 2 2 2 2 2 2 2 2 2 2 2 2
left_child=1 4 3 6 14 12 7 8 9 10 11 -3 -6 -14 15 16 17 18 24 20 25 23 -23 -22 -1 -16 27 -27 29 -28
right_child=-2 2 -4 -5 5 -7 -8 -9 -10 -11 -12 -13 13 -15 19 -17 -18 -19 -20 -21 21 22 -24 -25 -26 26 28 -29 -30 -31
leaf_value=265004.11887933867 -499.67471468188569 546464.05503906251 5860596.3300000001 1060400.9478618421 9297.2143024114175 840374.83004261367 10748.082908811122 -2247.6565744041504 20634.786566521143 28559.917254317435 1649424.4017500002 -69301.79706182066 588890.61503378383 17793.78321461397 3082.4855566422575 12318.112944013694 -1010.5858303833007 -92972.584847530248 700388.13798076927 368545.48712797626 388352.47449396312 596596.4754185268 -12105.244029017857 30023.290402665411 17986.807349917766 504439.70377426152 381817.08238839288 -35650.25954833984 1636.4311319005631 15608.753975183823
leaf_weight=131 861323 35 20 38 127 22 363 133 68 38 25 23 37 34 11987 447 100 31 26 21 22 28 21 337 38 32 35 20 425 34
leaf_count=131 861323 35 20 38 127 22 363 133 68 38 25 23 37 34 11987 447 100 31 26 21 22 28 21 337 38 32 35 20 425 34
internal_value=0 29281.6 299281 145442 14906.1 191195 94684.6 189309 324108 494654 708047 302281 119064 315408 12082.4 72615.9 155294 224456 274919 8472.47 7888.16 86059.1 335724 51982.2 209462 5343.38 54979.6 296713 29534 201367
internal_weight=0 14698 743 723 13955 220 685 322 189 121 83 58 198 71 13735 773 326 226 195 12962 12941 408 49 359 169 12533 546 52 494 69
internal_count=876021 14698 743 723 13955 220 685 322 189 121 83 58 198 71 13735 773 326 226 195 12962 12941 408 49 359 169 12533 546 52 494 69
is_linear=0
shrinkage=0.1


Tree=5
num_leaves=31
num_cat=0
split_feature=1381 100 1975 5 237 687 1058 1153 1720 1951 1832 1235 1412 1 864 2014 425 1105 155 510 297 1499 1105 1808 837 1602 1042 10 406 556
split_gain=1.0382e+15 4.6242e+15 5.15454e+16 2.70921e+15 5.65055e+14 8.3444e+14 5.07234e+14 5.60817e+14 8.73993e+14 1.02499e+15 1.87906e+15 3.45651e+14 4.68087e+14 2.9454e+14 2.53166e+14 2.37246e+14 2.2638e+14 3.16216e+14 1.99642e+14 2.79193e+14 1.38422e+14 9.69371e+14 2.11763e+14 7.65325e+14 1.25528e+14 1.50764e+15 1.25324e+14 6.18235e+14 1.28846e+14 1.13513e+14
threshold=1.0000000180025095e-35 3.5214843750000004 1.0000000180025095e-35 -0.22625732421874997 2.1542968750000004 0.75512695312500011 1.0000000180025095e-35 1.0000000180025095e-35 1.0000000180025095e-35 1.0000000180025095e-35 1.0000000180025095e-35 1.0000000180025095e-35 1.0000000180025095e-35 1.2744140625000002 1.9458007812500002 1.0000000180025095e-35 2.1494140625000004 1.0000000180025095e-35 2.5781250000000004 -0.95092773437499989 3.1376953125000004 1.0000000180025095e-35 1.0000000180025095e-35 1.0000000180025095e-35 2.7822265625000004 1.0000000180025095e-35 1.0000000180025095e-35 -0.78124999999999989 1.4511718750000002 2.4082031250000004
decision_type=2 2 2 2 2 2 2 2 2 2 2 2 2 2 2 2 2 2 2 2 2 2 2 2 2 2 2 2 2 2
left_child=1 4 3 6 14 11 7 8 9 10 13 -6 -13 -3 16 -16 18 -18 26 -20 24 22 23 -22 29 -26 28 -28 -1 -2
right_child=20 2 -4 -5 5 -7 -8 -9 -10 -11 -12 12 -14 -15 15 -17 17 -19 19 -21 21 -23 -24 -25 25 -27 27 -29 -30 -31
leaf_value=3910.3453881833821 -587.79989737723622 412353.82962239586 5274536.6100000003 954360.85657894751 8367.4920798474413 756337.36363636376 -4553.9026545222359 -7190.8954752604177 -27429.791734784918 -21026.706418945312 1064550.3810105098 530001.53648648656 16014.404664522061 54332.262597656256 87706.762166341156 443611.36786221596 385071.49300986843 30985.502947265628 305914.20192819153 46930.019133381269 46078.931322265627 592074.24416666664 5322.1941536130707 704625.93304687506 -543.4621318651283 842142.02601902175 614535.55093750008 14708.486395363732 126722.17548601018 21118.488498399747
leaf_weight=12799 857017 54 20 38 127 22 325 129 81 50 42 37 34 40 126 22 38 75 47 364 150 30 1391 20 276 23 20 122 86 2416
leaf_count=12799 857017 54 20 38 127 22 325 129 81 50 42 37 34 40 126 22 38 75 47 364 150 30 1391 20 276 23 20 122 86 2416
internal_value=0 26353.5 263450 131405 13084 172076 88031.5 164017 246735 366130 508467 107158 283867 260004 10530.7 140612 9109.95 150059 7924.71 76546.2 -449.707 29019.3 18198.3 123555 -504.242 64278.5 5759.71 99191.2 4730.04 -526.78
internal_weight=0 14698 779 759 13919 220 721 396 267 186 136 198 71 94 13699 148 13551 113 13438 411 861323 1591 1561 170 859732 299 13027 142 12885 859433
internal_count=876021 14698 779 759 13919 220 721 396 267 186 136 198 71 94 13699 148 13551 113 13438 411 861323 1591 1561 170 859732 299 13027 142 12885 859433
is_linear=0
shrinkage=0.1


Tree=6
num_leaves=31
num_cat=0
split_feature=1381 157 1975 2 237 729 1058 1135 1375 2 1740 1675 1918 633 138 718 540 39 1105 1740 530 1714 455 1002 2 802 775 123 1096 556
split_gain=8.40944e+14 3.76057e+15 4.16971e+16 2.19981e+15 4.55943e+14 6.85891e+14 3.993e+14 4.86656e+14 9.08809e+14 8.54708e+14 1.27272e+15 1.06321e+15 3.14899e+14 2.31794e+14 2.19566e+14 5.03284e+14 3.14014e+14 2.72572e+14 2.24796e+14 2.6433e+14 1.85352e+14 1.72675e+14 1.32636e+14 1.17245e+14 1.15793e+14 1.14235e+14 1.42356e+15 1.34582e+15 9.77457e+14 9.29754e+14
threshold=1.0000000180025095e-35 2.4394531250000004 1.0000000180025095e-35 0.89282226562500011 2.1542968750000004 -0.19512939453124997 1.0000000180025095e-35 1.0000000180025095e-35 1.0000000180025095e-35 0.63940429687500011 1.0000000180025095e-35 1.0000000180025095e-35 1.0000000180025095e-35 -1.3276367187499998 -1.0585937499999998 -1.6694335937499998 2.0205078125000004 -0.67626953124999989 1.0000000180025095e-35 1.0000000180025095e-35 0.75683593750000011 1.0000000180025095e-35 1.3476562500000002 1.8247070312500002 2.2470703125000004 1.0610351562500002 2.3447265625000004 2.6943359375000004 1.0000000180025095e-35 2.2167968750000004
decision_type=2 2 2 2 2 2 2 2 2 2 2 2 2 2 2 2 2 2 2 2 2 2 2 2 2 2 2 2 2 2
left_child=1 4 3 6 14 -6 7 8 9 -3 11 -11 13 -7 15 -1 -16 18 19 22 -20 -14 -17 -19 -18 -2 27 29 -29 -27
right_child=25 2 -4 -5 5 12 -8 -9 -10 10 -12 -13 21 -15 16 17 24 23 20 -21 -22 -23 -24 -25 -26 26 -28 28 -30 -31
leaf_value=443592.57762096776 -773.30754064362463 121036.8591020976 4747082.75 858924.73717105261 713230.71984375 563968.83231534099 -5009.7767983229005 -40144.843757812501 -2340.1084055397728 492901.8310295759 4649.4320012019234 1357064.6350260417 -9203.5030986192487 109941.84843750001 4221.6521776382606 31135.977019531252 103982.31119140626 1676.6191318378374 1955.9545947483607 507583.01425000001 142622.93620681288 305642.88023437501 273782.51761623478 178321.40156250002 436442.75965909095 2002.5959398215082 789808.13707540766 16378.265092898639 684301.54766406259 221187.70285418013
leaf_weight=31 781298 73 20 38 20 22 317 100 110 35 26 24 135 23 12094 50 20 1028 224 25 161 20 41 39 22 79719 23 39 50 194
leaf_count=31 781298 73 20 38 20 22 317 100 110 35 26 24 135 23 12094 50 20 1028 224 25 161 20 41 39 22 79719 23 39 50 194
internal_value=0 23718.1 242932 118336 12046.6 154868 77252.1 148114 218359 372011 587553 844426 99031.8 331911 9758.97 44591.2 5169.58 36702.8 97548.7 219582 60780.3 31421.8 140460 8133.18 278128 -404.737 3193.69 2967.54 391616 2534.7
internal_weight=0 14698 743 723 13955 220 685 368 268 158 85 59 200 45 13735 1599 12136 1568 501 116 385 155 91 1067 42 861323 80025 80002 89 79913
internal_count=876021 14698 743 723 13955 220 685 368 268 158 85 59 200 45 13735 1599 12136 1568 501 116 385 155 91 1067 42 861323 80025 80002 89 79913
is_linear=0
shrinkage=0.1


Tree=7
num_leaves=31
num_cat=0
split_feature=1381 157 1975 2 237 111 1105 1951 1720 1375 1832 1699 1 1235 1095 276 460 1819 628 420 78 180 1761 819 1740 830 1218 297 1499 1105
split_gain=6.81165e+14 3.04606e+15 3.37747e+16 1.78185e+15 3.69314e+14 6.00157e+14 3.39532e+14 5.13165e+14 7.80982e+14 9.1279e+14 1.76267e+15 4.21121e+14 4.9393e+14 2.61217e+14 3.2958e+14 1.85372e+14 2.42713e+14 2.73215e+14 4.41893e+14 1.6025e+14 1.57981e+14 1.53913e+14 1.37133e+14 1.29023e+14 2.2168e+14 1.18883e+14 1.28592e+14 1.09461e+14 7.85512e+14 1.7181e+14
threshold=1.0000000180025095e-35 2.4394531250000004 1.0000000180025095e-35 0.89282226562500011 2.1542968750000004 0.038391113281250007 1.0000000180025095e-35 1.0000000180025095e-35 1.0000000180025095e-35 1.0000000180025095e-35 1.0000000180025095e-35 1.0000000180025095e-35 1.2744140625000002 1.0000000180025095e-35 1.0000000180025095e-35 -1.2124023437499998 0.50561523437500011 1.0000000180025095e-35 1.8535156250000002 2.2880859375000004 2.5498046875000004 0.14501953125000003 1.0000000180025095e-35 2.0605468750000004 1.0000000180025095e-35 0.69042968750000011 1.0000000180025095e-35 3.1376953125000004 1.0000000180025095e-35 1.0000000180025095e-35
decision_type=2 2 2 2 2 2 2 2 2 2 2 2 2 2 2 2 2 2 2 2 2 2 2 2 2 2 2 2 2 2
left_child=1 4 3 6 15 13 7 8 9 10 11 12 -3 -6 -15 16 -1 18 21 20 23 -18 25 -17 -25 26 -23 -2 29 -29
right_child=27 2 -4 -5 5 -7 -8 -9 -10 -11 -12 -13 -14 14 -16 19 17 -19 -20 -21 -22 22 -24 24 -26 -27 -28 28 -30 -31
leaf_value=3766.9288962705295 -412.75826378468696 736736.32479619561 4272374.6000000006 773032.23885690793 -1554.8159202755905 634879.90710227285 3218.30609638645 -6210.7478669819084 -130119.35818452382 -4642.939777260638 1141688.8733398437 -143866.586796875 94611.842875000002 438721.56282894732 6744.3386245265156 3746.491364225998 18809.736163330079 -48366.7050286788 603336.0646205357 213761.41165540542 220624.82564338238 340209.67565586418 43224.296568627455 48718.546195579598 408978.16230468755 27609.91143465909 57063.334999999999 110999.2798875517 532694.28625 4502.3550115435864
leaf_weight=411 859732 23 20 38 127 22 363 133 42 47 32 20 25 38 33 12754 88 79 21 37 34 81 51 117 20 22 20 170 30 1391
leaf_count=411 859732 23 20 38 127 22 363 133 42 47 32 20 25 38 33 12754 88 79 21 37 34 81 51 117 20 22 20 170 30 1391
internal_value=0 21346.3 218639 106502 10841.9 139381 69526.9 144279 250178 358835 529669 241660 402296 84325.9 237943 8783.07 56355.3 116062 161963 5946.06 5351.15 126585 181093 4783.37 101311 238257 284141 -364.263 25841.3 16100.4
internal_weight=0 14698 743 723 13955 220 685 322 189 147 100 68 48 198 71 13735 773 362 283 12962 12925 262 174 12891 137 123 101 861323 1591 1561
internal_count=876021 14698 743 723 13955 220 685 322 189 147 100 68 48 198 71 13735 773 362 283 12962 12925 262 174 12891 137 123 101 861323 1591 1561
is_linear=0
shrinkage=0.1


Tree=8
num_leaves=31
num_cat=0
split_feature=1381 100 1548 1105 2044 1740 1375 1059 1385 1675 5 2 237 310 1918 1951 276 834 1319 863 1157 764 155 1740 1951 322 1714 1951 1 970
split_gain=5.51743e+14 2.47977e+15 3.26177e+16 9.26066e+15 1.03733e+16 1.11011e+16 1.37718e+16 2.36916e+16 2.8502e+16 9.19908e+15 6.37512e+14 3.09278e+14 3.0052e+14 5.33319e+14 2.32088e+14 3.55245e+14 1.52091e+14 2.00348e+14 2.21402e+14 1.81221e+14 2.33566e+14 1.41481e+14 1.42299e+14 2.36666e+14 3.07909e+14 1.92933e+14 1.24124e+14 1.22372e+14 1.14978e+14 1.11569e+14
threshold=1.0000000180025095e-35 3.5214843750000004 1.0000000180025095e-35 1.0000000180025095e-35 1.0000000180025095e-35 1.0000000180025095e-35 1.0000000180025095e-35 1.0000000180025095e-35 1.0000000180025095e-35 1.0000000180025095e-35 -0.37475585937499994 0.63940429687500011 2.1542968750000004 0.65966796875000011 1.0000000180025095e-35 1.0000000180025095e-35 -1.2124023437499998 -1.3481445312499998 1.0000000180025095e-35 -1.3154296874999998 1.0000000180025095e-35 -1.8261718749999998 2.5781250000000004 1.0000000180025095e-35 1.0000000180025095e-35 1.6518554687500002 1.0000000180025095e-35 1.0000000180025095e-35 0.78027343750000011 2.4121093750000004
decision_type=2 2 2 2 2 2 2 2 2 2 2 2 2 2 2 2 2 2 2 2 2 2 2 2 2 2 2 2 2 2
left_child=1 12 3 4 5 6 7 8 9 -3 -5 -7 16 14 15 -14 17 18 -1 20 27 -18 29 25 -25 -24 -16 -19 -29 -23
right_child=-2 2 -4 10 -6 11 -8 -9 -10 -11 -12 -13 13 -15 26 -17 21 19 -20 -21 -22 22 23 24 -26 -27 -28 28 -30 -31
leaf_value=438288.88900462969 -327.8365430898142 4976046.422985198 -3360804.9434218751 3452.2270768360427 -2678.5871592569692 162106.02799479169 -9479.510731967659 -205162.25000406904 -267125.91562034976 2587281.5571428575 -576110.68539062503 -291970.02682291664 512629.25600961543 581114.15417798923 -23090.503313603294 -47955.213281250006 211848.96335227272 25348.605900804927 10927.309943181819 4851.9362202321454 431073.96860584081 2187.1407913112471 16697.519691417776 485885.12031250005 -20662.692447916666 336318.75554687507 244373.236484375 65936.110227272729 336431.60541666672 205685.44221643521
leaf_weight=27 861323 38 25 372 139 30 43 33 21 28 20 30 26 23 131 20 33 132 22 508 21 12458 339 28 21 20 20 33 30 27
leaf_count=27 861323 38 25 372 139 30 43 33 21 28 20 30 26 23 131 20 33 132 22 508 21 12458 339 28 21 20 20 33 30 27
internal_value=0 19211.7 192837 310663 675353 1.09798e+06 1.52605e+06 2.07628e+06 2.94166e+06 3.96263e+06 -26117.3 -64932 9494.47 125443 72243 268897 7632.38 50719.8 246412 37475.4 114201 5055.67 4526.38 62641.4 268793 34503.7 12335.2 80076.2 194743 2627.23
internal_weight=0 14698 779 754 362 223 163 120 87 66 392 60 13919 220 197 46 13699 773 49 724 216 12926 12893 408 49 359 151 195 63 12485
internal_count=876021 14698 779 754 362 223 163 120 87 66 392 60 13919 220 197 46 13699 773 49 724 216 12926 12893 408 49 359 151 195 63 12485
is_linear=0
shrinkage=0.1


Tree=9
num_leaves=31
num_cat=0
split_feature=1381 1442 157 1975 302 100 678 1750 1802 1414 91 329 1105 2044 1375 1740 1235 1412 439 65 276 834 1319 888 292 562 1157 991 617 455
split_gain=4.46912e+14 2.05056e+15 1.8762e+16 9.09057e+15 1.23079e+17 1.85141e+15 3.81237e+14 1.23123e+15 7.87779e+14 8.85821e+14 1.03439e+15 5.98084e+14 2.00495e+14 2.84119e+14 2.62954e+14 2.0026e+14 2.11257e+14 2.43156e+14 1.93428e+14 1.84938e+14 1.42247e+14 1.83373e+14 1.93547e+14 1.51078e+14 1.29348e+14 2.45631e+14 1.03964e+14 1.06091e+14 9.2667e+13 7.71304e+14
threshold=1.0000000180025095e-35 1.0000000180025095e-35 2.5917968750000004 1.0000000180025095e-35 1.1586914062500002 3.6562500000000004 2.0244140625000004 1.0000000180025095e-35 1.0000000180025095e-35 1.0000000180025095e-35 -0.57983398437499989 0.13641357421875003 1.0000000180025095e-35 1.0000000180025095e-35 1.0000000180025095e-35 1.0000000180025095e-35 1.0000000180025095e-35 1.0000000180025095e-35 1.3706054687500002 -2.8603515624999996 -1.2124023437499998 -1.3481445312499998 1.0000000180025095e-35 -0.38452148437499994 -1.8969726562499998 0.93432617187500011 1.0000000180025095e-35 0.63232421875000011 -1.0278320312499998 2.0820312500000004
decision_type=2 2 2 2 2 2 2 2 2 2 2 2 2 2 2 2 2 2 2 2 2 2 2 2 2 2 2 2 2 2
left_child=1 3 -3 5 18 6 19 8 9 11 -11 12 13 14 -8 16 -13 -18 -5 -1 21 22 -21 26 25 -22 27 -23 29 -2
right_child=28 2 -4 4 -6 -7 7 -9 -10 10 -12 15 -14 -15 -16 -17 17 -19 -20 20 24 23 -24 -25 -26 -27 -28 -29 -30 -31
leaf_value=230265.02469779353 2481.0592624200481 -3002.5521893099271 -2657609.4140220908 5538.8069619275011 8145891.5182348639 728601.47013888892 -358420.93534307065 858981.28968749999 579383.19958496094 -18451.845703125 998598.72263671877 -28713.977462963347 1789.518168308424 4070.9204973958331 14735.431724665716 476888.40415344242 409252.52421875001 23002.759933035715 -319402.46089843754 429465.59329687501 44454.296179962163 49753.598258988583 12102.018281250001 -6281.1604566497263 2732.9008710686089 413448.7676292783 259678.29717741936 264786.25125000003 -606.56498183879444 162897.40107259655
leaf_weight=37 70960 325 29 218 20 36 69 20 28 20 20 47 230 75 26 20 39 28 20 25 128 279 20 391 12471 21 31 25 790062 301
leaf_count=37 70960 325 29 218 20 36 69 20 28 20 20 47 230 75 26 20 39 28 20 25 128 279 20 391 12471 21 31 25 790062 301
internal_value=0 17290.5 -220470 23158.3 611385 12384.3 10549.1 87085.9 61441.5 36176.1 490073 2176.26 -59077.5 -141427 -256294 185023 133819 247835 -21767.2 7003.88 6387 48085.2 243971 35943.5 3839.51 96460.2 85226.7 67437.2 -295.053 3158.64
internal_weight=0 14698 354 14344 258 14086 14050 622 602 574 40 534 400 170 95 134 114 67 238 13428 13391 771 45 726 12620 149 335 304 861323 71261
internal_count=876021 14698 354 14344 258 14086 14050 622 602 574 40 534 400 170 95 134 114 67 238 13428 13391 771 45 726 12620 149 335 304 861323 71261
is_linear=0
shrinkage=0.1


Tree=10
num_leaves=31
num_cat=0
split_feature=1381 157 1975 2 1699 720 277 3 1153 1720 5 1105 1740 1832 819 1172 609 425 70 137 1675 1918 1227 556 473 2014 94 1675 637 891
split_gain=3.61999e+14 2.24875e+15 3.31673e+16 1.06429e+15 2.34832e+14 2.17679e+14 2.11135e+14 3.20394e+14 2.07063e+14 4.02867e+14 6.30193e+14 9.00774e+14 1.4889e+15 6.88959e+14 1.66091e+14 2.05062e+14 1.69107e+14 1.29851e+14 2.04931e+14 1.30682e+14 1.27508e+14 1.08105e+14 1.03684e+14 9.9032e+13 1.94657e+14 1.25967e+14 9.61432e+13 1.09939e+14 8.82019e+13 1.35219e+15
threshold=1.0000000180025095e-35 2.4394531250000004 1.0000000180025095e-35 0.89282226562500011 1.0000000180025095e-35 -2.6132812499999996 2.1005859375000004 -0.15258789062499997 1.0000000180025095e-35 1.0000000180025095e-35 -0.46325683593749994 1.0000000180025095e-35 1.0000000180025095e-35 1.0000000180025095e-35 2.0605468750000004 1.0000000180025095e-35 0.76123046875000011 2.1494140625000004 0.47546386718750006 2.4609375000000004 1.0000000180025095e-35 1.0000000180025095e-35 1.0000000180025095e-35 2.2167968750000004 0.55468750000000011 1.0000000180025095e-35 2.1533203125000004 1.0000000180025095e-35 -2.1591796874999996 -0.92749023437499989
decision_type=2 2 2 2 2 2 2 2 2 2 2 2 2 2 2 2 2 2 2 2 2 2 2 2 2 2 2 2 2 2
left_child=1 5 3 4 8 -1 14 -8 9 10 11 12 13 -3 17 16 21 19 -19 23 -12 -16 -22 26 -25 -26 -7 -28 29 -2
right_child=28 2 -4 -5 -6 6 7 -9 -10 -11 20 -13 -14 -15 15 -17 -18 18 -20 -21 22 -23 -24 24 25 -27 27 -29 -30 -31
leaf_value=-272007.7971540179 439223.88956282102 510368.67442255444 4202199.8600000003 589081.78223684209 -255462.14181249999 1375.8788832106711 -15960.655093149038 509203.14642857149 -14956.715311572265 -16678.489973440785 -100215.2071183747 17309.310578125001 -53697.386074218753 1276275.5227742514 203267.84237847221 -31071.042067522325 281917.82494140626 -2119.2415459372783 271106.98962765955 232297.72534375 231906.51204044116 10789.429791039158 -18885.076202392578 -3725.6799910089576 96796.824631238356 330010.92220982141 288762.42412500002 2605.9164870689656 -354.80290699380157 6456.0792120826218
leaf_weight=28 73 23 20 38 25 12984 26 21 250 171 51 50 25 24 45 105 60 66 47 25 34 83 32 249 134 28 25 29 854674 6576
leaf_count=28 73 23 20 38 25 12984 26 21 250 171 51 50 25 24 45 105 60 66 47 25 34 83 32 249 134 28 25 29 854674 6576
internal_value=0 15561.5 185078 73954.4 45377.9 6535.96 7095.97 218687 56773.4 100511 184358 343378 569815 901470 6379.48 80870.9 143392 4773.09 111524 3877.83 18542.9 78457.6 110311 3453.23 51784.4 137105 1929.67 135086 -265.548 11207.5
internal_weight=0 14698 743 723 685 13955 13927 47 660 410 239 122 72 47 13880 293 188 13587 113 13474 117 128 66 13449 411 162 13038 54 861323 6649
internal_count=876021 14698 743 723 685 13955 13927 47 660 410 239 122 72 47 13880 293 188 13587 113 13474 117 128 66 13449 411 162 13038 54 861323 6649
is_linear=0
shrinkage=0.1


Tree=11
num_leaves=31
num_cat=0
split_feature=1381 1442 157 1975 950 302 100 578 1414 1912 406 1172 1721 1918 1375 1720 1832 810 1172 1951 1412 1912 244 1058 8 137 802 775 123 1096
split_gain=2.93219e+14 1.9758e+15 1.84708e+16 7.27472e+15 1.21141e+17 1.47315e+15 1.24238e+15 2.66455e+14 9.64301e+14 9.3717e+14 1.43704e+14 1.41405e+14 1.91339e+14 1.50202e+14 1.76519e+14 2.45834e+14 3.61896e+14 1.2552e+14 1.19018e+14 1.15993e+14 2.28262e+14 2.59179e+14 9.72886e+13 9.365e+13 9.12252e+13 9.06877e+13 8.39829e+13 1.15273e+15 8.68699e+14 7.03038e+14
threshold=1.0000000180025095e-35 1.0000000180025095e-35 2.5917968750000004 1.0000000180025095e-35 -1.0483398437499998 1.0483398437500002 3.6562500000000004 -2.7968749999999996 1.0000000180025095e-35 1.0000000180025095e-35 1.4511718750000002 1.0000000180025095e-35 1.0000000180025095e-35 1.0000000180025095e-35 1.0000000180025095e-35 1.0000000180025095e-35 1.0000000180025095e-35 2.2763671875000004 1.0000000180025095e-35 1.0000000180025095e-35 1.0000000180025095e-35 1.0000000180025095e-35 2.3632812500000004 1.0000000180025095e-35 1.2778320312500002 2.4609375000000004 1.0610351562500002 2.3447265625000004 2.6943359375000004 1.0000000180025095e-35
decision_type=2 2 2 2 2 2 2 2 2 2 2 2 2 2 2 2 2 2 2 2 2 2 2 2 2 2 2 2 2 2
left_child=1 3 -3 6 -5 -6 7 8 11 -10 17 12 13 14 15 16 -1 22 19 20 21 23 25 -12 -15 -9 -2 28 -28 -30
right_child=26 2 -4 4 5 -7 -8 10 9 -11 18 -13 -14 24 -16 -17 -18 -19 -20 -21 -22 -23 -24 -25 -26 -27 27 -29 29 -31
leaf_value=212031.04772273937 -555.01456239826086 -3607.288223707933 -2637535.6663793102 8020942.6643945314 -803.48139307776171 -842835.39650135883 596833.16215277778 3265.101912683655 1006535.145684524 122807.34045758931 587105.29265625007 -30884.405525247465 -63721.943343341889 174504.3976888021 3598.0075597426471 -11965.336786684784 711360.88928571437 224231.60700120192 -45523.022782389329 -11982.778084935897 -34827.718563842776 34776.434375000004 116377.01344866071 305825.94160156249 -65120.593552609709 183423.54676339286 2295.1295766611288 710688.74993206526 -3344.8340945512823 563112.47307421872
leaf_weight=47 781298 325 29 20 215 23 36 13221 21 28 20 191 67 24 34 23 21 26 48 39 32 27 77 29 47 28 79913 23 39 50
leaf_count=47 781298 325 29 20 215 23 36 13221 21 28 20 191 67 24 34 23 21 26 48 39 32 27 77 29 47 28 79913 23 39 50
internal_value=0 14005.3 -219381 19765.1 545972 -82176.3 10127.1 8623.78 80091.8 501548 5970.17 34604.2 82164.4 132034 198009 270647 366236 4725.5 91195.4 135838 189218 283553 4297.22 420634 15879.4 3645.84 -238.993 2846.38 2642.88 314890
internal_weight=0 14698 354 14344 258 238 14086 14050 503 49 13547 454 263 196 125 91 68 13352 195 147 108 76 13326 49 71 13249 861323 80025 80002 89
internal_count=876021 14698 354 14344 258 238 14086 14050 503 49 13547 454 263 196 125 91 68 13352 195 147 108 76 13326 49 71 13249 861323 80025 80002 89
is_linear=0
shrinkage=0.1


Tree=12
num_leaves=31
num_cat=0
split_feature=1381 157 1548 1105 2044 1740 1375 1059 1385 1675 34 1975 591 785 1 277 330 467 787 893 864 1058 484 1562 1784 1172 1227 326 1238 258
split_gain=2.37507e+14 1.93826e+15 2.90871e+16 7.3584e+15 8.01052e+15 1.00335e+16 1.17099e+16 2.10123e+16 2.53364e+16 1.07687e+16 9.1775e+14 1.99696e+14 7.68053e+14 2.07421e+14 1.55657e+14 1.46147e+14 2.38181e+14 1.22687e+14 1.17653e+14 2.24381e+14 1.80243e+14 1.88827e+14 2.27045e+14 1.36778e+14 1.2992e+14 1.82719e+14 1.29096e+14 2.36455e+14 9.77402e+13 1.2053e+14
threshold=1.0000000180025095e-35 2.4394531250000004 1.0000000180025095e-35 1.0000000180025095e-35 1.0000000180025095e-35 1.0000000180025095e-35 1.0000000180025095e-35 1.0000000180025095e-35 1.0000000180025095e-35 1.0000000180025095e-35 0.67871093750000011 1.0000000180025095e-35 -1.2802734374999998 0.92651367187500011 1.2744140625000002 2.1005859375000004 0.62695312500000011 -0.83618164062499989 -0.85571289062499989 -1.9707031249999998 1.5268554687500002 1.0000000180025095e-35 -0.41967773437499994 1.0000000180025095e-35 1.0000000180025095e-35 1.0000000180025095e-35 1.0000000180025095e-35 0.031677246093750007 1.0000000180025095e-35 0.36499023437500006
decision_type=2 2 2 2 2 2 2 2 2 2 2 2 2 2 2 2 2 2 2 2 2 2 2 2 2 2 2 2 2 2
left_child=1 11 3 4 5 6 7 8 9 -3 -5 15 -13 17 -7 18 -17 -14 19 -1 23 -22 -23 26 25 -24 28 -28 -21 -30
right_child=-2 2 -4 10 -6 14 -8 -9 -10 -11 -12 12 13 -15 -16 16 -18 -19 -20 20 21 22 24 -25 -26 -27 27 -29 29 -31
leaf_value=314772.23037860577 -215.09357043238185 5055993.5681818184 -3411906.1215909095 11791.596589321 7398.6771092120871 -289996.88312499999 -24795.176822122714 -215242.92288818362 -265661.76998046873 2363107.3166666669 -684276.18203125009 -626897.91995584243 -247424.06863839287 -344336.84753906255 40965.69522569445 432471.94568452379 -24355.871171875002 1946.9732417381617 382.15169426973472 4370.0825618868885 -6567.0694434580182 402973.12919034093 23268.72355638587 204053.40218538852 -81814.339983258935 305125.10102645209 310717.36455841066 -162.2770023406498 335583.53966796875 -7432.7114955357147
leaf_weight=26 861323 33 22 358 133 30 41 32 20 27 20 23 21 20 27 21 25 326 10252 2808 99 33 46 37 28 46 40 63 20 21
leaf_count=26 861323 33 22 358 133 30 41 32 20 27 20 23 21 20 27 21 25 326 10252 2808 99 33 46 37 28 46 40 63 20 21
internal_value=0 12604.8 169984 279279 614648 999239 1.42114e+06 1.95045e+06 2.81673e+06 3.84419e+06 -25037.4 4225.5 -66324.6 -31193.3 -133225 6253.85 184196 -13144.6 5648.38 22174 19826.8 101045 170676 12979.3 106794 164197 10584.4 120568 6608.2 159892
internal_weight=0 14698 743 721 343 210 153 112 80 60 378 13955 390 367 57 13565 46 347 13519 3267 3241 252 153 2989 120 92 2952 103 2849 41
internal_count=876021 14698 743 721 343 210 153 112 80 60 378 13955 390 367 57 13565 46 347 13519 3267 3241 252 153 2989 120 92 2952 103 2849 41
is_linear=0
shrinkage=0.1


Tree=13
num_leaves=31
num_cat=0
split_feature=1381 157 1975 1699 2 2036 1511 1675 1375 1058 1740 1975 591 465 237 672 1375 475 1918 1172 1139 792 78 358 820 1951 331 1105 1832 1308
split_gain=1.92381e+14 1.56999e+15 3.27433e+16 7.82435e+14 1.08378e+15 2.61992e+14 1.93727e+14 2.09028e+14 4.47038e+14 7.1851e+14 1.95759e+15 1.61754e+14 6.22123e+14 1.83026e+14 1.22657e+14 3.0036e+14 1.71989e+14 1.20704e+14 2.09895e+14 2.03787e+14 1.04369e+14 1.0132e+14 8.60698e+13 8.68407e+13 1.39722e+14 8.54257e+13 1.52619e+14 1.32055e+14 1.28993e+14 8.13104e+13
threshold=1.0000000180025095e-35 2.4394531250000004 1.0000000180025095e-35 1.0000000180025095e-35 0.89282226562500011 1.0000000180025095e-35 1.0000000180025095e-35 1.0000000180025095e-35 1.0000000180025095e-35 1.0000000180025095e-35 1.0000000180025095e-35 1.0000000180025095e-35 -1.2802734374999998 -1.5239257812499998 1.6479492187500002 0.11953735351562501 1.0000000180025095e-35 0.90454101562500011 1.0000000180025095e-35 1.0000000180025095e-35 1.0000000180025095e-35 -0.89526367187499989 2.5498046875000004 -1.4604492187499998 -1.5336914062499998 1.0000000180025095e-35 -0.53320312499999989 1.0000000180025095e-35 1.0000000180025095e-35 1.0000000180025095e-35
decision_type=2 2 2 2 2 2 2 2 2 2 2 2 2 2 2 2 2 2 2 2 2 2 2 2 2 2 2 2 2 2
left_child=1 11 3 4 5 6 7 -3 9 10 -9 14 -13 -14 22 16 17 -16 19 -19 -20 -15 23 24 -1 26 29 28 -28 -26
right_child=-2 2 -4 -5 -6 -7 -8 8 -10 -11 -12 12 13 21 15 -17 -18 18 20 -21 -22 -23 -24 -25 25 -27 27 -29 -30 -31
leaf_value=289950.69933035714 -193.58420366883294 -54642.257942905977 4144346.8600000003 -475709.95055803575 605724.6096428571 352231.4153828125 -182746.71813680962 1153484.4480664064 -2838.5671933501621 -10927.502993691935 79989.087046727596 -564208.12105978269 -295045.20878906251 209023.6565917969 -24776.851477704731 436063.02945312508 299469.65351562499 431041.20560344832 -24090.584598482572 16114.041250000002 215651.30053267046 -22918.031450149963 165176.51496212123 1397.7709976144765 319972.86141948088 -7063.9962970427196 353310.47984035331 5678.9246462897345 61076.731798206682 84880.14146205358
leaf_weight=21 861323 175 20 28 35 25 43 25 265 74 53 23 24 20 224 20 24 29 104 20 22 323 33 12290 31 361 23 291 44 28
leaf_count=21 861323 175 20 28 35 25 43 25 265 74 53 23 24 20 224 20 24 29 104 20 22 323 33 12290 31 361 23 291 44 28
internal_value=0 11344.3 152986 42574.6 63455.1 34698.4 22197.1 37083.2 75577.2 212289 424058 3802.95 -59692.1 -28073.9 5628.46 57381.3 39476.7 23838 86065 261683 17769.1 -9393.73 3881.28 3474.62 35420.2 28549.9 59381 34821.5 161396 208403
internal_weight=0 14698 743 723 695 660 635 592 417 152 78 13955 390 367 13565 443 423 399 175 49 126 343 13122 13089 799 778 417 358 67 59
internal_count=876021 14698 743 723 695 660 635 592 417 152 78 13955 390 367 13565 443 423 399 175 49 126 343 13122 13089 799 778 417 358 67 59
is_linear=0
shrinkage=0.1


Tree=14
num_leaves=31
num_cat=0
split_feature=787 1874 1548 1975 81 8 1594 1802 870 1864 2004 1018 994 1096 100 556 1339 4 556 1238 679 1649 1915 1848 1422 578 1598 1811 1115 1153
split_gain=1.56256e+14 5.7363e+14 4.78615e+15 3.68477e+16 8.60986e+16 2.09744e+16 2.14785e+15 6.7265e+14 2.23653e+15 5.41771e+14 4.34248e+14 1.40396e+15 3.93852e+14 9.53197e+14 3.82489e+14 2.19838e+14 5.59133e+14 1.05504e+15 1.87587e+14 1.87419e+14 1.68256e+14 2.66357e+14 1.64718e+14 2.01563e+14 1.52804e+14 1.47795e+14 5.58596e+14 4.30082e+14 1.32501e+14 1.46992e+14
threshold=-1.0395507812499998 1.0000000180025095e-35 1.0000000180025095e-35 1.0000000180025095e-35 -0.76684570312499989 1.0751953125000002 1.0000000180025095e-35 1.0000000180025095e-35 0.67358398437500011 1.0000000180025095e-35 1.0000000180025095e-35 -0.41870117187499994 2.3154296875000004 1.0000000180025095e-35 3.6562500000000004 2.4082031250000004 1.0000000180025095e-35 -0.84570312499999989 1.6459960937500002 1.0000000180025095e-35 2.9326171875000004 1.0000000180025095e-35 1.0000000180025095e-35 1.0000000180025095e-35 1.0000000180025095e-35 -2.7968749999999996 1.0000000180025095e-35 1.0000000180025095e-35 1.0000000180025095e-35 1.0000000180025095e-35
decision_type=2 2 2 2 2 2 2 2 2 2 2 2 2 2 2 2 2 2 2 2 2 2 2 2 2 2 2 2 2 2
left_child=1 2 3 6 -5 -4 7 9 -9 10 14 -12 15 -14 18 -3 24 -18 19 -1 25 -22 23 28 -17 26 -2 -28 29 -20
right_child=20 12 5 4 -6 -7 -8 8 -10 -11 11 -13 13 -15 -16 16 17 -19 22 -21 21 -23 -24 -25 -26 -27 27 -29 -30 -31
leaf_value=1406.6387374731576 -2420.5250052260135 1539.1238087553577 -4199.4512264251707 7874453.5288720699 -195605.86361240485 -3225683.2339355471 881322.72760388616 -5733.53021156048 1220591.5035205078 467343.7673621545 965446.54531066911 -10610.868809291294 -2386.9523315942588 510845.66420522839 -329017.01846277574 6022.8178043684638 -4817.4579861111115 953447.67978515627 541535.80326086958 227556.37152000633 48924.713948702403 426362.21274108888 -52135.084338081178 -71642.480273437497 260696.28798076927 -564.6054039504628 575203.00451660156 115637.12331368584 84987.887971443968 207879.65077494961
leaf_weight=3825 313 103946 128 20 39 24 29 58 20 26 20 56 119 52 34 251 27 20 23 37 287 20 41 24 26 766408 32 56 29 31
leaf_count=3825 313 103946 128 20 39 24 29 58 20 26 20 56 119 52 34 251 27 20 23 37 287 20 41 24 26 766408 32 56 29 31
internal_value=0 3544.6 38649.3 58090.1 2.54001e+06 -512855 23659.5 17771.2 308709 12297.7 9426.07 246246 2044.16 153684 4975.44 1795.48 84039.2 402955 7807.3 3573.27 -503.216 73513.5 118292 183596 29927.2 -532.849 60161 282752 257400 349992
internal_weight=0 108905 4464 4312 59 152 4253 4224 78 4146 4120 76 104441 171 4044 104270 324 47 4010 3862 767116 307 148 107 277 766809 401 88 83 54
internal_count=876021 108905 4464 4312 59 152 4253 4224 78 4146 4120 76 104441 171 4044 104270 324 47 4010 3862 767116 307 148 107 277 766809 401 88 83 54
is_linear=0
shrinkage=0.1


Tree=15
num_leaves=31
num_cat=0
split_feature=578 1975 1951 1058 1381 2004 1403 1983 1414 962 1598 1811 1802 1172 1381 1105 2044 1375 1740 1385 1059 1 1845 819 1594 660 1381 1983 1015 4
split_gain=1.52682e+14 2.38716e+15 4.06826e+16 6.42059e+16 2.13935e+16 6.69665e+14 8.58993e+14 1.9204e+14 2.2428e+15 1.88383e+14 4.45173e+14 3.22165e+14 1.63766e+14 1.01373e+15 2.02774e+14 4.5179e+14 5.63466e+14 4.56463e+14 5.07064e+14 8.49725e+14 8.29885e+14 2.83466e+14 1.08476e+14 9.11148e+13 1.34971e+15 8.22399e+14 4.78109e+14 3.22734e+14 1.497e+15 5.73471e+14
threshold=-2.6728515624999996 1.0000000180025095e-35 1.0000000180025095e-35 1.0000000180025095e-35 1.0000000180025095e-35 1.0000000180025095e-35 1.0000000180025095e-35 1.0000000180025095e-35 1.0000000180025095e-35 0.95849609375000011 1.0000000180025095e-35 1.0000000180025095e-35 1.0000000180025095e-35 1.0000000180025095e-35 1.0000000180025095e-35 1.0000000180025095e-35 1.0000000180025095e-35 1.0000000180025095e-35 1.0000000180025095e-35 1.0000000180025095e-35 1.0000000180025095e-35 1.0483398437500002 1.0000000180025095e-35 2.1523437500000004 1.0000000180025095e-35 1.5688476562500002 1.0000000180025095e-35 1.0000000180025095e-35 0.099182128906250014 -1.9277343749999998
decision_type=2 2 2 2 2 2 2 2 2 2 2 2 2 2 2 2 2 2 2 2 2 2 2 2 2 2 2 2 2 2
left_child=1 5 3 -3 -4 7 -7 9 -9 12 -11 -12 14 -14 15 16 17 18 19 20 21 -1 -13 -2 25 27 -27 29 -29 -25
right_child=23 2 4 -5 -6 6 -8 8 -10 10 11 22 13 -15 -16 -17 -18 -19 -20 -21 -22 -23 -24 24 -26 26 -28 28 -30 -31
leaf_value=-1096698.2533653846 -245.41396006228467 6772936.2053331472 -3329751.9302641372 -28545.819885602683 9564.9204609843528 877824.47594009398 -1432.9597636718752 -934.78875669787544 1078850.7069149928 -7141.1894380505464 560356.89538574219 -23432.795499320651 685240.25360986334 -7210.6231217210316 1639.3782070913935 15930.232733083816 19527.581279333313 -3716.0454502650668 -48501.19510788691 30688.937560096158 -162293.62806250001 -620110.35781249998 283693.57015964674 -212661.52399904828 777606.41040463652 132856.41526442309 624133.31765766151 2657.4805002520166 956317.90908447269 6113.5884575735545
leaf_weight=26 857232 23 21 35 222 20 25 229 21 149 28 23 25 137 12070 433 134 56 42 26 25 24 23 123 23 52 32 93 20 4629
leaf_count=26 857232 23 21 35 222 20 25 229 21 149 28 23 25 137 12070 433 134 56 42 26 25 24 23 123 23 52 32 93 20 4629
internal_value=0 10428.8 288960 2.66859e+06 -279018 4225.95 389348 2939.45 89767.2 1297.6 92430.3 292919 -265.921 99649.1 -1526.92 -51418.9 -138993 -245736 -340512 -461943 -632722 -867936 130130 -167.124 13331 9779.09 320010 4422.6 171447 450.849
internal_weight=0 13817 301 58 243 13516 45 13471 250 13221 223 74 12998 162 12836 766 333 199 143 101 75 50 46 862204 4972 4949 84 4865 113 4752
internal_count=876021 13817 301 58 243 13516 45 13471 250 13221 223 74 12998 162 12836 766 333 199 143 101 75 50 46 862204 4972 4949 84 4865 113 4752
is_linear=0
shrinkage=0.1


Tree=16
num_leaves=31
num_cat=0
split_feature=1381 157 1975 1699 2 2036 1511 30 1172 1059 1058 1720 1832 1975 192 467 216 277 3 420 406 1172 1951 1412 1912 297 1499 1855 1153 1042
split_gain=1.62646e+14 1.60291e+15 3.27069e+16 6.15456e+14 9.72765e+14 2.1169e+14 1.48491e+14 1.6863e+14 2.851e+14 5.05195e+14 6.23727e+14 1.04277e+15 1.53674e+15 1.47637e+14 6.28961e+14 3.03159e+14 1.21229e+14 1.0392e+14 1.90152e+14 9.68774e+13 9.21968e+13 8.49992e+13 9.09317e+13 1.68918e+14 1.79869e+14 7.96695e+13 6.36484e+14 1.44047e+14 6.17476e+14 7.36557e+13
threshold=1.0000000180025095e-35 2.4394531250000004 1.0000000180025095e-35 1.0000000180025095e-35 0.89282226562500011 1.0000000180025095e-35 1.0000000180025095e-35 0.92773437500000011 1.0000000180025095e-35 1.0000000180025095e-35 1.0000000180025095e-35 1.0000000180025095e-35 1.0000000180025095e-35 1.0000000180025095e-35 -1.0561523437499998 -0.83618164062499989 1.0703125000000002 2.1005859375000004 -0.15258789062499997 1.5205078125000002 1.4511718750000002 1.0000000180025095e-35 1.0000000180025095e-35 1.0000000180025095e-35 1.0000000180025095e-35 3.1376953125000004 1.0000000180025095e-35 1.0000000180025095e-35 1.0000000180025095e-35 1.0000000180025095e-35
decision_type=2 2 2 2 2 2 2 2 2 2 2 2 2 2 2 2 2 2 2 2 2 2 2 2 2 2 2 2 2 2
left_child=1 13 3 4 5 6 7 -3 9 10 11 12 -9 17 -15 -16 19 20 -19 -17 29 22 23 24 -22 -2 27 -27 -29 -1
right_child=25 2 -4 -5 -6 -7 -8 8 -10 -11 -12 -13 -14 14 15 16 -18 18 -20 -21 21 -23 -24 -25 -26 26 -28 28 -30 -31
leaf_value=2243.9109270061795 -219.36931772934847 -18563.716168636747 4142692.1799999997 -416466.89765625005 575465.80035714281 319901.51556250005 -156190.79835574128 201118.26498842594 -27669.14048095703 -56052.684029388431 -6885.4713958030525 -118619.27291666668 1300876.8907958986 -604067.4034375 -338718.3142914871 2407.2073571691981 236943.30922851563 -23716.325454477163 386419.73125000001 -173849.94377790182 352645.24894770409 -43231.556941731775 -20847.273758012823 -35436.682519531249 31201.801446759258 4964.9279344346796 478425.35916666669 529362.42846679688 -12888.400190952847 72029.466351358264
leaf_weight=13171 859732 288 20 28 35 25 43 27 125 64 43 21 24 20 29 286 20 26 20 35 49 48 39 32 27 1449 30 28 84 153
leaf_count=13171 859732 288 20 28 35 25 43 27 125 64 43 21 24 20 29 286 20 26 20 35 49 48 39 32 27 1449 30 28 84 153
internal_value=0 10430.8 153549 43199.7 61718.6 34474.4 23237.1 36269.9 88217.6 169144 294471 474448 718652 2810.83 -57850.3 -28325 -1927.92 4554.87 154604 -16810.9 4044.31 72307.4 110034 157297 238448 -177.996 22178.8 13410.4 122674 3045.26
internal_weight=0 14698 743 723 695 660 635 592 304 179 115 72 51 13955 390 370 341 13565 46 321 13519 195 147 108 76 861323 1591 1561 112 13324
internal_count=876021 14698 743 723 695 660 635 592 304 179 115 72 51 13955 390 370 341 13565 46 321 13519 195 147 108 76 861323 1591 1561 112 13324
is_linear=0
shrinkage=0.1


Tree=17
num_leaves=31
num_cat=0
split_feature=1381 1442 157 1975 299 419 100 274 2004 879 237 697 387 818 556 1280 28 837 819 26 905 190 1817 1254 1131 1 246 679 1028 656
split_gain=1.31744e+14 1.36271e+15 1.41627e+16 5.58456e+15 1.11878e+17 1.40287e+15 6.31394e+14 4.40459e+14 2.21514e+14 2.18114e+15 9.05245e+13 1.90351e+14 8.45819e+13 7.19152e+13 4.53531e+14 1.23966e+15 4.65938e+14 3.66194e+14 2.96215e+14 8.94105e+14 2.68814e+14 2.39159e+14 2.32232e+14 2.12117e+14 2.09866e+14 1.48132e+14 1.0969e+14 8.81345e+13 2.33758e+14 8.04092e+13
threshold=1.0000000180025095e-35 1.0000000180025095e-35 2.5917968750000004 1.0000000180025095e-35 1.1245117187500002 -0.73193359374999989 3.6562500000000004 1.0893554687500002 1.0000000180025095e-35 -0.98535156249999989 2.4013671875000004 0.052032470703125007 -1.0581054687499998 -0.40905761718749994 2.4082031250000004 1.0000000180025095e-35 0.96166992187500011 2.7822265625000004 2.3222656250000004 0.67895507812500011 3.4082031250000004 -1.7705078124999998 1.0000000180025095e-35 1.0000000180025095e-35 1.0000000180025095e-35 -0.73168945312499989 -2.4101562499999996 2.9326171875000004 1.0000000180025095e-35 2.3837890625000004
decision_type=2 2 2 2 2 2 2 2 2 2 2 2 2 2 2 2 2 2 2 2 2 2 2 2 2 2 2 2 2 2
left_child=1 3 12 6 5 -5 8 -7 10 -10 -1 -12 -3 14 17 22 -17 21 20 -20 -15 25 -16 -19 -22 -2 -23 29 -29 -28
right_child=13 2 -4 4 -6 7 -8 -9 9 -11 11 -13 -14 18 15 16 -18 23 19 -21 24 26 -24 -25 -26 -27 27 28 -30 -31
leaf_value=2626.7485988353928 266557.00050426135 198606.03614211312 -2301891.4224137934 -870732.32608695654 7658720.9313281253 -1940.3838701071199 423983.7654513889 -484067.29810267856 1098807.5080029299 -15190.864585129311 351292.50030570658 19105.004073256343 -8901.5963404605263 -698.93407630456886 25273.928566534323 301856.9693824405 976278.14500000002 67080.920351562498 -12371.2785456477 651065.5591517858 80857.293989073558 118259.96613601684 369077.61277901789 522126.14523809525 448268.81827059662 -4042.5887630462648 969.56958142516999 19915.480284348479 249095.15710021975 63632.05881459306
